{"learner":{"attributes":{"scikit_learn":"{\"_estimator_type\": \"regressor\"}"},"feature_names":[],"feature_types":[],"gradient_booster":{"model":{"cats":{"enc":[],"feature_segments":[],"sorted_idx":[]},"gbtree_model_param":{"num_parallel_tree":"1","num_trees":"500"},"iteration_indptr":[0,1,2,3,4,5,6,7,8,9,10,11,12,13,14,15,16,17,18,19,20,21,22,23,24,25,26,27,28,29,30,31,32,33,34,35,36,37,38,39,40,41,42,43,44,45,46,47,48,49,50,51,52,53,54,55,56,57,58,59,60,61,62,63,64,65,66,67,68,69,70,71,72,73,74,75,76,77,78,79,80,81,82,83,84,85,86,87,88,89,90,91,92,93,94,95,96,97,98,99,100,101,102,103,104,105,106,107,108,109,110,111,112,113,114,115,116,117,118,119,120,121,122,123,124,125,126,127,128,129,130,131,132,133,134,135,136,137,138,139,140,141,142,143,144,145,146,147,148,149,150,151,152,153,154,155,156,157,158,159,160,161,162,163,164,165,166,167,168,169,170,171,172,173,174,175,176,177,178,179,180,181,182,183,184,185,186,187,188,189,190,191,192,193,194,195,196,197,198,199,200,201,202,203,204,205,206,207,208,209,210,211,212,213,214,215,216,217,218,219,220,221,222,223,224,225,226,227,228,229,230,231,232,233,234,235,236,237,238,239,240,241,242,243,244,245,246,247,248,249,250,251,252,253,254,255,256,257,258,259,260,261,262,263,264,265,266,267,268,269,270,271,272,273,274,275,276,277,278,279,280,281,282,283,284,285,286,287,288,289,290,291,292,293,294,295,296,297,298,299,300,301,302,303,304,305,306,307,308,309,310,311,312,313,314,315,316,317,318,319,320,321,322,323,324,325,326,327,328,329,330,331,332,333,334,335,336,337,338,339,340,341,342,343,344,345,346,347,348,349,350,351,352,353,354,355,356,357,358,359,360,361,362,363,364,365,366,367,368,369,370,371,372,373,374,375,376,377,378,379,380,381,382,383,384,385,386,387,388,389,390,391,392,393,394,395,396,397,398,399,400,401,402,403,404,405,406,407,408,409,410,411,412,413,414,415,416,417,418,419,420,421,422,423,424,425,426,427,428,429,430,431,432,433,434,435,436,437,438,439,440,441,442,443,444,445,446,447,448,449,450,451,452,453,454,455,456,457,458,459,460,461,462,463,464,465,466,467,468,469,470,471,472,473,474,475,476,477,478,479,480,481,482,483,484,485,486,487,488,489,490,491,492,493,494,495,496,497,498,499,500],"tree_info":[0,0,0,0,0,0,0,0,0,0,0,0,0,0,0,0,0,0,0,0,0,0,0,0,0,0,0,0,0,0,0,0,0,0,0,0,0,0,0,0,0,0,0,0,0,0,0,0,0,0,0,0,0,0,0,0,0,0,0,0,0,0,0,0,0,0,0,0,0,0,0,0,0,0,0,0,0,0,0,0,0,0,0,0,0,0,0,0,0,0,0,0,0,0,0,0,0,0,0,0,0,0,0,0,0,0,0,0,0,0,0,0,0,0,0,0,0,0,0,0,0,0,0,0,0,0,0,0,0,0,0,0,0,0,0,0,0,0,0,0,0,0,0,0,0,0,0,0,0,0,0,0,0,0,0,0,0,0,0,0,0,0,0,0,0,0,0,0,0,0,0,0,0,0,0,0,0,0,0,0,0,0,0,0,0,0,0,0,0,0,0,0,0,0,0,0,0,0,0,0,0,0,0,0,0,0,0,0,0,0,0,0,0,0,0,0,0,0,0,0,0,0,0,0,0,0,0,0,0,0,0,0,0,0,0,0,0,0,0,0,0,0,0,0,0,0,0,0,0,0,0,0,0,0,0,0,0,0,0,0,0,0,0,0,0,0,0,0,0,0,0,0,0,0,0,0,0,0,0,0,0,0,0,0,0,0,0,0,0,0,0,0,0,0,0,0,0,0,0,0,0,0,0,0,0,0,0,0,0,0,0,0,0,0,0,0,0,0,0,0,0,0,0,0,0,0,0,0,0,0,0,0,0,0,0,0,0,0,0,0,0,0,0,0,0,0,0,0,0,0,0,0,0,0,0,0,0,0,0,0,0,0,0,0,0,0,0,0,0,0,0,0,0,0,0,0,0,0,0,0,0,0,0,0,0,0,0,0,0,0,0,0,0,0,0,0,0,0,0,0,0,0,0,0,0,0,0,0,0,0,0,0,0,0,0,0,0,0,0,0,0,0,0,0,0,0,0,0,0,0,0,0,0,0,0,0,0,0,0,0,0,0,0,0,0,0,0,0,0,0,0,0,0,0,0,0,0,0,0,0,0,0,0,0,0,0,0,0,0,0,0,0,0,0,0,0,0,0,0,0,0,0,0,0,0,0,0,0,0,0,0,0,0,0,0,0,0,0,0,0],"trees":[{"base_weights":[3.1916272E-2,-6.872769E-3,9.924535E-2,1.536068E-2,-2.443886E-3],"categories":[],"categories_nodes":[],"categories_segments":[],"categories_sizes":[],"default_left":[0,0,0,0,0],"id":0,"left_children":[1,-1,3,-1,-1],"loss_changes":[4.0679906E-2,0E0,2.540977E-2,0E0,0E0],"parents":[2147483647,0,0,2,2],"right_children":[2,-1,4,-1,-1],"split_conditions":[8.01502E0,-6.872769E-3,8.06114E0,1.536068E-2,-2.443886E-3],"split_indices":[3,0,2,0,0],"split_type":[0,0,0,0,0],"sum_hessian":[5E0,2E0,3E0,2E0,1E0],"tree_param":{"num_deleted":"0","num_feature":"6","num_nodes":"5","size_leaf_vector":"1"}},{"base_weights":[2.9273987E-2,-5.4939542E-2,1.4131813E-2,-6.322956E-3,-2.2809664E-3],"categories":[],"categories_nodes":[],"categories_segments":[],"categories_sizes":[],"default_left":[0,0,0,0,0],"id":1,"left_children":[1,3,-1,-1,-1],"loss_changes":[5.5777956E-2,2.1112803E-4,0E0,0E0,0E0],"parents":[2147483647,0,0,1,1],"right_children":[2,4,-1,-1,-1],"split_conditions":[8.06114E0,7.9934287E0,1.4131813E-2,-6.322956E-3,-2.2809664E-3],"split_indices":[0,1,0,0,0],"split_type":[0,0,0,0,0],"sum_hessian":[5E0,3E0,2E0,2E0,1E0],"tree_param":{"num_deleted":"0","num_feature":"6","num_nodes":"5","size_leaf_vector":"1"}},{"base_weights":[2.164858E-2,-5.8901213E-2,7.609149E-2,-7.687982E-3,-2.1288872E-3,1.3001251E-2,-3.9140703E-3],"categories":[],"categories_nodes":[],"categories_segments":[],"categories_sizes":[],"default_left":[0,0,0,0,0,0,0],"id":2,"left_children":[1,3,5,-1,-1,-1,-1],"loss_changes":[2.636045E-2,8.722013E-4,2.4291422E-2,0E0,0E0,0E0,0E0],"parents":[2147483647,0,0,1,1,2,2],"right_children":[2,4,6,-1,-1,-1,-1],"split_conditions":[7.9054165E0,7.8741407E0,8.088253E0,-7.687982E-3,-2.1288872E-3,1.3001251E-2,-3.9140703E-3],"split_indices":[0,0,1,0,0,0,0],"split_type":[0,0,0,0,0,0,0],"sum_hessian":[5E0,2E0,3E0,1E0,1E0,2E0,1E0],"tree_param":{"num_deleted":"0","num_feature":"6","num_nodes":"7","size_leaf_vector":"1"}},{"base_weights":[-3.0309237E-3,-7.540921E-3,6.978035E-2,1.1961136E-2,-3.653145E-3],"categories":[],"categories_nodes":[],"categories_segments":[],"categories_sizes":[],"default_left":[0,0,0,0,0],"id":3,"left_children":[1,-1,3,-1,-1],"loss_changes":[3.688575E-2,0E0,2.0726472E-2,0E0,0E0],"parents":[2147483647,0,0,2,2],"right_children":[2,-1,4,-1,-1],"split_conditions":[8.06114E0,-7.540921E-3,8.088253E0,1.1961136E-2,-3.653145E-3],"split_indices":[0,0,1,0,0],"split_type":[0,0,0,0,0],"sum_hessian":[6E0,3E0,3E0,2E0,1E0],"tree_param":{"num_deleted":"0","num_feature":"6","num_nodes":"5","size_leaf_vector":"1"}},{"base_weights":[2.9752731E-2,-5.6487657E-3,1.1004257E-2],"categories":[],"categories_nodes":[],"categories_segments":[],"categories_sizes":[],"default_left":[0,0,0],"id":4,"left_children":[1,-1,-1],"loss_changes":[3.4267046E-2,0E0,0E0],"parents":[2147483647,0,0],"right_children":[2,-1,-1],"split_conditions":[8.06114E0,-5.6487657E-3,1.1004257E-2],"split_indices":[0,0,0],"split_type":[0,0,0],"sum_hessian":[4E0,2E0,2E0],"tree_param":{"num_deleted":"0","num_feature":"6","num_nodes":"3","size_leaf_vector":"1"}},{"base_weights":[6.955954E-4,-5.32653E-2,5.455712E-2,-6.7925453E-3,-1.1076609E-3,1.012394E-2,-4.143238E-3],"categories":[],"categories_nodes":[],"categories_segments":[],"categories_sizes":[],"default_left":[0,0,0,0,0,0,0],"id":5,"left_children":[1,3,5,-1,-1,-1,-1],"loss_changes":[2.0344704E-2,1.7885324E-3,1.7780825E-2,0E0,0E0,0E0,0E0],"parents":[2147483647,0,0,1,1,2,2],"right_children":[2,4,6,-1,-1,-1,-1],"split_conditions":[7.9054165E0,7.895052E0,8.109769E0,-6.7925453E-3,-1.1076609E-3,1.012394E-2,-4.143238E-3],"split_indices":[0,0,3,0,0,0,0],"split_type":[0,0,0,0,0,0,0],"sum_hessian":[6E0,3E0,3E0,2E0,1E0,2E0,1E0],"tree_param":{"num_deleted":"0","num_feature":"6","num_nodes":"7","size_leaf_vector":"1"}},{"base_weights":[-7.0858737E-3,-6.311512E-3,4.995564E-2,9.314003E-3,-3.8670225E-3],"categories":[],"categories_nodes":[],"categories_segments":[],"categories_sizes":[],"default_left":[0,0,0,0,0],"id":6,"left_children":[1,-1,3,-1,-1],"loss_changes":[2.2350434E-2,0E0,1.519626E-2,0E0,0E0],"parents":[2147483647,0,0,2,2],"right_children":[2,-1,4,-1,-1],"split_conditions":[8.06114E0,-6.311512E-3,8.088253E0,9.314003E-3,-3.8670225E-3],"split_indices":[0,0,1,0,0],"split_type":[0,0,0,0,0],"sum_hessian":[6E0,3E0,3E0,2E0,1E0],"tree_param":{"num_deleted":"0","num_feature":"6","num_nodes":"5","size_leaf_vector":"1"}},{"base_weights":[1.6560342E-2,-5.5880547E-3,8.5689165E-3],"categories":[],"categories_nodes":[],"categories_segments":[],"categories_sizes":[],"default_left":[0,0,0],"id":7,"left_children":[1,-1,-1],"loss_changes":[2.4929065E-2,0E0,0E0],"parents":[2147483647,0,0],"right_children":[2,-1,-1],"split_conditions":[8.06114E0,-5.5880547E-3,8.5689165E-3],"split_indices":[0,0,0],"split_type":[0,0,0],"sum_hessian":[4E0,2E0,2E0],"tree_param":{"num_deleted":"0","num_feature":"6","num_nodes":"3","size_leaf_vector":"1"}},{"base_weights":[1.0003697E-2,-3.174324E-2,3.8393836E-2,-5.0500236E-3,-2.4051666E-4,7.883415E-2,-4.180463E-3,9.624863E-3,3.514163E-3],"categories":[],"categories_nodes":[],"categories_segments":[],"categories_sizes":[],"default_left":[0,0,0,0,0,0,0,0,0],"id":8,"left_children":[1,3,5,-1,-1,7,-1,-1,-1],"loss_changes":[7.12798E-3,1.3150044E-3,1.2999196E-2,0E0,0E0,2.1103956E-4,0E0,0E0,0E0],"parents":[2147483647,0,0,1,1,2,2,5,5],"right_children":[2,4,6,-1,-1,8,-1,-1,-1],"split_conditions":[7.9054165E0,7.8741407E0,8.088253E0,-5.0500236E-3,-2.4051666E-4,8.088253E0,-4.180463E-3,9.624863E-3,3.514163E-3],"split_indices":[0,0,1,0,0,0,0,0,0],"split_type":[0,0,0,0,0,0,0,0,0],"sum_hessian":[5E0,2E0,3E0,1E0,1E0,2E0,1E0,1E0,1E0],"tree_param":{"num_deleted":"0","num_feature":"6","num_nodes":"9","size_leaf_vector":"1"}},{"base_weights":[3.2356124E-2,-4.713345E-3,7.357864E-2,8.983231E-3,3.2798767E-3],"categories":[],"categories_nodes":[],"categories_segments":[],"categories_sizes":[],"default_left":[0,0,0,0,0],"id":9,"left_children":[1,-1,3,-1,-1],"loss_changes":[1.3202667E-2,0E0,1.838617E-4,0E0,0E0],"parents":[2147483647,0,0,2,2],"right_children":[2,-1,4,-1,-1],"split_conditions":[7.8741407E0,-4.713345E-3,8.088253E0,8.983231E-3,3.2798767E-3],"split_indices":[0,0,0,0,0],"split_type":[0,0,0,0,0],"sum_hessian":[3E0,1E0,2E0,1E0,1E0],"tree_param":{"num_deleted":"0","num_feature":"6","num_nodes":"5","size_leaf_vector":"1"}},{"base_weights":[-5.212637E-3,-4.107407E-2,3.139346E-2,-5.256348E-3,-8.2337065E-4,6.867333E-2,-4.1204137E-3,8.384324E-3,3.061231E-3],"categories":[],"categories_nodes":[],"categories_segments":[],"categories_sizes":[],"default_left":[0,0,0,0,0,0,0,0,0],"id":10,"left_children":[1,3,5,-1,-1,7,-1,-1,-1],"loss_changes":[9.177585E-3,1.1042105E-3,1.0887312E-2,0E0,0E0,1.6013719E-4,0E0,0E0,0E0],"parents":[2147483647,0,0,1,1,2,2,5,5],"right_children":[2,4,6,-1,-1,8,-1,-1,-1],"split_conditions":[7.9054165E0,7.895052E0,8.088253E0,-5.256348E-3,-8.2337065E-4,8.088253E0,-4.1204137E-3,8.384324E-3,3.061231E-3],"split_indices":[0,0,1,0,0,0,0,0,0],"split_type":[0,0,0,0,0,0,0,0,0],"sum_hessian":[6E0,3E0,3E0,2E0,1E0,2E0,1E0,1E0,1E0],"tree_param":{"num_deleted":"0","num_feature":"6","num_nodes":"9","size_leaf_vector":"1"}},{"base_weights":[-1.4618556E-2,-5.733245E-3,2.0227645E-2,6.409492E-2,-2.7685165E-2,7.825343E-3,2.8571447E-3,-3.8457233E-3,-7.6847075E-4],"categories":[],"categories_nodes":[],"categories_segments":[],"categories_sizes":[],"default_left":[0,0,0,0,0,0,0,0,0],"id":11,"left_children":[1,-1,3,5,7,-1,-1,-1,-1],"loss_changes":[1.1742976E-2,0E0,1.0345361E-2,1.3949163E-4,3.908493E-4,0E0,0E0,0E0,0E0],"parents":[2147483647,0,0,2,2,3,3,4,4],"right_children":[2,-1,4,6,8,-1,-1,-1,-1],"split_conditions":[8.01502E0,-5.733245E-3,8.06114E0,7.9934287E0,8.088253E0,7.825343E-3,2.8571447E-3,-3.8457233E-3,-7.6847075E-4],"split_indices":[3,0,2,2,2,0,0,0,0],"split_type":[0,0,0,0,0,0,0,0,0],"sum_hessian":[7E0,3E0,4E0,2E0,2E0,1E0,1E0,1E0,1E0],"tree_param":{"num_deleted":"0","num_feature":"6","num_nodes":"9","size_leaf_vector":"1"}},{"base_weights":[-1.31343845E-2,-5.241844E-3,1.8879255E-2,5.9822083E-2,-2.5839424E-2,7.3036826E-3,2.666664E-3,-3.589344E-3,-7.1722665E-4],"categories":[],"categories_nodes":[],"categories_segments":[],"categories_sizes":[],"default_left":[0,0,0,0,0,0,0,0,0],"id":12,"left_children":[1,-1,3,5,7,-1,-1,-1,-1],"loss_changes":[9.927001E-3,0E0,9.0119755E-3,1.2152828E-4,3.4048117E-4,0E0,0E0,0E0,0E0],"parents":[2147483647,0,0,2,2,3,3,4,4],"right_children":[2,-1,4,6,8,-1,-1,-1,-1],"split_conditions":[8.01502E0,-5.241844E-3,8.06114E0,7.9934287E0,8.088253E0,7.3036826E-3,2.666664E-3,-3.589344E-3,-7.1722665E-4],"split_indices":[3,0,2,2,2,0,0,0,0],"split_type":[0,0,0,0,0,0,0,0,0],"sum_hessian":[7E0,3E0,4E0,2E0,2E0,1E0,1E0,1E0,1E0],"tree_param":{"num_deleted":"0","num_feature":"6","num_nodes":"9","size_leaf_vector":"1"}},{"base_weights":[-5.1188036E-3,-4.792541E-3,5.5834197E-2,6.8168007E-3,2.4888993E-3],"categories":[],"categories_nodes":[],"categories_segments":[],"categories_sizes":[],"default_left":[0,0,0,0,0],"id":13,"left_children":[1,-1,3,-1,-1],"loss_changes":[1.5688488E-2,0E0,1.058639E-4,0E0,0E0],"parents":[2147483647,0,0,2,2],"right_children":[2,-1,4,-1,-1],"split_conditions":[8.06114E0,-4.792541E-3,8.088253E0,6.8168007E-3,2.4888993E-3],"split_indices":[0,0,0,0,0],"split_type":[0,0,0,0,0],"sum_hessian":[5E0,3E0,2E0,1E0,1E0],"tree_param":{"num_deleted":"0","num_feature":"6","num_nodes":"5","size_leaf_vector":"1"}},{"base_weights":[2.4537494E-2,-2.9598873E-3,5.2111816E-2,6.3623427E-3,2.32296E-3],"categories":[],"categories_nodes":[],"categories_segments":[],"categories_sizes":[],"default_left":[0,0,0,0,0],"id":14,"left_children":[1,-1,3,-1,-1],"loss_changes":[5.995933E-3,0E0,9.2228875E-5,0E0,0E0],"parents":[2147483647,0,0,2,2],"right_children":[2,-1,4,-1,-1],"split_conditions":[7.9934287E0,-2.9598873E-3,8.06114E0,6.3623427E-3,2.32296E-3],"split_indices":[1,0,1,0,0],"split_type":[0,0,0,0,0],"sum_hessian":[3E0,1E0,2E0,1E0,1E0],"tree_param":{"num_deleted":"0","num_feature":"6","num_nodes":"5","size_leaf_vector":"1"}},{"base_weights":[2.0989506E-3,-3.1442914E-2,4.863777E-2,-4.0991404E-3,-5.047798E-4,5.9382124E-3,2.1680833E-3],"categories":[],"categories_nodes":[],"categories_segments":[],"categories_sizes":[],"default_left":[0,0,0,0,0,0,0],"id":15,"left_children":[1,3,5,-1,-1,-1,-1],"loss_changes":[9.35015E-3,7.786588E-4,8.0360565E-5,0E0,0E0,0E0,0E0],"parents":[2147483647,0,0,1,1,2,2],"right_children":[2,4,6,-1,-1,-1,-1],"split_conditions":[8.06114E0,8.1799135E0,8.088253E0,-4.0991404E-3,-5.047798E-4,5.9382124E-3,2.1680833E-3],"split_indices":[0,2,0,0,0,0,0],"split_type":[0,0,0,0,0,0,0],"sum_hessian":[5E0,3E0,2E0,2E0,1E0,1E0,1E0],"tree_param":{"num_deleted":"0","num_feature":"6","num_nodes":"7","size_leaf_vector":"1"}},{"base_weights":[-3.963397E-3,-3.0944506E-2,4.5395277E-2,-3.776673E-3,-4.711151E-4,5.54231E-3,2.0235698E-3],"categories":[],"categories_nodes":[],"categories_segments":[],"categories_sizes":[],"default_left":[0,0,0,0,0,0,0],"id":16,"left_children":[1,3,5,-1,-1,-1,-1],"loss_changes":[9.358753E-3,7.1640126E-4,6.997725E-5,0E0,0E0,0E0,0E0],"parents":[2147483647,0,0,1,1,2,2],"right_children":[2,4,6,-1,-1,-1,-1],"split_conditions":[8.06114E0,7.9934287E0,8.088253E0,-3.776673E-3,-4.711151E-4,5.54231E-3,2.0235698E-3],"split_indices":[0,1,0,0,0,0,0],"split_type":[0,0,0,0,0,0,0],"sum_hessian":[6E0,4E0,2E0,3E0,1E0,1E0,1E0],"tree_param":{"num_deleted":"0","num_feature":"6","num_nodes":"7","size_leaf_vector":"1"}},{"base_weights":[-2.3805446E-3,4.23687E-2,-3.400421E-2,5.1727933E-3,1.8886566E-3,-4.3970742E-4,-4.4967653E-3],"categories":[],"categories_nodes":[],"categories_segments":[],"categories_sizes":[],"default_left":[0,0,0,0,0,0,0],"id":17,"left_children":[1,3,5,-1,-1,-1,-1],"loss_changes":[8.5036E-3,6.0955528E-5,1.0372233E-3,0E0,0E0,0E0,0E0],"parents":[2147483647,0,0,1,1,2,2],"right_children":[2,4,6,-1,-1,-1,-1],"split_conditions":[8.06114E0,8.088253E0,7.9054165E0,5.1727933E-3,1.8886566E-3,-4.3970742E-4,-4.4967653E-3],"split_indices":[2,0,0,0,0,0,0],"split_type":[0,0,0,0,0,0,0],"sum_hessian":[5E0,2E0,3E0,1E0,1E0,1E0,2E0],"tree_param":{"num_deleted":"0","num_feature":"6","num_nodes":"7","size_leaf_vector":"1"}},{"base_weights":[-5.2304636E-3,-2.9524168E-2,3.9544296E-2,-3.6200795E-3,-4.1039786E-4,4.8279446E-3,1.7627716E-3],"categories":[],"categories_nodes":[],"categories_segments":[],"categories_sizes":[],"default_left":[0,0,0,0,0,0,0],"id":18,"left_children":[1,3,5,-1,-1,-1,-1],"loss_changes":[7.6540965E-3,6.894618E-4,5.3083524E-5,0E0,0E0,0E0,0E0],"parents":[2147483647,0,0,1,1,2,2],"right_children":[2,4,6,-1,-1,-1,-1],"split_conditions":[8.06114E0,8.1799135E0,8.088253E0,-3.6200795E-3,-4.1039786E-4,4.8279446E-3,1.7627716E-3],"split_indices":[0,2,0,0,0,0,0],"split_type":[0,0,0,0,0,0,0],"sum_hessian":[6E0,4E0,2E0,3E0,1E0,1E0,1E0],"tree_param":{"num_deleted":"0","num_feature":"6","num_nodes":"7","size_leaf_vector":"1"}},{"base_weights":[-7.80355E-3,-3.229084E-3,6.667561E-3,3.690834E-2,-2.490673E-2,4.506111E-3,1.645279E-3,-3.830274E-4,-3.7680943E-3],"categories":[],"categories_nodes":[],"categories_segments":[],"categories_sizes":[],"default_left":[0,0,0,0,0,0,0,0,0],"id":19,"left_children":[1,-1,3,5,7,-1,-1,-1,-1],"loss_changes":[2.4109795E-3,0E0,4.7563734E-3,4.623318E-5,6.0092367E-4,0E0,0E0,0E0,0E0],"parents":[2147483647,0,0,2,2,3,3,4,4],"right_children":[2,-1,4,6,8,-1,-1,-1,-1],"split_conditions":[7.9054165E0,-3.229084E-3,8.088253E0,8.088253E0,7.9054165E0,4.506111E-3,1.645279E-3,-3.830274E-4,-3.7680943E-3],"split_indices":[1,0,1,0,0,0,0,0,0],"split_type":[0,0,0,0,0,0,0,0,0],"sum_hessian":[6E0,2E0,4E0,2E0,2E0,1E0,1E0,1E0,1E0],"tree_param":{"num_deleted":"0","num_feature":"6","num_nodes":"9","size_leaf_vector":"1"}},{"base_weights":[-5.097389E-3,-2.6500596E-2,3.444786E-2,-3.254005E-3,-3.575007E-4,4.2057037E-3,1.5356065E-3],"categories":[],"categories_nodes":[],"categories_segments":[],"categories_sizes":[],"default_left":[0,0,0,0,0,0,0],"id":20,"left_children":[1,3,5,-1,-1,-1,-1],"loss_changes":[5.958013E-3,5.6489557E-4,4.0266896E-5,0E0,0E0,0E0,0E0],"parents":[2147483647,0,0,1,1,2,2],"right_children":[2,4,6,-1,-1,-1,-1],"split_conditions":[8.06114E0,8.1799135E0,8.088253E0,-3.254005E-3,-3.575007E-4,4.2057037E-3,1.5356065E-3],"split_indices":[0,2,0,0,0,0,0],"split_type":[0,0,0,0,0,0,0],"sum_hessian":[6E0,4E0,2E0,3E0,1E0,1E0,1E0],"tree_param":{"num_deleted":"0","num_feature":"6","num_nodes":"7","size_leaf_vector":"1"}},{"base_weights":[-6.84298E-3,1.7835443E-3,-3.6192578E-3,-2.0162582E-2,3.2151412E-2,-2.6225662E-3,-3.3365886E-4,3.9253235E-3,1.4332454E-3],"categories":[],"categories_nodes":[],"categories_segments":[],"categories_sizes":[],"default_left":[0,0,0,0,0,0,0,0,0],"id":21,"left_children":[1,3,-1,5,7,-1,-1,-1,-1],"loss_changes":[1.677978E-3,3.9896416E-3,0E0,3.1330856E-4,3.5070116E-5,0E0,0E0,0E0,0E0],"parents":[2147483647,0,0,1,1,3,3,4,4],"right_children":[2,4,-1,6,8,-1,-1,-1,-1],"split_conditions":[8.109769E0,7.9054165E0,-3.6192578E-3,7.895052E0,8.088253E0,-2.6225662E-3,-3.3365886E-4,3.9253235E-3,1.4332454E-3],"split_indices":[3,0,0,0,0,0,0,0,0],"split_type":[0,0,0,0,0,0,0,0,0],"sum_hessian":[6E0,5E0,1E0,3E0,2E0,2E0,1E0,1E0,1E0],"tree_param":{"num_deleted":"0","num_feature":"6","num_nodes":"9","size_leaf_vector":"1"}},{"base_weights":[4.3731267E-3,3.0007934E-2,-2.2136306E-2,3.6636353E-3,1.3376873E-3,-3.1140645E-4,-3.3779782E-3],"categories":[],"categories_nodes":[],"categories_segments":[],"categories_sizes":[],"default_left":[0,0,0,0,0,0,0],"id":22,"left_children":[1,3,5,-1,-1,-1,-1],"loss_changes":[3.3901713E-3,3.0554133E-5,5.0111616E-4,0E0,0E0,0E0,0E0],"parents":[2147483647,0,0,1,1,2,2],"right_children":[2,4,6,-1,-1,-1,-1],"split_conditions":[1E1,8.088253E0,7.9054165E0,3.6636353E-3,1.3376873E-3,-3.1140645E-4,-3.3779782E-3],"split_indices":[4,0,0,0,0,0,0],"split_type":[0,0,0,0,0,0,0],"sum_hessian":[4E0,2E0,2E0,1E0,1E0,1E0,1E0],"tree_param":{"num_deleted":"0","num_feature":"6","num_nodes":"7","size_leaf_vector":"1"}},{"base_weights":[-3.7718685E-3,2.8007125E-2,-2.5932312E-2,3.4193676E-3,1.2484868E-3,-2.9064817E-4,-3.4561348E-3],"categories":[],"categories_nodes":[],"categories_segments":[],"categories_sizes":[],"default_left":[0,0,0,0,0,0,0],"id":23,"left_children":[1,3,5,-1,-1,-1,-1],"loss_changes":[4.236446E-3,2.662139E-5,6.451914E-4,0E0,0E0,0E0,0E0],"parents":[2147483647,0,0,1,1,2,2],"right_children":[2,4,6,-1,-1,-1,-1],"split_conditions":[8.06114E0,8.088253E0,7.9054165E0,3.4193676E-3,1.2484868E-3,-2.9064817E-4,-3.4561348E-3],"split_indices":[2,0,0,0,0,0,0],"split_type":[0,0,0,0,0,0,0],"sum_hessian":[5E0,2E0,3E0,1E0,1E0,1E0,2E0],"tree_param":{"num_deleted":"0","num_feature":"6","num_nodes":"7","size_leaf_vector":"1"}},{"base_weights":[-2.4005717E-3,-2.2443907E-2,2.6140213E-2,-2.979393E-3,-2.7125675E-4,3.1914394E-3,1.1652629E-3],"categories":[],"categories_nodes":[],"categories_segments":[],"categories_sizes":[],"default_left":[0,0,0,0,0,0,0],"id":24,"left_children":[1,3,5,-1,-1,-1,-1],"loss_changes":[3.4396334E-3,4.6718132E-4,2.3191562E-5,0E0,0E0,0E0,0E0],"parents":[2147483647,0,0,1,1,2,2],"right_children":[2,4,6,-1,-1,-1,-1],"split_conditions":[7.9054165E0,7.895052E0,8.088253E0,-2.979393E-3,-2.7125675E-4,3.1914394E-3,1.1652629E-3],"split_indices":[0,0,0,0,0,0,0],"split_type":[0,0,0,0,0,0,0],"sum_hessian":[5E0,3E0,2E0,2E0,1E0,1E0,1E0],"tree_param":{"num_deleted":"0","num_feature":"6","num_nodes":"7","size_leaf_vector":"1"}},{"base_weights":[-3.3604016E-3,5.8930716E-3,-3.0000687E-3,-1.3790131E-2,2.439766E-2,-2.0451865E-3,-2.5316875E-4,2.9787065E-3,1.0875702E-3],"categories":[],"categories_nodes":[],"categories_segments":[],"categories_sizes":[],"default_left":[0,0,0,0,0,0,0,0,0],"id":25,"left_children":[1,3,-1,5,7,-1,-1,-1,-1],"loss_changes":[1.4442315E-3,1.8072564E-3,0E0,1.6161299E-4,2.0210631E-5,0E0,0E0,0E0,0E0],"parents":[2147483647,0,0,1,1,3,3,4,4],"right_children":[2,4,-1,6,8,-1,-1,-1,-1],"split_conditions":[8.1799135E0,7.9054165E0,-3.0000687E-3,7.8741407E0,8.088253E0,-2.0451865E-3,-2.5316875E-4,2.9787065E-3,1.0875702E-3],"split_indices":[1,0,0,0,0,0,0,0,0],"split_type":[0,0,0,0,0,0,0,0,0],"sum_hessian":[5E0,4E0,1E0,2E0,2E0,1E0,1E0,1E0,1E0],"tree_param":{"num_deleted":"0","num_feature":"6","num_nodes":"9","size_leaf_vector":"1"}},{"base_weights":[4.315104E-3,-2.788385E-3,2.2771453E-2,2.7801513E-3,1.015091E-3],"categories":[],"categories_nodes":[],"categories_segments":[],"categories_sizes":[],"default_left":[0,0,0,0,0],"id":26,"left_children":[1,-1,3,-1,-1],"loss_changes":[2.3974406E-3,0E0,1.7600018E-5,0E0,0E0],"parents":[2147483647,0,0,2,2],"right_children":[2,-1,4,-1,-1],"split_conditions":[8.06114E0,-2.788385E-3,8.088253E0,2.7801513E-3,1.015091E-3],"split_indices":[0,0,0,0,0],"split_type":[0,0,0,0,0],"sum_hessian":[3E0,1E0,2E0,1E0,1E0],"tree_param":{"num_deleted":"0","num_feature":"6","num_nodes":"5","size_leaf_vector":"1"}},{"base_weights":[-7.2784424E-3,-2.84823E-3,1.4965193E-2,2.1253586E-2,-5.0385792E-5,2.5948207E-3,9.474437E-4],"categories":[],"categories_nodes":[],"categories_segments":[],"categories_sizes":[],"default_left":[0,0,0,0,0,0,0],"id":27,"left_children":[1,-1,3,5,-1,-1,-1],"loss_changes":[3.2788524E-3,0E0,3.4581852E-4,1.5324214E-5,0E0,0E0,0E0],"parents":[2147483647,0,0,2,2,3,3],"right_children":[2,-1,4,6,-1,-1,-1],"split_conditions":[7.9934287E0,-2.84823E-3,8.088253E0,8.06114E0,-5.0385792E-5,2.5948207E-3,9.474437E-4],"split_indices":[1,0,1,1,0,0,0],"split_type":[0,0,0,0,0,0,0],"sum_hessian":[6E0,3E0,3E0,2E0,1E0,1E0,1E0],"tree_param":{"num_deleted":"0","num_feature":"6","num_nodes":"7","size_leaf_vector":"1"}},{"base_weights":[-1.1362966E-2,-2.6041032E-3,1.3158587E-3,1.396765E-2,-2.8643608E-3,-4.7016143E-5,1.9836808E-2,2.421824E-3,8.8431046E-4],"categories":[],"categories_nodes":[],"categories_segments":[],"categories_sizes":[],"default_left":[0,0,0,0,0,0,0,0,0],"id":28,"left_children":[1,-1,3,5,-1,-1,7,-1,-1],"loss_changes":[1.4128877E-3,0E0,1.9057263E-3,3.0124543E-4,0E0,0E0,1.33382855E-5,0E0,0E0],"parents":[2147483647,0,0,2,2,3,3,6,6],"right_children":[2,-1,4,6,-1,-1,8,-1,-1],"split_conditions":[7.9934287E0,-2.6041032E-3,8.1799135E0,7.9054165E0,-2.8643608E-3,-4.7016143E-5,8.088253E0,2.421824E-3,8.8431046E-4],"split_indices":[1,0,1,0,0,0,0,0,0],"split_type":[0,0,0,0,0,0,0,0,0],"sum_hessian":[7E0,3E0,4E0,3E0,1E0,1E0,2E0,1E0,1E0],"tree_param":{"num_deleted":"0","num_feature":"6","num_nodes":"9","size_leaf_vector":"1"}},{"base_weights":[-8.832638E-3,4.8377174E-3,-2.1241188E-2,-1.9569716E-3,1.8514633E-2,-4.386902E-5,-2.9474448E-3,2.2603988E-3,8.253734E-4],"categories":[],"categories_nodes":[],"categories_segments":[],"categories_sizes":[],"default_left":[0,0,0,0,0,0,0,0,0],"id":29,"left_children":[1,3,5,-1,7,-1,-1,-1,-1],"loss_changes":[1.1539698E-3,1.3495275E-3,5.929882E-4,0E0,1.1617551E-5,0E0,0E0,0E0,0E0],"parents":[2147483647,0,0,1,1,2,2,4,4],"right_children":[2,4,6,-1,8,-1,-1,-1,-1],"split_conditions":[1E1,7.895052E0,7.9054165E0,-1.9569716E-3,8.088253E0,-4.386902E-5,-2.9474448E-3,2.2603988E-3,8.253734E-4],"split_indices":[4,0,0,0,0,0,0,0,0],"split_type":[0,0,0,0,0,0,0,0,0],"sum_hessian":[6E0,3E0,3E0,1E0,2E0,1E0,2E0,1E0,1E0],"tree_param":{"num_deleted":"0","num_feature":"6","num_nodes":"9","size_leaf_vector":"1"}},{"base_weights":[-8.092587E-3,4.5153755E-3,-1.9544465E-2,-1.8265089E-3,1.7280579E-2,-4.094442E-5,-2.7116586E-3,2.1097183E-3,7.703781E-4],"categories":[],"categories_nodes":[],"categories_segments":[],"categories_sizes":[],"default_left":[0,0,0,0,0,0,0,0,0],"id":30,"left_children":[1,3,5,-1,7,-1,-1,-1,-1],"loss_changes":[9.826269E-4,1.175606E-3,5.0157297E-4,0E0,1.0113174E-5,0E0,0E0,0E0,0E0],"parents":[2147483647,0,0,1,1,2,2,4,4],"right_children":[2,4,6,-1,8,-1,-1,-1,-1],"split_conditions":[8.06114E0,7.895052E0,7.9054165E0,-1.8265089E-3,8.088253E0,-4.094442E-5,-2.7116586E-3,2.1097183E-3,7.703781E-4],"split_indices":[2,0,0,0,0,0,0,0,0],"split_type":[0,0,0,0,0,0,0,0,0],"sum_hessian":[6E0,3E0,3E0,1E0,2E0,1E0,2E0,1E0,1E0],"tree_param":{"num_deleted":"0","num_feature":"6","num_nodes":"9","size_leaf_vector":"1"}},{"base_weights":[-6.0351444E-3,6.775039E-3,-1.7983165E-2,-1.1072477E-3,1.612854E-2,-3.821055E-5,-2.4947168E-3,1.9690832E-3,7.190069E-4],"categories":[],"categories_nodes":[],"categories_segments":[],"categories_sizes":[],"default_left":[0,0,0,0,0,0,0,0,0],"id":31,"left_children":[1,3,5,-1,7,-1,-1,-1,-1],"loss_changes":[1.0557845E-3,6.735701E-4,4.24242E-4,0E0,8.814386E-6,0E0,0E0,0E0,0E0],"parents":[2147483647,0,0,1,1,2,2,4,4],"right_children":[2,4,6,-1,8,-1,-1,-1,-1],"split_conditions":[8.06114E0,7.8741407E0,7.9054165E0,-1.1072477E-3,8.088253E0,-3.821055E-5,-2.4947168E-3,1.9690832E-3,7.190069E-4],"split_indices":[2,0,0,0,0,0,0,0,0],"split_type":[0,0,0,0,0,0,0,0,0],"sum_hessian":[6E0,3E0,3E0,1E0,2E0,1E0,2E0,1E0,1E0],"tree_param":{"num_deleted":"0","num_feature":"6","num_nodes":"9","size_leaf_vector":"1"}},{"base_weights":[-8.442942E-3,-1.9563676E-3,1.144621E-3,1.0599409E-2,-2.129809E-3,1.5053177E-2,-3.566742E-5,1.837794E-3,6.7106885E-4],"categories":[],"categories_nodes":[],"categories_segments":[],"categories_sizes":[],"default_left":[0,0,0,0,0,0,0,0,0],"id":32,"left_children":[1,-1,3,5,-1,7,-1,-1,-1],"loss_changes":[8.1085204E-4,0E0,1.0677334E-3,1.7347003E-4,0E0,7.677649E-6,0E0,0E0,0E0],"parents":[2147483647,0,0,2,2,3,3,5,5],"right_children":[2,-1,4,6,-1,8,-1,-1,-1],"split_conditions":[7.9934287E0,-1.9563676E-3,8.1799135E0,8.088253E0,-2.129809E-3,8.06114E0,-3.566742E-5,1.837794E-3,6.7106885E-4],"split_indices":[1,0,1,1,0,1,0,0,0],"split_type":[0,0,0,0,0,0,0,0,0],"sum_hessian":[7E0,3E0,4E0,3E0,1E0,2E0,1E0,1E0,1E0],"tree_param":{"num_deleted":"0","num_feature":"6","num_nodes":"9","size_leaf_vector":"1"}},{"base_weights":[-3.3940403E-3,1.404953E-2,-1.536887E-3,1.7152786E-3,6.263097E-4],"categories":[],"categories_nodes":[],"categories_segments":[],"categories_sizes":[],"default_left":[0,0,0,0,0],"id":33,"left_children":[1,3,-1,-1,-1],"loss_changes":[1.2568237E-3,6.6934153E-6,0E0,0E0,0E0],"parents":[2147483647,0,0,1,1],"right_children":[2,4,-1,-1,-1],"split_conditions":[1E1,8.06114E0,-1.536887E-3,1.7152786E-3,6.263097E-4],"split_indices":[4,1,0,0,0],"split_type":[0,0,0,0,0],"sum_hessian":[5E0,2E0,3E0,1E0,1E0],"tree_param":{"num_deleted":"0","num_feature":"6","num_nodes":"5","size_leaf_vector":"1"}},{"base_weights":[-3.8747787E-3,1.311264E-2,-2.0087243E-3,1.6009012E-3,5.845388E-4],"categories":[],"categories_nodes":[],"categories_segments":[],"categories_sizes":[],"default_left":[0,0,0,0,0],"id":34,"left_children":[1,3,-1,-1,-1],"loss_changes":[1.371034E-3,5.832233E-6,0E0,0E0,0E0],"parents":[2147483647,0,0,1,1],"right_children":[2,4,-1,-1,-1],"split_conditions":[8.06114E0,8.088253E0,-2.0087243E-3,1.6009012E-3,5.845388E-4],"split_indices":[2,0,0,0,0],"split_type":[0,0,0,0,0],"sum_hessian":[4E0,2E0,2E0,1E0,1E0],"tree_param":{"num_deleted":"0","num_feature":"6","num_nodes":"5","size_leaf_vector":"1"}},{"base_weights":[-4.9303495E-3,-1.8768447E-3,9.612083E-3,1.4941533E-3,4.491997E-4],"categories":[],"categories_nodes":[],"categories_segments":[],"categories_sizes":[],"default_left":[0,0,0,0,0],"id":35,"left_children":[1,-1,3,-1,-1],"loss_changes":[1.3982594E-3,0E0,6.194672E-5,0E0,0E0],"parents":[2147483647,0,0,2,2],"right_children":[2,-1,4,-1,-1],"split_conditions":[7.9934287E0,-1.8768447E-3,8.06114E0,1.4941533E-3,4.491997E-4],"split_indices":[1,0,1,0,0],"split_type":[0,0,0,0,0],"sum_hessian":[6E0,3E0,3E0,1E0,2E0],"tree_param":{"num_deleted":"0","num_feature":"6","num_nodes":"5","size_leaf_vector":"1"}},{"base_weights":[-4.432238E-3,-1.2769275E-2,1.1460876E-2,-1.7159734E-3,1.7315547E-4,1.3945262E-3,5.1561993E-4],"categories":[],"categories_nodes":[],"categories_segments":[],"categories_sizes":[],"default_left":[0,0,0,0,0,0,0],"id":36,"left_children":[1,3,5,-1,-1,-1,-1],"loss_changes":[9.3443325E-4,3.0135043E-4,3.2058451E-6,0E0,0E0,0E0,0E0],"parents":[2147483647,0,0,1,1,2,2],"right_children":[2,4,6,-1,-1,-1,-1],"split_conditions":[8.06114E0,8.1799135E0,8.088253E0,-1.7159734E-3,1.7315547E-4,1.3945262E-3,5.1561993E-4],"split_indices":[0,2,0,0,0,0,0],"split_type":[0,0,0,0,0,0,0],"sum_hessian":[6E0,4E0,2E0,3E0,1E0,1E0,1E0],"tree_param":{"num_deleted":"0","num_feature":"6","num_nodes":"7","size_leaf_vector":"1"}},{"base_weights":[-7.9588455E-5,-1.1841584E-3,8.333206E-3,1.3015748E-3,3.8570403E-3,4.8122407E-4,1.61616E-4],"categories":[],"categories_nodes":[],"categories_segments":[],"categories_sizes":[],"default_left":[0,0,0,0,0,0,0],"id":37,"left_children":[1,-1,3,-1,5,-1,-1],"loss_changes":[5.93571E-4,0E0,4.825827E-5,0E0,1.4625475E-6,0E0,0E0],"parents":[2147483647,0,0,2,2,4,4],"right_children":[2,-1,4,-1,6,-1,-1],"split_conditions":[7.9054165E0,-1.1841584E-3,8.06114E0,1.3015748E-3,8.088253E0,4.8122407E-4,1.61616E-4],"split_indices":[1,0,1,0,1,0,0],"split_type":[0,0,0,0,0,0,0],"sum_hessian":[5E0,2E0,3E0,1E0,2E0,1E0,1E0],"tree_param":{"num_deleted":"0","num_feature":"6","num_nodes":"7","size_leaf_vector":"1"}},{"base_weights":[-7.202784E-3,-1.538413E-3,-3.920661E-5,7.7774865E-3,-1.8265089E-3,1.2147904E-3,3.5997392E-3,1.5083949E-4,4.4911704E-4],"categories":[],"categories_nodes":[],"categories_segments":[],"categories_sizes":[],"default_left":[0,0,0,0,0,0,0,0,0],"id":38,"left_children":[1,-1,3,5,-1,-1,7,-1,-1],"loss_changes":[4.3925617E-4,0E0,7.121258E-4,4.204009E-5,0E0,0E0,1.273489E-6,0E0,0E0],"parents":[2147483647,0,0,2,2,3,3,6,6],"right_children":[2,-1,4,6,-1,-1,8,-1,-1],"split_conditions":[7.9934287E0,-1.538413E-3,8.1799135E0,8.06114E0,-1.8265089E-3,1.2147904E-3,7.9054165E0,1.5083949E-4,4.4911704E-4],"split_indices":[1,0,1,1,0,0,0,0,0],"split_type":[0,0,0,0,0,0,0,0,0],"sum_hessian":[7E0,3E0,4E0,3E0,1E0,1E0,2E0,1E0,1E0],"tree_param":{"num_deleted":"0","num_feature":"6","num_nodes":"9","size_leaf_vector":"1"}},{"base_weights":[-4.806605E-3,3.6424908E-3,-1.5674019E-3,-7.030487E-4,9.31778E-3,1.1337916E-3,4.1917167E-4],"categories":[],"categories_nodes":[],"categories_segments":[],"categories_sizes":[],"default_left":[0,0,0,0,0,0,0],"id":39,"left_children":[1,3,-1,-1,5,-1,-1],"loss_changes":[5.335552E-4,2.447571E-4,0E0,0E0,2.1257001E-6,0E0,0E0],"parents":[2147483647,0,0,1,1,4,4],"right_children":[2,4,-1,-1,6,-1,-1],"split_conditions":[8.06114E0,7.990494E0,-1.5674019E-3,-7.030487E-4,7.9934287E0,1.1337916E-3,4.1917167E-4],"split_indices":[2,2,0,0,2,0,0],"split_type":[0,0,0,0,0,0,0],"sum_hessian":[5E0,3E0,2E0,1E0,2E0,1E0,1E0],"tree_param":{"num_deleted":"0","num_feature":"6","num_nodes":"7","size_leaf_vector":"1"}},{"base_weights":[-1.9988148E-3,-1.4565468E-3,7.262911E-3,1.058197E-3,3.8188935E-4],"categories":[],"categories_nodes":[],"categories_segments":[],"categories_sizes":[],"default_left":[0,0,0,0,0],"id":40,"left_children":[1,-1,3,-1,-1],"loss_changes":[6.930328E-4,0E0,1.980242E-5,0E0,0E0],"parents":[2147483647,0,0,2,2],"right_children":[2,-1,4,-1,-1],"split_conditions":[8.01502E0,-1.4565468E-3,7.9934287E0,1.058197E-3,3.8188935E-4],"split_indices":[3,0,2,0,0],"split_type":[0,0,0,0,0],"sum_hessian":[5E0,2E0,3E0,1E0,2E0],"tree_param":{"num_deleted":"0","num_feature":"6","num_nodes":"5","size_leaf_vector":"1"}},{"base_weights":[-3.0405337E-3,8.4044714E-4,-1.6257287E-3,-7.590294E-4,6.742341E-3,9.876251E-4,3.513527E-4],"categories":[],"categories_nodes":[],"categories_segments":[],"categories_sizes":[],"default_left":[0,0,0,0,0,0,0],"id":41,"left_children":[1,3,-1,-1,5,-1,-1],"loss_changes":[3.4024246E-4,2.9925353E-4,0E0,0E0,1.8065606E-5,0E0,0E0],"parents":[2147483647,0,0,1,1,4,4],"right_children":[2,4,-1,-1,6,-1,-1],"split_conditions":[8.109769E0,8.01502E0,-1.6257287E-3,-7.590294E-4,7.9934287E0,9.876251E-4,3.513527E-4],"split_indices":[3,3,0,0,2,0,0],"split_type":[0,0,0,0,0,0,0],"sum_hessian":[6E0,5E0,1E0,2E0,3E0,1E0,2E0],"tree_param":{"num_deleted":"0","num_feature":"6","num_nodes":"7","size_leaf_vector":"1"}},{"base_weights":[-5.394872E-3,-1.1316844E-3,-1.894633E-4,6.2593734E-3,-1.5173595E-3,9.21758E-4,3.2325747E-4],"categories":[],"categories_nodes":[],"categories_segments":[],"categories_sizes":[],"default_left":[0,0,0,0,0,0,0],"id":42,"left_children":[1,-1,3,5,-1,-1,-1],"loss_changes":[2.3012508E-4,0E0,4.8232457E-4,1.644039E-5,0E0,0E0,0E0],"parents":[2147483647,0,0,2,2,3,3],"right_children":[2,-1,4,6,-1,-1,-1],"split_conditions":[8.01502E0,-1.1316844E-3,8.109769E0,7.9934287E0,-1.5173595E-3,9.21758E-4,3.2325747E-4],"split_indices":[3,0,3,2,0,0,0],"split_type":[0,0,0,0,0,0,0],"sum_hessian":[7E0,3E0,4E0,3E0,1E0,1E0,2E0],"tree_param":{"num_deleted":"0","num_feature":"6","num_nodes":"7","size_leaf_vector":"1"}},{"base_weights":[-1.7054297E-3,-1.188755E-3,5.8111465E-3,8.6027785E-4,2.973938E-4],"categories":[],"categories_nodes":[],"categories_segments":[],"categories_sizes":[],"default_left":[0,0,0,0,0],"id":43,"left_children":[1,-1,3,-1,-1],"loss_changes":[4.554809E-4,0E0,1.49294865E-5,0E0,0E0],"parents":[2147483647,0,0,2,2],"right_children":[2,-1,4,-1,-1],"split_conditions":[7.9934287E0,-1.188755E-3,8.06114E0,8.6027785E-4,2.973938E-4],"split_indices":[1,0,1,0,0],"split_type":[0,0,0,0,0],"sum_hessian":[5E0,2E0,3E0,1E0,2E0],"tree_param":{"num_deleted":"0","num_feature":"6","num_nodes":"5","size_leaf_vector":"1"}},{"base_weights":[-2.1055009E-4,-1.3220788E-3,5.3953445E-3,8.0293015E-4,2.735901E-4],"categories":[],"categories_nodes":[],"categories_segments":[],"categories_sizes":[],"default_left":[0,0,0,0,0],"id":44,"left_children":[1,-1,3,-1,-1],"loss_changes":[3.6386843E-4,0E0,1.3533332E-5,0E0,0E0],"parents":[2147483647,0,0,2,2],"right_children":[2,-1,4,-1,-1],"split_conditions":[7.895052E0,-1.3220788E-3,7.9934287E0,8.0293015E-4,2.735901E-4],"split_indices":[0,0,2,0,0],"split_type":[0,0,0,0,0],"sum_hessian":[4E0,1E0,3E0,1E0,2E0],"tree_param":{"num_deleted":"0","num_feature":"6","num_nodes":"5","size_leaf_vector":"1"}},{"base_weights":[2.1994454E-3,-5.18926E-4,6.19278E-4],"categories":[],"categories_nodes":[],"categories_segments":[],"categories_sizes":[],"default_left":[0,0,0],"id":45,"left_children":[1,-1,-1],"loss_changes":[1.1933746E-4,0E0,0E0],"parents":[2147483647,0,0],"right_children":[2,-1,-1],"split_conditions":[8.06114E0,-5.18926E-4,6.19278E-4],"split_indices":[0,0,0],"split_type":[0,0,0],"sum_hessian":[3E0,1E0,2E0],"tree_param":{"num_deleted":"0","num_feature":"6","num_nodes":"3","size_leaf_vector":"1"}},{"base_weights":[-4.2926613E-3,-2.6130676E-4,-1.4955838E-3,-1.1993408E-3,4.8040664E-3,7.08135E-4,2.476883E-4],"categories":[],"categories_nodes":[],"categories_segments":[],"categories_sizes":[],"default_left":[0,0,0,0,0,0,0],"id":46,"left_children":[1,3,-1,-1,5,-1,-1],"loss_changes":[2.3447478E-4,2.9623217E-4,0E0,0E0,9.7789525E-6,0E0,0E0],"parents":[2147483647,0,0,1,1,4,4],"right_children":[2,4,-1,-1,6,-1,-1],"split_conditions":[8.1799135E0,7.9934287E0,-1.4955838E-3,-1.1993408E-3,8.06114E0,7.08135E-4,2.476883E-4],"split_indices":[1,1,0,0,1,0,0],"split_type":[0,0,0,0,0,0,0],"sum_hessian":[5E0,4E0,1E0,1E0,3E0,1E0,2E0],"tree_param":{"num_deleted":"0","num_feature":"6","num_nodes":"7","size_leaf_vector":"1"}},{"base_weights":[-4.856023E-3,-1.2821621E-3,-1.3958932E-3,-1.1193912E-3,3.1488964E-3,-1.510938E-4,5.315018E-3,6.608963E-4,2.2494E-4],"categories":[],"categories_nodes":[],"categories_segments":[],"categories_sizes":[],"default_left":[0,0,0,0,0,0,0,0,0],"id":47,"left_children":[1,3,-1,-1,5,-1,7,-1,-1],"loss_changes":[1.6998009E-4,2.1526215E-4,0E0,0E0,3.934352E-5,0E0,2.48375E-6,0E0,0E0],"parents":[2147483647,0,0,1,1,4,4,6,6],"right_children":[2,4,-1,-1,6,-1,8,-1,-1],"split_conditions":[8.088253E0,7.9054165E0,-1.3958932E-3,-1.1193912E-3,7.895052E0,-1.510938E-4,8.06114E0,6.608963E-4,2.2494E-4],"split_indices":[1,2,0,0,1,0,1,0,0],"split_type":[0,0,0,0,0,0,0,0,0],"sum_hessian":[5E0,4E0,1E0,1E0,3E0,1E0,2E0,1E0,1E0],"tree_param":{"num_deleted":"0","num_feature":"6","num_nodes":"9","size_leaf_vector":"1"}},{"base_weights":[-1.8868813E-3,1.3232664E-3,-1.3028462E-3,-3.5367967E-3,4.605702E-3,-1.4101664E-4,-4.484495E-4,6.1683654E-4,2.7469636E-4],"categories":[],"categories_nodes":[],"categories_segments":[],"categories_sizes":[],"default_left":[0,0,0,0,0,0,0,0,0],"id":48,"left_children":[1,3,-1,5,7,-1,-1,-1,-1],"loss_changes":[2.4109986E-4,9.588535E-5,0E0,1.8765677E-6,1.6938939E-6,0E0,0E0,0E0,0E0],"parents":[2147483647,0,0,1,1,3,3,4,4],"right_children":[2,4,-1,6,8,-1,-1,-1,-1],"split_conditions":[8.1799135E0,7.9054165E0,-1.3028462E-3,7.8741407E0,8.06114E0,-1.4101664E-4,-4.484495E-4,6.1683654E-4,2.7469636E-4],"split_indices":[1,1,0,0,1,0,0,0,0],"split_type":[0,0,0,0,0,0,0,0,0],"sum_hessian":[6E0,5E0,1E0,2E0,3E0,1E0,1E0,1E0,2E0],"tree_param":{"num_deleted":"0","num_feature":"6","num_nodes":"9","size_leaf_vector":"1"}},{"base_weights":[2.884335E-3,-1.3160706E-4,4.272461E-3,5.757014E-4,2.527237E-4],"categories":[],"categories_nodes":[],"categories_segments":[],"categories_sizes":[],"default_left":[0,0,0,0,0],"id":49,"left_children":[1,-1,3,-1,-1],"loss_changes":[2.9049545E-5,0E0,1.7933999E-6,0E0,0E0],"parents":[2147483647,0,0,2,2],"right_children":[2,-1,4,-1,-1],"split_conditions":[7.8741407E0,-1.3160706E-4,8.06114E0,5.757014E-4,2.527237E-4],"split_indices":[0,0,1,0,0],"split_type":[0,0,0,0,0],"sum_hessian":[4E0,1E0,3E0,1E0,2E0],"tree_param":{"num_deleted":"0","num_feature":"6","num_nodes":"5","size_leaf_vector":"1"}},{"base_weights":[-4.359759E-3,-1.7901334E-3,-1.2328465E-3,-9.487152E-4,3.9634705E-3,5.3730013E-4,2.325058E-4],"categories":[],"categories_nodes":[],"categories_segments":[],"categories_sizes":[],"default_left":[0,0,0,0,0,0,0],"id":50,"left_children":[1,3,-1,-1,5,-1,-1],"loss_changes":[1.2206304E-4,2.6237182E-4,0E0,0E0,1.8366045E-6,0E0,0E0],"parents":[2147483647,0,0,1,1,4,4],"right_children":[2,4,-1,-1,6,-1,-1],"split_conditions":[8.1799135E0,7.9934287E0,-1.2328465E-3,-9.487152E-4,8.06114E0,5.3730013E-4,2.325058E-4],"split_indices":[1,1,0,0,1,0,0],"split_type":[0,0,0,0,0,0,0],"sum_hessian":[6E0,5E0,1E0,2E0,3E0,1E0,2E0],"tree_param":{"num_deleted":"0","num_feature":"6","num_nodes":"7","size_leaf_vector":"1"}},{"base_weights":[-2.572233E-3,2.5765556E-3,-9.266091E-3,-5.957286E-5,3.964615E-3,-3.9367678E-4,-1.1506717E-3,5.015055E-4,1.5926361E-4],"categories":[],"categories_nodes":[],"categories_segments":[],"categories_sizes":[],"default_left":[0,0,0,0,0,0,0,0,0],"id":51,"left_children":[1,3,5,-1,7,-1,-1,-1,-1],"loss_changes":[2.0149621E-4,1.6592532E-5,7.2029216E-6,0E0,2.2354761E-6,0E0,0E0,0E0,0E0],"parents":[2147483647,0,0,1,1,2,2,4,4],"right_children":[2,4,6,-1,8,-1,-1,-1,-1],"split_conditions":[8.06114E0,7.8741407E0,8.06114E0,-5.957286E-5,8.088253E0,-3.9367678E-4,-1.1506717E-3,5.015055E-4,1.5926361E-4],"split_indices":[2,0,0,0,0,0,0,0,0],"split_type":[0,0,0,0,0,0,0,0,0],"sum_hessian":[5E0,3E0,2E0,1E0,2E0,1E0,1E0,1E0,1E0],"tree_param":{"num_deleted":"0","num_feature":"6","num_nodes":"9","size_leaf_vector":"1"}},{"base_weights":[-3.1934152E-3,-1.0944366E-3,-7.8920886E-4,2.6152928E-3,-1.0739644E-3,-5.5599212E-5,3.600802E-4],"categories":[],"categories_nodes":[],"categories_segments":[],"categories_sizes":[],"default_left":[0,0,0,0,0,0,0],"id":52,"left_children":[1,-1,3,5,-1,-1,-1],"loss_changes":[1.16808056E-4,0E0,2.0036315E-4,1.506499E-5,0E0,0E0,0E0],"parents":[2147483647,0,0,2,2,3,3],"right_children":[2,-1,4,6,-1,-1,-1],"split_conditions":[7.9054165E0,-1.0944366E-3,8.109769E0,7.8741407E0,-1.0739644E-3,-5.5599212E-5,3.600802E-4],"split_indices":[2,0,3,0,0,0,0],"split_type":[0,0,0,0,0,0,0],"sum_hessian":[6E0,1E0,5E0,4E0,1E0,1E0,3E0],"tree_param":{"num_deleted":"0","num_feature":"6","num_nodes":"7","size_leaf_vector":"1"}},{"base_weights":[2.2147042E-3,-5.1879884E-5,3.4118653E-3,4.4403077E-4,1.2461345E-4],"categories":[],"categories_nodes":[],"categories_segments":[],"categories_sizes":[],"default_left":[0,0,0,0,0],"id":53,"left_children":[1,-1,3,-1,-1],"loss_changes":[1.2338587E-5,0E0,2.8017148E-6,0E0,0E0],"parents":[2147483647,0,0,2,2],"right_children":[2,-1,4,-1,-1],"split_conditions":[7.8741407E0,-5.1879884E-5,8.088253E0,4.4403077E-4,1.2461345E-4],"split_indices":[0,0,0,0,0],"split_type":[0,0,0,0,0],"sum_hessian":[3E0,1E0,2E0,1E0,1E0],"tree_param":{"num_deleted":"0","num_feature":"6","num_nodes":"5","size_leaf_vector":"1"}},{"base_weights":[-3.6612193E-3,-1.0510762E-3,-1.7989232E-3,6.303787E-4,-1.0106723E-3,-2.8165816E-3,3.0024392E-3,-4.8414866E-5,-4.210154E-4,4.144033E-4,1.7169953E-4],"categories":[],"categories_nodes":[],"categories_segments":[],"categories_sizes":[],"default_left":[0,0,0,0,0,0,0,0,0,0,0],"id":54,"left_children":[1,-1,3,5,-1,7,9,-1,-1,-1,-1],"loss_changes":[8.621504E-5,0E0,1.3436953E-4,4.91985E-5,0E0,7.106866E-6,1.5784462E-6,0E0,0E0,0E0,0E0],"parents":[2147483647,0,0,2,2,3,3,5,5,6,6],"right_children":[2,-1,4,6,-1,8,10,-1,-1,-1,-1],"split_conditions":[7.9054165E0,-1.0510762E-3,8.109769E0,8.01502E0,-1.0106723E-3,7.8741407E0,7.9934287E0,-4.8414866E-5,-4.210154E-4,4.144033E-4,1.7169953E-4],"split_indices":[2,0,3,3,0,0,2,0,0,0,0],"split_type":[0,0,0,0,0,0,0,0,0,0,0],"sum_hessian":[7E0,1E0,6E0,5E0,1E0,2E0,3E0,1E0,1E0,1E0,2E0],"tree_param":{"num_deleted":"0","num_feature":"6","num_nodes":"11","size_leaf_vector":"1"}},{"base_weights":[-1.8714558E-3,8.5692934E-4,-9.432793E-4,-3.9294563E-4,2.785819E-3,3.8674672E-4,1.5796661E-4],"categories":[],"categories_nodes":[],"categories_segments":[],"categories_sizes":[],"default_left":[0,0,0,0,0,0,0],"id":55,"left_children":[1,3,-1,-1,5,-1,-1],"loss_changes":[1.1750794E-4,4.7019217E-5,0E0,0E0,1.511562E-6,0E0,0E0],"parents":[2147483647,0,0,1,1,4,4],"right_children":[2,4,-1,-1,6,-1,-1],"split_conditions":[8.1799135E0,7.9054165E0,-9.432793E-4,-3.9294563E-4,8.06114E0,3.8674672E-4,1.5796661E-4],"split_indices":[1,1,0,0,1,0,0],"split_type":[0,0,0,0,0,0,0],"sum_hessian":[5E0,4E0,1E0,1E0,3E0,1E0,2E0],"tree_param":{"num_deleted":"0","num_feature":"6","num_nodes":"7","size_leaf_vector":"1"}},{"base_weights":[-1.8216646E-3,-1.006794E-3,5.9292535E-4,-2.3143769E-3,2.584866E-3,-1.8978119E-5,-3.6675137E-4,3.6093395E-4,1.453209E-4],"categories":[],"categories_nodes":[],"categories_segments":[],"categories_sizes":[],"default_left":[0,0,0,0,0,0,0,0,0],"id":56,"left_children":[1,-1,3,5,7,-1,-1,-1,-1],"loss_changes":[1.324087E-4,0E0,3.4842633E-5,6.839159E-6,1.4351717E-6,0E0,0E0,0E0,0E0],"parents":[2147483647,0,0,2,2,3,3,4,4],"right_children":[2,-1,4,6,8,-1,-1,-1,-1],"split_conditions":[7.9054165E0,-1.006794E-3,7.9054165E0,7.895052E0,8.06114E0,-1.8978119E-5,-3.6675137E-4,3.6093395E-4,1.453209E-4],"split_indices":[2,0,1,1,1,0,0,0,0],"split_type":[0,0,0,0,0,0,0,0,0],"sum_hessian":[6E0,1E0,5E0,2E0,3E0,1E0,1E0,1E0,2E0],"tree_param":{"num_deleted":"0","num_feature":"6","num_nodes":"9","size_leaf_vector":"1"}},{"base_weights":[-3.2601038E-3,-9.396871E-4,-1.5931496E-3,5.4472144E-4,-8.90096E-4,1.806789E-3,-3.423055E-4,-1.7706554E-5,2.3988995E-4],"categories":[],"categories_nodes":[],"categories_segments":[],"categories_sizes":[],"default_left":[0,0,0,0,0,0,0,0,0],"id":57,"left_children":[1,-1,3,5,-1,7,-1,-1,-1],"loss_changes":[6.923751E-5,0E0,1.0397479E-4,3.063418E-5,0E0,5.4983575E-6,0E0,0E0,0E0],"parents":[2147483647,0,0,2,2,3,3,5,5],"right_children":[2,-1,4,6,-1,8,-1,-1,-1],"split_conditions":[2E0,-9.396871E-4,8.1799135E0,1.2E1,-8.90096E-4,7.895052E0,-3.423055E-4,-1.7706554E-5,2.3988995E-4],"split_indices":[4,0,1,4,0,1,0,0,0],"split_type":[0,0,0,0,0,0,0,0,0],"sum_hessian":[7E0,1E0,6E0,5E0,1E0,4E0,1E0,1E0,3E0],"tree_param":{"num_deleted":"0","num_feature":"6","num_nodes":"9","size_leaf_vector":"1"}},{"base_weights":[-3.0641556E-3,-1.6184587E-3,-8.3074573E-4,-5.198751E-3,2.1930423E-3,-1.6530355E-5,-7.1790693E-3,3.2087963E-4,1.14498136E-4,-8.7703066E-4,-3.194809E-4],"categories":[],"categories_nodes":[],"categories_segments":[],"categories_sizes":[],"default_left":[0,0,0,0,0,0,0,0,0,0,0],"id":58,"left_children":[1,3,-1,5,7,-1,9,-1,-1,-1,-1],"loss_changes":[5.012904E-5,9.440141E-5,0E0,3.4294033E-5,1.888995E-6,0E0,1.8400315E-6,0E0,0E0,0E0,0E0],"parents":[2147483647,0,0,1,1,3,3,4,4,6,6],"right_children":[2,4,-1,6,8,-1,10,-1,-1,-1,-1],"split_conditions":[8.1799135E0,7.9934287E0,-8.3074573E-4,7.8741407E0,8.06114E0,-1.6530355E-5,7.895052E0,3.2087963E-4,1.14498136E-4,-8.7703066E-4,-3.194809E-4],"split_indices":[1,1,0,0,1,0,0,0,0,0,0],"split_type":[0,0,0,0,0,0,0,0,0,0,0],"sum_hessian":[7E0,6E0,1E0,3E0,3E0,1E0,2E0,1E0,2E0,1E0,1E0],"tree_param":{"num_deleted":"0","num_feature":"6","num_nodes":"11","size_leaf_vector":"1"}},{"base_weights":[-2.6175426E-3,-8.1857044E-4,-8.609945E-4,1.5322367E-3,-7.7536906E-4,-1.5417736E-5,2.0360947E-3,2.9951733E-4,1.05342864E-4],"categories":[],"categories_nodes":[],"categories_segments":[],"categories_sizes":[],"default_left":[0,0,0,0,0,0,0,0,0],"id":59,"left_children":[1,-1,3,5,-1,-1,7,-1,-1],"loss_changes":[6.005092E-5,0E0,9.666722E-5,3.980668E-6,0E0,0E0,1.7209868E-6,0E0,0E0],"parents":[2147483647,0,0,2,2,3,3,6,6],"right_children":[2,-1,4,6,-1,-1,8,-1,-1],"split_conditions":[7.9054165E0,-8.1857044E-4,8.1799135E0,7.895052E0,-7.7536906E-4,-1.5417736E-5,8.06114E0,2.9951733E-4,1.05342864E-4],"split_indices":[2,0,1,1,0,0,1,0,0],"split_type":[0,0,0,0,0,0,0,0,0],"sum_hessian":[6E0,1E0,5E0,4E0,1E0,1E0,3E0,1E0,2E0],"tree_param":{"num_deleted":"0","num_feature":"6","num_nodes":"9","size_leaf_vector":"1"}},{"base_weights":[-9.1986224E-4,-7.6398853E-4,1.4223523E-3,-1.44004825E-5,1.890455E-3,2.7955373E-4,9.6931464E-5],"categories":[],"categories_nodes":[],"categories_segments":[],"categories_sizes":[],"default_left":[0,0,0,0,0,0,0],"id":60,"left_children":[1,-1,3,-1,5,-1,-1],"loss_changes":[9.200185E-5,0E0,3.4355899E-6,0E0,1.5630994E-6,0E0,0E0],"parents":[2147483647,0,0,2,2,4,4],"right_children":[2,-1,4,-1,6,-1,-1],"split_conditions":[7.9054165E0,-7.6398853E-4,7.8741407E0,-1.44004825E-5,7.9934287E0,2.7955373E-4,9.6931464E-5],"split_indices":[2,0,0,0,2,0,0],"split_type":[0,0,0,0,0,0,0],"sum_hessian":[5E0,1E0,4E0,1E0,3E0,1E0,2E0],"tree_param":{"num_deleted":"0","num_feature":"6","num_nodes":"7","size_leaf_vector":"1"}},{"base_weights":[1.9498305E-4,1.3203091E-3,-3.2459895E-4,-1.3446808E-5,1.7551695E-3,2.609253E-4,8.916855E-5],"categories":[],"categories_nodes":[],"categories_segments":[],"categories_sizes":[],"default_left":[0,0,0,0,0,0,0],"id":61,"left_children":[1,3,-1,-1,5,-1,-1],"loss_changes":[2.3440041E-5,2.964819E-6,0E0,0E0,1.4178886E-6,0E0,0E0],"parents":[2147483647,0,0,1,1,4,4],"right_children":[2,4,-1,-1,6,-1,-1],"split_conditions":[1.2E1,7.8741407E0,-3.2459895E-4,-1.3446808E-5,7.9934287E0,2.609253E-4,8.916855E-5],"split_indices":[4,0,0,0,2,0,0],"split_type":[0,0,0,0,0,0,0],"sum_hessian":[5E0,4E0,1E0,1E0,3E0,1E0,2E0],"tree_param":{"num_deleted":"0","num_feature":"6","num_nodes":"7","size_leaf_vector":"1"}},{"base_weights":[-1.1672974E-3,-7.3045096E-4,1.6296932E-3,2.0320893E-4,4.1580202E-5],"categories":[],"categories_nodes":[],"categories_segments":[],"categories_sizes":[],"default_left":[0,0,0,0,0],"id":62,"left_children":[1,-1,3,-1,-1],"loss_changes":[8.319781E-5,0E0,1.2871542E-6,0E0,0E0],"parents":[2147483647,0,0,2,2],"right_children":[2,-1,4,-1,-1],"split_conditions":[7.895052E0,-7.3045096E-4,8.088253E0,2.0320893E-4,4.1580202E-5],"split_indices":[0,0,0,0,0],"split_type":[0,0,0,0,0],"sum_hessian":[4E0,1E0,3E0,2E0,1E0],"tree_param":{"num_deleted":"0","num_feature":"6","num_nodes":"5","size_leaf_vector":"1"}},{"base_weights":[-1.411658E-3,-6.8174995E-4,1.9099495E-4,-1.6820908E-3,1.5016283E-3,3.6144258E-5,-3.1649272E-4,2.2996266E-4,7.225037E-5],"categories":[],"categories_nodes":[],"categories_segments":[],"categories_sizes":[],"default_left":[0,0,0,0,0,0,0,0,0],"id":63,"left_children":[1,-1,3,5,7,-1,-1,-1,-1],"loss_changes":[5.696503E-5,0E0,1.4765045E-5,8.147534E-6,1.3453464E-6,0E0,0E0,0E0,0E0],"parents":[2147483647,0,0,2,2,3,3,4,4],"right_children":[2,-1,4,6,8,-1,-1,-1,-1],"split_conditions":[7.9054165E0,-6.8174995E-4,7.9054165E0,7.8741407E0,8.06114E0,3.6144258E-5,-3.1649272E-4,2.2996266E-4,7.225037E-5],"split_indices":[2,0,1,0,1,0,0,0,0],"split_type":[0,0,0,0,0,0,0,0,0],"sum_hessian":[6E0,1E0,5E0,2E0,3E0,1E0,1E0,1E0,2E0],"tree_param":{"num_deleted":"0","num_feature":"6","num_nodes":"9","size_leaf_vector":"1"}},{"base_weights":[-3.1152873E-3,-1.6534979E-3,-7.436752E-4,-5.5900577E-4,1.3945444E-3,2.1464031E-4,6.645203E-5],"categories":[],"categories_nodes":[],"categories_segments":[],"categories_sizes":[],"default_left":[0,0,0,0,0,0,0],"id":64,"left_children":[1,3,-1,-1,5,-1,-1],"loss_changes":[3.4912635E-5,6.989119E-5,0E0,0E0,1.2078976E-6,0E0,0E0],"parents":[2147483647,0,0,1,1,4,4],"right_children":[2,4,-1,-1,6,-1,-1],"split_conditions":[8.1799135E0,7.9934287E0,-7.436752E-4,-5.5900577E-4,8.06114E0,2.1464031E-4,6.645203E-5],"split_indices":[1,1,0,0,1,0,0],"split_type":[0,0,0,0,0,0,0],"sum_hessian":[6E0,5E0,1E0,2E0,3E0,1E0,2E0],"tree_param":{"num_deleted":"0","num_feature":"6","num_nodes":"7","size_leaf_vector":"1"}},{"base_weights":[-1.116826E-3,-5.9903465E-4,3.1384555E-4,1.2440151E-4,-2.5812787E-4],"categories":[],"categories_nodes":[],"categories_segments":[],"categories_sizes":[],"default_left":[0,0,0,0,0],"id":65,"left_children":[1,-1,3,-1,-1],"loss_changes":[4.6260662E-5,0E0,1.6416836E-5,0E0,0E0],"parents":[2147483647,0,0,2,2],"right_children":[2,-1,4,-1,-1],"split_conditions":[2E0,-5.9903465E-4,1.2E1,1.2440151E-4,-2.5812787E-4],"split_indices":[4,0,4,0,0],"split_type":[0,0,0,0,0],"sum_hessian":[6E0,1E0,5E0,4E0,1E0],"tree_param":{"num_deleted":"0","num_feature":"6","num_nodes":"5","size_leaf_vector":"1"}},{"base_weights":[-1.0614395E-3,-5.5910746E-4,2.7041E-4,1.1336008E-4,-2.4092992E-4],"categories":[],"categories_nodes":[],"categories_segments":[],"categories_sizes":[],"default_left":[0,0,0,0,0],"id":66,"left_children":[1,-1,3,-1,-1],"loss_changes":[3.9969087E-5,0E0,1.4087645E-5,0E0,0E0],"parents":[2147483647,0,0,2,2],"right_children":[2,-1,4,-1,-1],"split_conditions":[7.9054165E0,-5.5910746E-4,1.2E1,1.1336008E-4,-2.4092992E-4],"split_indices":[2,0,4,0,0],"split_type":[0,0,0,0,0],"sum_hessian":[6E0,1E0,5E0,4E0,1E0],"tree_param":{"num_deleted":"0","num_feature":"6","num_nodes":"5","size_leaf_vector":"1"}},{"base_weights":[-5.781867E-4,-5.218188E-4,1.0327234E-4],"categories":[],"categories_nodes":[],"categories_segments":[],"categories_sizes":[],"default_left":[0,0,0],"id":67,"left_children":[1,-1,-1],"loss_changes":[4.3804906E-5,0E0,0E0],"parents":[2147483647,0,0],"right_children":[2,-1,-1],"split_conditions":[2E0,-5.218188E-4,1.0327234E-4],"split_indices":[4,0,0],"split_type":[0,0,0],"sum_hessian":[5E0,1E0,4E0],"tree_param":{"num_deleted":"0","num_feature":"6","num_nodes":"3","size_leaf_vector":"1"}},{"base_weights":[-2.126767E-3,-5.584197E-4,-7.168452E-4,-4.8704149E-4,9.409587E-5],"categories":[],"categories_nodes":[],"categories_segments":[],"categories_sizes":[],"default_left":[0,0,0,0,0],"id":68,"left_children":[1,3,-1,-1,-1],"loss_changes":[4.9394737E-5,3.7850645E-5,0E0,0E0,0E0],"parents":[2147483647,0,0,1,1],"right_children":[2,4,-1,-1,-1],"split_conditions":[8.1799135E0,7.9054165E0,-7.168452E-4,-4.8704149E-4,9.409587E-5],"split_indices":[1,2,0,0,0],"split_type":[0,0,0,0,0],"sum_hessian":[6E0,5E0,1E0,1E0,4E0],"tree_param":{"num_deleted":"0","num_feature":"6","num_nodes":"5","size_leaf_vector":"1"}},{"base_weights":[-2.450837E-3,1.0311126E-3,-5.4426193E-3,1.7134349E-4,5.0862633E-7,-2.3803712E-4,-6.690661E-4],"categories":[],"categories_nodes":[],"categories_segments":[],"categories_sizes":[],"default_left":[0,0,0,0,0,0,0],"id":69,"left_children":[1,3,5,-1,-1,-1,-1],"loss_changes":[4.9683535E-5,1.7458437E-6,1.5914047E-6,0E0,0E0,0E0,0E0],"parents":[2147483647,0,0,1,1,2,2],"right_children":[2,4,6,-1,-1,-1,-1],"split_conditions":[8.06114E0,8.088253E0,8.06114E0,1.7134349E-4,5.0862633E-7,-2.3803712E-4,-6.690661E-4],"split_indices":[2,0,0,0,0,0,0],"split_type":[0,0,0,0,0,0,0],"sum_hessian":[4E0,2E0,2E0,1E0,1E0,1E0,1E0],"tree_param":{"num_deleted":"0","num_feature":"6","num_nodes":"7","size_leaf_vector":"1"}},{"base_weights":[-1.93926E-3,-5.8876385E-4,-6.2446593E-4,-4.659971E-4,8.337233E-5],"categories":[],"categories_nodes":[],"categories_segments":[],"categories_sizes":[],"default_left":[0,0,0,0,0],"id":70,"left_children":[1,3,-1,-1,-1],"loss_changes":[3.5955447E-5,3.379438E-5,0E0,0E0,0E0],"parents":[2147483647,0,0,1,1],"right_children":[2,4,-1,-1,-1],"split_conditions":[8.1799135E0,7.9054165E0,-6.2446593E-4,-4.659971E-4,8.337233E-5],"split_indices":[1,2,0,0,0],"split_type":[0,0,0,0,0],"sum_hessian":[6E0,5E0,1E0,1E0,4E0],"tree_param":{"num_deleted":"0","num_feature":"6","num_nodes":"5","size_leaf_vector":"1"}},{"base_weights":[-1.7353405E-3,-1.7823113E-4,-5.828222E-4,-1.2165069E-3,8.9569093E-4,2.4986268E-5,-2.2773743E-4,1.5436808E-4,-5.086263E-6],"categories":[],"categories_nodes":[],"categories_segments":[],"categories_sizes":[],"default_left":[0,0,0,0,0,0,0,0,0],"id":71,"left_children":[1,3,-1,5,7,-1,-1,-1,-1],"loss_changes":[3.4532462E-5,5.56243E-6,0E0,4.1735743E-6,1.572651E-6,0E0,0E0,0E0,0E0],"parents":[2147483647,0,0,1,1,3,3,4,4],"right_children":[2,4,-1,6,8,-1,-1,-1,-1],"split_conditions":[8.088253E0,8.06114E0,-5.828222E-4,7.8741407E0,8.088253E0,2.4986268E-5,-2.2773743E-4,1.5436808E-4,-5.086263E-6],"split_indices":[1,0,0,0,0,0,0,0,0],"split_type":[0,0,0,0,0,0,0,0,0],"sum_hessian":[5E0,4E0,1E0,2E0,2E0,1E0,1E0,1E0,1E0],"tree_param":{"num_deleted":"0","num_feature":"6","num_nodes":"9","size_leaf_vector":"1"}},{"base_weights":[-1.6196858E-3,6.969997E-5,-4.5391085E-4],"categories":[],"categories_nodes":[],"categories_segments":[],"categories_sizes":[],"default_left":[0,0,0],"id":72,"left_children":[1,-1,-1],"loss_changes":[3.878049E-5,0E0,0E0],"parents":[2147483647,0,0],"right_children":[2,-1,-1],"split_conditions":[1E1,6.969997E-5,-4.5391085E-4],"split_indices":[4,0,0],"split_type":[0,0,0],"sum_hessian":[5E0,3E0,2E0],"tree_param":{"num_deleted":"0","num_feature":"6","num_nodes":"3","size_leaf_vector":"1"}},{"base_weights":[-1.2489666E-3,-4.2438507E-4,-1.1189779E-4,6.3732696E-5,-1.8227896E-4],"categories":[],"categories_nodes":[],"categories_segments":[],"categories_sizes":[],"default_left":[0,0,0,0,0],"id":73,"left_children":[1,-1,3,-1,-1],"loss_changes":[1.8492203E-5,0E0,6.349147E-6,0E0,0E0],"parents":[2147483647,0,0,2,2],"right_children":[2,-1,4,-1,-1],"split_conditions":[7.9054165E0,-4.2438507E-4,8.06114E0,6.3732696E-5,-1.8227896E-4],"split_indices":[2,0,2,0,0],"split_type":[0,0,0,0,0],"sum_hessian":[5E0,1E0,4E0,3E0,1E0],"tree_param":{"num_deleted":"0","num_feature":"6","num_nodes":"5","size_leaf_vector":"1"}},{"base_weights":[-1.8340216E-3,7.2898867E-4,-4.0302277E-3,1.3516744E-4,-1.3669332E-5,-1.701355E-4,-5.015691E-4],"categories":[],"categories_nodes":[],"categories_segments":[],"categories_sizes":[],"default_left":[0,0,0,0,0,0,0],"id":74,"left_children":[1,3,5,-1,-1,-1,-1],"loss_changes":[2.6799036E-5,1.4400022E-6,1.470813E-6,0E0,0E0,0E0,0E0],"parents":[2147483647,0,0,1,1,2,2],"right_children":[2,4,6,-1,-1,-1,-1],"split_conditions":[8.06114E0,8.06114E0,7.9054165E0,1.3516744E-4,-1.3669332E-5,-1.701355E-4,-5.015691E-4],"split_indices":[2,1,1,0,0,0,0],"split_type":[0,0,0,0,0,0,0],"sum_hessian":[4E0,2E0,2E0,1E0,1E0,1E0,1E0],"tree_param":{"num_deleted":"0","num_feature":"6","num_nodes":"7","size_leaf_vector":"1"}},{"base_weights":[-7.8406703E-4,3.5008517E-4,-4.6812693E-4,-9.2010497E-4,1.2073517E-3,5.435944E-6,-1.5878677E-4,1.7669679E-4,-1.2779236E-5],"categories":[],"categories_nodes":[],"categories_segments":[],"categories_sizes":[],"default_left":[0,0,0,0,0,0,0,0,0],"id":75,"left_children":[1,3,-1,5,7,-1,-1,-1,-1],"loss_changes":[2.9549554E-5,6.544348E-6,0E0,1.6699353E-6,2.7279916E-6,0E0,0E0,0E0,0E0],"parents":[2147483647,0,0,1,1,3,3,4,4],"right_children":[2,4,-1,6,8,-1,-1,-1,-1],"split_conditions":[8.1799135E0,7.9054165E0,-4.6812693E-4,7.8741407E0,8.088253E0,5.435944E-6,-1.5878677E-4,1.7669679E-4,-1.2779236E-5],"split_indices":[1,1,0,0,0,0,0,0,0],"split_type":[0,0,0,0,0,0,0,0,0],"sum_hessian":[6E0,5E0,1E0,2E0,3E0,1E0,1E0,2E0,1E0],"tree_param":{"num_deleted":"0","num_feature":"6","num_nodes":"9","size_leaf_vector":"1"}},{"base_weights":[1.1099407E-3,1.6256333E-4,-1.19527185E-5],"categories":[],"categories_nodes":[],"categories_segments":[],"categories_sizes":[],"default_left":[0,0,0],"id":76,"left_children":[1,-1,-1],"loss_changes":[2.3162497E-6,0E0,0E0],"parents":[2147483647,0,0],"right_children":[2,-1,-1],"split_conditions":[8.088253E0,1.6256333E-4,-1.19527185E-5],"split_indices":[0,0,0],"split_type":[0,0,0],"sum_hessian":[3E0,2E0,1E0],"tree_param":{"num_deleted":"0","num_feature":"6","num_nodes":"3","size_leaf_vector":"1"}},{"base_weights":[-8.3710597E-4,2.000982E-4,-4.3611528E-4,7.747014E-4,-1.5904108E-4,1.0437284E-3,-1.1126201E-5,-5.753835E-6,1.4957429E-4],"categories":[],"categories_nodes":[],"categories_segments":[],"categories_sizes":[],"default_left":[0,0,0,0,0,0,0,0,0],"id":77,"left_children":[1,3,-1,5,-1,7,-1,-1,-1],"loss_changes":[2.4194844E-5,6.2746244E-6,0E0,1.1306297E-6,0E0,1.7852908E-6,0E0,0E0,0E0],"parents":[2147483647,0,0,1,1,3,3,5,5],"right_children":[2,4,-1,6,-1,8,-1,-1,-1],"split_conditions":[8.109769E0,1.2E1,-4.3611528E-4,8.088253E0,-1.5904108E-4,7.8741407E0,-1.1126201E-5,-5.753835E-6,1.4957429E-4],"split_indices":[3,4,0,0,0,0,0,0,0],"split_type":[0,0,0,0,0,0,0,0,0],"sum_hessian":[6E0,5E0,1E0,4E0,1E0,3E0,1E0,1E0,2E0],"tree_param":{"num_deleted":"0","num_feature":"6","num_nodes":"9","size_leaf_vector":"1"}},{"base_weights":[-1.5591304E-3,-4.377047E-4,-7.8890874E-4,1.7773021E-4,-4.0702822E-4,-9.2277525E-4,9.384155E-4,-5.372365E-6,-1.4842353E-4,1.3759614E-4,-1.0363261E-5],"categories":[],"categories_nodes":[],"categories_segments":[],"categories_sizes":[],"default_left":[0,0,0,0,0,0,0,0,0,0,0],"id":78,"left_children":[1,-1,3,5,-1,7,9,-1,-1,-1,-1],"loss_changes":[1.4551608E-5,0E0,2.0979076E-5,5.0372346E-6,0E0,1.1799746E-6,1.6671002E-6,0E0,0E0,0E0,0E0],"parents":[2147483647,0,0,2,2,3,3,5,5,6,6],"right_children":[2,-1,4,6,-1,8,10,-1,-1,-1,-1],"split_conditions":[7.9054165E0,-4.377047E-4,8.109769E0,8.01502E0,-4.0702822E-4,7.8741407E0,8.088253E0,-5.372365E-6,-1.4842353E-4,1.3759614E-4,-1.0363261E-5],"split_indices":[2,0,3,3,0,0,0,0,0,0,0],"split_type":[0,0,0,0,0,0,0,0,0,0,0],"sum_hessian":[7E0,1E0,6E0,5E0,1E0,2E0,3E0,1E0,1E0,2E0,1E0],"tree_param":{"num_deleted":"0","num_feature":"6","num_nodes":"11","size_leaf_vector":"1"}},{"base_weights":[6.543265E-4],"categories":[],"categories_nodes":[],"categories_segments":[],"categories_sizes":[],"default_left":[0],"id":79,"left_children":[-1],"loss_changes":[0E0],"parents":[2147483647],"right_children":[-1],"split_conditions":[6.543265E-5],"split_indices":[0],"split_type":[0],"sum_hessian":[4E0],"tree_param":{"num_deleted":"0","num_feature":"6","num_nodes":"1","size_leaf_vector":"1"}},{"base_weights":[-9.243705E-4,1.5099843E-4,-3.8423538E-4,-1.4289221E-4,8.06536E-4,1.21345525E-4,-1.4050801E-5],"categories":[],"categories_nodes":[],"categories_segments":[],"categories_sizes":[],"default_left":[0,0,0,0,0,0,0],"id":80,"left_children":[1,3,-1,-1,5,-1,-1],"loss_changes":[1.7548593E-5,5.2368755E-6,0E0,0E0,1.4340467E-6,0E0,0E0],"parents":[2147483647,0,0,1,1,4,4],"right_children":[2,4,-1,-1,6,-1,-1],"split_conditions":[8.109769E0,8.01502E0,-3.8423538E-4,-1.4289221E-4,8.088253E0,1.21345525E-4,-1.4050801E-5],"split_indices":[3,3,0,0,0,0,0],"split_type":[0,0,0,0,0,0,0],"sum_hessian":[5E0,4E0,1E0,1E0,3E0,2E0,1E0],"tree_param":{"num_deleted":"0","num_feature":"6","num_nodes":"7","size_leaf_vector":"1"}},{"base_weights":[7.414137E-4,1.116562E-4,-1.3097127E-5],"categories":[],"categories_nodes":[],"categories_segments":[],"categories_sizes":[],"default_left":[0,0,0],"id":81,"left_children":[1,-1,-1],"loss_changes":[1.2185765E-6,0E0,0E0],"parents":[2147483647,0,0],"right_children":[2,-1,-1],"split_conditions":[8.088253E0,1.116562E-4,-1.3097127E-5],"split_indices":[0,0,0],"split_type":[0,0,0],"sum_hessian":[3E0,2E0,1E0],"tree_param":{"num_deleted":"0","num_feature":"6","num_nodes":"3","size_leaf_vector":"1"}},{"base_weights":[-7.0649927E-4,-4.1077935E-4,5.0576527E-5],"categories":[],"categories_nodes":[],"categories_segments":[],"categories_sizes":[],"default_left":[0,0,0],"id":82,"left_children":[1,-1,-1],"loss_changes":[2.3716762E-5,0E0,0E0],"parents":[2147483647,0,0],"right_children":[2,-1,-1],"split_conditions":[7.9054165E0,-4.1077935E-4,5.0576527E-5],"split_indices":[2,0,0],"split_type":[0,0,0],"sum_hessian":[5E0,1E0,4E0],"tree_param":{"num_deleted":"0","num_feature":"6","num_nodes":"3","size_leaf_vector":"1"}},{"base_weights":[-2.2993954E-3,-2.75845E-4,-1.5576681E-5],"categories":[],"categories_nodes":[],"categories_segments":[],"categories_sizes":[],"default_left":[0,0,0],"id":83,"left_children":[1,-1,-1],"loss_changes":[5.197393E-6,0E0,0E0],"parents":[2147483647,0,0],"right_children":[2,-1,-1],"split_conditions":[8.1799135E0,-2.75845E-4,-1.5576681E-5],"split_indices":[0,0,0],"split_type":[0,0,0],"sum_hessian":[5E0,4E0,1E0],"tree_param":{"num_deleted":"0","num_feature":"6","num_nodes":"3","size_leaf_vector":"1"}},{"base_weights":[-4.04618E-4,8.955002E-5,-2.1438599E-3,-3.4275054E-4,-1.4559429E-5],"categories":[],"categories_nodes":[],"categories_segments":[],"categories_sizes":[],"default_left":[0,0,0,0,0],"id":84,"left_children":[1,-1,3,-1,-1],"loss_changes":[1.3396624E-5,0E0,6.163149E-6,0E0,0E0],"parents":[2147483647,0,0,2,2],"right_children":[2,-1,4,-1,-1],"split_conditions":[8.088253E0,8.955002E-5,8.1799135E0,-3.4275054E-4,-1.4559429E-5],"split_indices":[0,0,0,0,0],"split_type":[0,0,0,0,0],"sum_hessian":[5E0,3E0,2E0,1E0,1E0],"tree_param":{"num_deleted":"0","num_feature":"6","num_nodes":"5","size_leaf_vector":"1"}},{"base_weights":[-1.7160069E-3,-3.710111E-4,-8.606381E-4,2.6444026E-5,-3.1989414E-4],"categories":[],"categories_nodes":[],"categories_segments":[],"categories_sizes":[],"default_left":[0,0,0,0,0],"id":85,"left_children":[1,-1,3,-1,-1],"loss_changes":[7.784789E-6,0E0,1.226145E-5,0E0,0E0],"parents":[2147483647,0,0,2,2],"right_children":[2,-1,4,-1,-1],"split_conditions":[7.9054165E0,-3.710111E-4,8.088253E0,2.6444026E-5,-3.1989414E-4],"split_indices":[2,0,1,0,0],"split_type":[0,0,0,0,0],"sum_hessian":[5E0,1E0,4E0,3E0,1E0],"tree_param":{"num_deleted":"0","num_feature":"6","num_nodes":"5","size_leaf_vector":"1"}},{"base_weights":[-1.1698405E-3,-1.666069E-3,1.37043E-4,-3.4627915E-4,-1.024593E-3,2.4168832E-5,-2.5924682E-4],"categories":[],"categories_nodes":[],"categories_segments":[],"categories_sizes":[],"default_left":[0,0,0,0,0,0,0],"id":86,"left_children":[1,3,-1,-1,5,-1,-1],"loss_changes":[1.0595778E-5,5.7176258E-6,0E0,0E0,1.1232827E-5,0E0,0E0],"parents":[2147483647,0,0,1,1,4,4],"right_children":[2,4,-1,-1,6,-1,-1],"split_conditions":[8.1799135E0,7.9054165E0,1.37043E-4,-3.4627915E-4,8.06114E0,2.4168832E-5,-2.5924682E-4],"split_indices":[2,2,0,0,2,0,0],"split_type":[0,0,0,0,0,0,0],"sum_hessian":[7E0,6E0,1E0,1E0,5E0,3E0,2E0],"tree_param":{"num_deleted":"0","num_feature":"6","num_nodes":"7","size_leaf_vector":"1"}},{"base_weights":[-1.5440721E-3,-3.2320022E-4,-9.433573E-4,2.211162E-5,-2.3849487E-4],"categories":[],"categories_nodes":[],"categories_segments":[],"categories_sizes":[],"default_left":[0,0,0,0,0],"id":87,"left_children":[1,-1,3,-1,-1],"loss_changes":[5.066304E-6,0E0,9.496498E-6,0E0,0E0],"parents":[2147483647,0,0,2,2],"right_children":[2,-1,4,-1,-1],"split_conditions":[7.9054165E0,-3.2320022E-4,8.06114E0,2.211162E-5,-2.3849487E-4],"split_indices":[2,0,2,0,0],"split_type":[0,0,0,0,0],"sum_hessian":[6E0,1E0,5E0,3E0,2E0],"tree_param":{"num_deleted":"0","num_feature":"6","num_nodes":"5","size_leaf_vector":"1"}},{"base_weights":[2.0231519E-4],"categories":[],"categories_nodes":[],"categories_segments":[],"categories_sizes":[],"default_left":[0],"id":88,"left_children":[-1],"loss_changes":[0E0],"parents":[2147483647],"right_children":[-1],"split_conditions":[2.0231519E-5],"split_indices":[0],"split_type":[0],"sum_hessian":[3E0],"tree_param":{"num_deleted":"0","num_feature":"6","num_nodes":"1","size_leaf_vector":"1"}},{"base_weights":[-8.861835E-4,-1.4358867E-3,1.4247895E-4,-3.0298234E-4,-7.450316E-4,1.8514906E-5,-2.6671094E-4],"categories":[],"categories_nodes":[],"categories_segments":[],"categories_sizes":[],"default_left":[0,0,0,0,0,0,0],"id":89,"left_children":[1,3,-1,-1,5,-1,-1],"loss_changes":[9.280188E-6,4.9278287E-6,0E0,0E0,8.2923625E-6,0E0,0E0],"parents":[2147483647,0,0,1,1,4,4],"right_children":[2,4,-1,-1,6,-1,-1],"split_conditions":[1.1E1,2E0,1.4247895E-4,-3.0298234E-4,8.088253E0,1.8514906E-5,-2.6671094E-4],"split_indices":[4,4,0,0,1,0,0],"split_type":[0,0,0,0,0,0,0],"sum_hessian":[6E0,5E0,1E0,1E0,4E0,3E0,1E0],"tree_param":{"num_deleted":"0","num_feature":"6","num_nodes":"7","size_leaf_vector":"1"}},{"base_weights":[-5.110227E-4,-2.8279622E-4,1.6732649E-4,5.750656E-4,-1.11166635E-4,1.6948155E-5,1.3297399E-4],"categories":[],"categories_nodes":[],"categories_segments":[],"categories_sizes":[],"default_left":[0,0,0,0,0,0,0],"id":90,"left_children":[1,-1,3,5,-1,-1,-1],"loss_changes":[1.0452609E-5,0E0,3.187865E-6,1.264694E-6,0E0,0E0,0E0],"parents":[2147483647,0,0,2,2,3,3],"right_children":[2,-1,4,6,-1,-1,-1],"split_conditions":[7.9054165E0,-2.8279622E-4,1.2E1,8.06114E0,-1.11166635E-4,1.6948155E-5,1.3297399E-4],"split_indices":[2,0,4,2,0,0,0],"split_type":[0,0,0,0,0,0,0],"sum_hessian":[6E0,1E0,5E0,4E0,1E0,3E0,1E0],"tree_param":{"num_deleted":"0","num_feature":"6","num_nodes":"7","size_leaf_vector":"1"}},{"base_weights":[-2.6616183E-4,5.340576E-4,-2.5780997E-4,1.5476773E-5,1.2410483E-4],"categories":[],"categories_nodes":[],"categories_segments":[],"categories_sizes":[],"default_left":[0,0,0,0,0],"id":91,"left_children":[1,3,-1,-1,-1],"loss_changes":[1.0863743E-5,1.1106576E-6,0E0,0E0,0E0],"parents":[2147483647,0,0,1,1],"right_children":[2,4,-1,-1,-1],"split_conditions":[8.109769E0,8.06114E0,-2.5780997E-4,1.5476773E-5,1.2410483E-4],"split_indices":[3,2,0,0,0],"split_type":[0,0,0,0,0],"sum_hessian":[5E0,4E0,1E0,3E0,1E0],"tree_param":{"num_deleted":"0","num_feature":"6","num_nodes":"5","size_leaf_vector":"1"}},{"base_weights":[-9.3798205E-4,-2.6496252E-4,-2.632141E-4,1.4168875E-5,-1.1202494E-4],"categories":[],"categories_nodes":[],"categories_segments":[],"categories_sizes":[],"default_left":[0,0,0,0,0],"id":92,"left_children":[1,-1,3,-1,-1],"loss_changes":[6.003581E-6,0E0,1.6409356E-6,0E0,0E0],"parents":[2147483647,0,0,2,2],"right_children":[2,-1,4,-1,-1],"split_conditions":[7.9054165E0,-2.6496252E-4,8.06114E0,1.4168875E-5,-1.1202494E-4],"split_indices":[2,0,2,0,0],"split_type":[0,0,0,0,0],"sum_hessian":[5E0,1E0,4E0,3E0,1E0],"tree_param":{"num_deleted":"0","num_feature":"6","num_nodes":"5","size_leaf_vector":"1"}},{"base_weights":[-5.1697815E-4,-2.1110536E-4,6.9550105E-4,1.1182785E-4,-2.4096173E-5],"categories":[],"categories_nodes":[],"categories_segments":[],"categories_sizes":[],"default_left":[0,0,0,0,0],"id":93,"left_children":[1,-1,3,-1,-1],"loss_changes":[1.1364427E-5,0E0,1.5204348E-6,0E0,0E0],"parents":[2147483647,0,0,2,2],"right_children":[2,-1,4,-1,-1],"split_conditions":[7.9934287E0,-2.1110536E-4,8.078161E0,1.1182785E-4,-2.4096173E-5],"split_indices":[1,0,3,0,0],"split_type":[0,0,0,0,0],"sum_hessian":[5E0,2E0,3E0,2E0,1E0],"tree_param":{"num_deleted":"0","num_feature":"6","num_nodes":"5","size_leaf_vector":"1"}},{"base_weights":[-2.8080412E-4,-2.3320515E-4,6.3841685E-4,1.0288239E-4,-2.2506714E-5],"categories":[],"categories_nodes":[],"categories_segments":[],"categories_sizes":[],"default_left":[0,0,0,0,0],"id":94,"left_children":[1,-1,3,-1,-1],"loss_changes":[9.229384E-6,0E0,1.2956629E-6,0E0,0E0],"parents":[2147483647,0,0,2,2],"right_children":[2,-1,4,-1,-1],"split_conditions":[7.895052E0,-2.3320515E-4,8.088253E0,1.0288239E-4,-2.2506714E-5],"split_indices":[0,0,0,0,0],"split_type":[0,0,0,0,0],"sum_hessian":[4E0,1E0,3E0,2E0,1E0],"tree_param":{"num_deleted":"0","num_feature":"6","num_nodes":"5","size_leaf_vector":"1"}},{"base_weights":[-7.748286E-4,-1.1455095E-3,1.0897318E-4,-5.634096E-4,-1.9641877E-4,-2.1766026E-4,2.0844596E-5],"categories":[],"categories_nodes":[],"categories_segments":[],"categories_sizes":[],"default_left":[0,0,0,0,0,0,0],"id":95,"left_children":[1,3,-1,5,-1,-1,-1],"loss_changes":[5.8078276E-6,2.5442696E-6,0E0,5.830036E-6,0E0,0E0,0E0],"parents":[2147483647,0,0,1,1,3,3],"right_children":[2,4,-1,6,-1,-1,-1],"split_conditions":[8.1799135E0,8.06114E0,1.0897318E-4,7.9054165E0,-1.9641877E-4,-2.1766026E-4,2.0844596E-5],"split_indices":[2,2,0,2,0,0,0],"split_type":[0,0,0,0,0,0,0],"sum_hessian":[7E0,6E0,1E0,4E0,2E0,1E0,3E0],"tree_param":{"num_deleted":"0","num_feature":"6","num_nodes":"7","size_leaf_vector":"1"}},{"base_weights":[-8.715116E-4,-4.3834338E-4,-2.1692913E-4,-1.7244338E-4,5.4291316E-4,8.9435576E-5,-2.2379558E-5],"categories":[],"categories_nodes":[],"categories_segments":[],"categories_sizes":[],"default_left":[0,0,0,0,0,0,0],"id":96,"left_children":[1,3,-1,-1,5,-1,-1],"loss_changes":[3.1785721E-6,7.409025E-6,0E0,0E0,1.0431659E-6,0E0,0E0],"parents":[2147483647,0,0,1,1,4,4],"right_children":[2,4,-1,-1,6,-1,-1],"split_conditions":[8.109769E0,8.01502E0,-2.1692913E-4,-1.7244338E-4,8.088253E0,8.9435576E-5,-2.2379558E-5],"split_indices":[3,3,0,0,0,0,0],"split_type":[0,0,0,0,0,0,0],"sum_hessian":[6E0,5E0,1E0,2E0,3E0,2E0,1E0],"tree_param":{"num_deleted":"0","num_feature":"6","num_nodes":"7","size_leaf_vector":"1"}},{"base_weights":[-6.3940685E-4,-2.7055008E-4,-2.0246506E-4,-1.9165674E-4,2.0295923E-4,4.9050646E-5,-7.2733565E-5],"categories":[],"categories_nodes":[],"categories_segments":[],"categories_sizes":[],"default_left":[0,0,0,0,0,0,0],"id":97,"left_children":[1,3,-1,-1,5,-1,-1],"loss_changes":[3.5582893E-6,5.260622E-6,0E0,0E0,1.649652E-6,0E0,0E0],"parents":[2147483647,0,0,1,1,4,4],"right_children":[2,4,-1,-1,6,-1,-1],"split_conditions":[8.1799135E0,2E0,-2.0246506E-4,-1.9165674E-4,1.2E1,4.9050646E-5,-7.2733565E-5],"split_indices":[1,4,0,0,4,0,0],"split_type":[0,0,0,0,0,0,0],"sum_hessian":[7E0,6E0,1E0,1E0,5E0,4E0,1E0],"tree_param":{"num_deleted":"0","num_feature":"6","num_nodes":"7","size_leaf_vector":"1"}},{"base_weights":[-9.092918E-4,2.7688346E-5,-1.1501312E-4],"categories":[],"categories_nodes":[],"categories_segments":[],"categories_sizes":[],"default_left":[0,0,0],"id":98,"left_children":[1,-1,-1],"loss_changes":[2.0161315E-6,0E0,0E0],"parents":[2147483647,0,0],"right_children":[2,-1,-1],"split_conditions":[7.8741407E0,2.7688346E-5,-1.1501312E-4],"split_indices":[0,0,0],"split_type":[0,0,0],"sum_hessian":[6E0,1E0,5E0],"tree_param":{"num_deleted":"0","num_feature":"6","num_nodes":"3","size_leaf_vector":"1"}},{"base_weights":[-8.1079657E-4,-3.8666197E-4,-1.812935E-4,-1.7121634E-4,2.3664747E-5],"categories":[],"categories_nodes":[],"categories_segments":[],"categories_sizes":[],"default_left":[0,0,0,0,0],"id":99,"left_children":[1,3,-1,-1,-1],"loss_changes":[1.987232E-6,3.920478E-6,0E0,0E0,0E0],"parents":[2147483647,0,0,1,1],"right_children":[2,4,-1,-1,-1],"split_conditions":[8.109769E0,2E0,-1.812935E-4,-1.7121634E-4,2.3664747E-5],"split_indices":[3,4,0,0,0],"split_type":[0,0,0,0,0],"sum_hessian":[5E0,4E0,1E0,1E0,3E0],"tree_param":{"num_deleted":"0","num_feature":"6","num_nodes":"5","size_leaf_vector":"1"}},{"base_weights":[-4.9244275E-4,2.162116E-5,-1.3860704E-4],"categories":[],"categories_nodes":[],"categories_segments":[],"categories_sizes":[],"default_left":[0,0,0],"id":100,"left_children":[1,-1,-1],"loss_changes":[3.632844E-6,0E0,0E0],"parents":[2147483647,0,0],"right_children":[2,-1,-1],"split_conditions":[8.06114E0,2.162116E-5,-1.3860704E-4],"split_indices":[2,0,0],"split_type":[0,0,0],"sum_hessian":[5E0,3E0,2E0],"tree_param":{"num_deleted":"0","num_feature":"6","num_nodes":"3","size_leaf_vector":"1"}},{"base_weights":[-4.39771E-4,-7.56117E-4,1.077652E-4,2.2824604E-5,-9.5584175E-5],"categories":[],"categories_nodes":[],"categories_segments":[],"categories_sizes":[],"default_left":[0,0,0,0,0],"id":101,"left_children":[1,3,-1,-1,-1],"loss_changes":[4.0076457E-6,1.3869944E-6,0E0,0E0,0E0],"parents":[2147483647,0,0,1,1],"right_children":[2,4,-1,-1,-1],"split_conditions":[8.1799135E0,7.8741407E0,1.077652E-4,2.2824604E-5,-9.5584175E-5],"split_indices":[2,0,0,0,0],"split_type":[0,0,0,0,0],"sum_hessian":[7E0,6E0,1E0,1E0,5E0],"tree_param":{"num_deleted":"0","num_feature":"6","num_nodes":"5","size_leaf_vector":"1"}},{"base_weights":[-3.4757762E-4,-6.8508496E-4,1.0058085E-4,-1.5487672E-4,-3.2107034E-4,2.4550302E-5,-1.5360514E-4],"categories":[],"categories_nodes":[],"categories_segments":[],"categories_sizes":[],"default_left":[0,0,0,0,0,0,0],"id":102,"left_children":[1,3,-1,-1,5,-1,-1],"loss_changes":[3.3135875E-6,1.4805294E-6,0E0,0E0,3.2862445E-6,0E0,0E0],"parents":[2147483647,0,0,1,1,4,4],"right_children":[2,4,-1,-1,6,-1,-1],"split_conditions":[8.088253E0,7.9054165E0,1.0058085E-4,-1.5487672E-4,8.088253E0,2.4550302E-5,-1.5360514E-4],"split_indices":[2,2,0,0,1,0,0],"split_type":[0,0,0,0,0,0,0],"sum_hessian":[6E0,5E0,1E0,1E0,4E0,3E0,1E0],"tree_param":{"num_deleted":"0","num_feature":"6","num_nodes":"7","size_leaf_vector":"1"}},{"base_weights":[-3.9248032E-4,2.2438595E-5,-1.1775971E-4],"categories":[],"categories_nodes":[],"categories_segments":[],"categories_sizes":[],"default_left":[0,0,0],"id":103,"left_children":[1,-1,-1],"loss_changes":[2.7958342E-6,0E0,0E0],"parents":[2147483647,0,0],"right_children":[2,-1,-1],"split_conditions":[8.06114E0,2.2438595E-5,-1.1775971E-4],"split_indices":[2,0,0],"split_type":[0,0,0],"sum_hessian":[5E0,3E0,2E0],"tree_param":{"num_deleted":"0","num_feature":"6","num_nodes":"3","size_leaf_vector":"1"}},{"base_weights":[-8.397632E-4],"categories":[],"categories_nodes":[],"categories_segments":[],"categories_sizes":[],"default_left":[0],"id":104,"left_children":[-1],"loss_changes":[0E0],"parents":[2147483647],"right_children":[-1],"split_conditions":[-8.397632E-5],"split_indices":[0],"split_type":[0],"sum_hessian":[4E0],"tree_param":{"num_deleted":"0","num_feature":"6","num_nodes":"1","size_leaf_vector":"1"}},{"base_weights":[-2.7580262E-4,-5.658957E-4,1.0732016E-4,-1.4044443E-4,-2.857555E-4,2.7683802E-5,-1.0162353E-4],"categories":[],"categories_nodes":[],"categories_segments":[],"categories_sizes":[],"default_left":[0,0,0,0,0,0,0],"id":105,"left_children":[1,3,-1,-1,5,-1,-1],"loss_changes":[3.2386854E-6,1.3262588E-6,0E0,0E0,2.4009641E-6,0E0,0E0],"parents":[2147483647,0,0,1,1,4,4],"right_children":[2,4,-1,-1,6,-1,-1],"split_conditions":[8.1799135E0,7.9054165E0,1.0732016E-4,-1.4044443E-4,8.06114E0,2.7683802E-5,-1.0162353E-4],"split_indices":[2,2,0,0,2,0,0],"split_type":[0,0,0,0,0,0,0],"sum_hessian":[7E0,6E0,1E0,1E0,5E0,3E0,2E0],"tree_param":{"num_deleted":"0","num_feature":"6","num_nodes":"7","size_leaf_vector":"1"}},{"base_weights":[9.840185E-5,7.363728E-5,-8.144379E-5],"categories":[],"categories_nodes":[],"categories_segments":[],"categories_sizes":[],"default_left":[0,0,0],"id":106,"left_children":[1,-1,-1],"loss_changes":[3.5028736E-6,0E0,0E0],"parents":[2147483647,0,0],"right_children":[2,-1,-1],"split_conditions":[8.088253E0,7.363728E-5,-8.144379E-5],"split_indices":[0,0,0],"split_type":[0,0,0],"sum_hessian":[5E0,3E0,2E0],"tree_param":{"num_deleted":"0","num_feature":"6","num_nodes":"3","size_leaf_vector":"1"}},{"base_weights":[-4.529953E-4,-1.0412217E-4,2.2583008E-5],"categories":[],"categories_nodes":[],"categories_segments":[],"categories_sizes":[],"default_left":[0,0,0],"id":107,"left_children":[1,-1,-1],"loss_changes":[1.9144327E-6,0E0,0E0],"parents":[2147483647,0,0],"right_children":[2,-1,-1],"split_conditions":[7.9934287E0,-1.0412217E-4,2.2583008E-5],"split_indices":[1,0,0],"split_type":[0,0,0],"sum_hessian":[4E0,2E0,2E0],"tree_param":{"num_deleted":"0","num_feature":"6","num_nodes":"3","size_leaf_vector":"1"}},{"base_weights":[-8.53972E-5,-9.580612E-5,5.501338E-5],"categories":[],"categories_nodes":[],"categories_segments":[],"categories_sizes":[],"default_left":[0,0,0],"id":108,"left_children":[1,-1,-1],"loss_changes":[3.3138588E-6,0E0,0E0],"parents":[2147483647,0,0],"right_children":[2,-1,-1],"split_conditions":[7.9934287E0,-9.580612E-5,5.501338E-5],"split_indices":[1,0,0],"split_type":[0,0,0],"sum_hessian":[5E0,2E0,3E0],"tree_param":{"num_deleted":"0","num_feature":"6","num_nodes":"3","size_leaf_vector":"1"}},{"base_weights":[-1.8437704E-5,7.78389E-5,-8.115768E-5],"categories":[],"categories_nodes":[],"categories_segments":[],"categories_sizes":[],"default_left":[0,0,0],"id":109,"left_children":[1,-1,-1],"loss_changes":[3.159836E-6,0E0,0E0],"parents":[2147483647,0,0],"right_children":[2,-1,-1],"split_conditions":[8.088253E0,7.78389E-5,-8.115768E-5],"split_indices":[0,0,0],"split_type":[0,0,0],"sum_hessian":[4E0,2E0,2E0],"tree_param":{"num_deleted":"0","num_feature":"6","num_nodes":"3","size_leaf_vector":"1"}},{"base_weights":[-4.5556288E-5,-1.2782415E-4,2.9477207E-5],"categories":[],"categories_nodes":[],"categories_segments":[],"categories_sizes":[],"default_left":[0,0,0],"id":110,"left_children":[1,-1,-1],"loss_changes":[2.9152602E-6,0E0,0E0],"parents":[2147483647,0,0],"right_children":[2,-1,-1],"split_conditions":[7.9054165E0,-1.2782415E-4,2.9477207E-5],"split_indices":[2,0,0],"split_type":[0,0,0],"sum_hessian":[6E0,1E0,5E0],"tree_param":{"num_deleted":"0","num_feature":"6","num_nodes":"3","size_leaf_vector":"1"}},{"base_weights":[-4.893083E-5,2.678958E-5,-1.1943182E-4],"categories":[],"categories_nodes":[],"categories_segments":[],"categories_sizes":[],"default_left":[0,0,0],"id":111,"left_children":[1,-1,-1],"loss_changes":[2.5187562E-6,0E0,0E0],"parents":[2147483647,0,0],"right_children":[2,-1,-1],"split_conditions":[8.1799135E0,2.678958E-5,-1.1943182E-4],"split_indices":[1,0,0],"split_type":[0,0,0],"sum_hessian":[6E0,5E0,1E0],"tree_param":{"num_deleted":"0","num_feature":"6","num_nodes":"3","size_leaf_vector":"1"}},{"base_weights":[3.008409E-5,4.0838455E-5,-1.1148453E-4],"categories":[],"categories_nodes":[],"categories_segments":[],"categories_sizes":[],"default_left":[0,0,0],"id":112,"left_children":[1,-1,-1],"loss_changes":[2.6098428E-6,0E0,0E0],"parents":[2147483647,0,0],"right_children":[2,-1,-1],"split_conditions":[8.109769E0,4.0838455E-5,-1.1148453E-4],"split_indices":[3,0,0],"split_type":[0,0,0],"sum_hessian":[5E0,4E0,1E0],"tree_param":{"num_deleted":"0","num_feature":"6","num_nodes":"3","size_leaf_vector":"1"}},{"base_weights":[-2.6834928E-4,-5.3110994E-5,7.845561E-5],"categories":[],"categories_nodes":[],"categories_segments":[],"categories_sizes":[],"default_left":[0,0,0],"id":113,"left_children":[1,-1,-1],"loss_changes":[2.0066461E-6,0E0,0E0],"parents":[2147483647,0,0],"right_children":[2,-1,-1],"split_conditions":[8.088253E0,-5.3110994E-5,7.845561E-5],"split_indices":[2,0,0],"split_type":[0,0,0],"sum_hessian":[6E0,5E0,1E0],"tree_param":{"num_deleted":"0","num_feature":"6","num_nodes":"3","size_leaf_vector":"1"}},{"base_weights":[-5.700038E-5,2.0677393E-5,-1.00517274E-4],"categories":[],"categories_nodes":[],"categories_segments":[],"categories_sizes":[],"default_left":[0,0,0],"id":114,"left_children":[1,-1,-1],"loss_changes":[1.7295946E-6,0E0,0E0],"parents":[2147483647,0,0],"right_children":[2,-1,-1],"split_conditions":[8.1799135E0,2.0677393E-5,-1.00517274E-4],"split_indices":[1,0,0],"split_type":[0,0,0],"sum_hessian":[6E0,5E0,1E0],"tree_param":{"num_deleted":"0","num_feature":"6","num_nodes":"3","size_leaf_vector":"1"}},{"base_weights":[-3.3976816E-4,-1.2165705E-4,-9.748671E-7],"categories":[],"categories_nodes":[],"categories_segments":[],"categories_sizes":[],"default_left":[0,0,0],"id":115,"left_children":[1,-1,-1],"loss_changes":[1.5855603E-6,0E0,0E0],"parents":[2147483647,0,0],"right_children":[2,-1,-1],"split_conditions":[7.9054165E0,-1.2165705E-4,-9.748671E-7],"split_indices":[2,0,0],"split_type":[0,0,0],"sum_hessian":[5E0,1E0,4E0],"tree_param":{"num_deleted":"0","num_feature":"6","num_nodes":"3","size_leaf_vector":"1"}},{"base_weights":[-3.1696667E-4,-1.1355082E-4,-8.9009603E-7],"categories":[],"categories_nodes":[],"categories_segments":[],"categories_sizes":[],"default_left":[0,0,0],"id":116,"left_children":[1,-1,-1],"loss_changes":[1.3818517E-6,0E0,0E0],"parents":[2147483647,0,0],"right_children":[2,-1,-1],"split_conditions":[7.9054165E0,-1.1355082E-4,-8.9009603E-7],"split_indices":[2,0,0],"split_type":[0,0,0],"sum_hessian":[5E0,1E0,4E0],"tree_param":{"num_deleted":"0","num_feature":"6","num_nodes":"3","size_leaf_vector":"1"}},{"base_weights":[-2.6208704E-4,1.713889E-5,-8.16536E-5],"categories":[],"categories_nodes":[],"categories_segments":[],"categories_sizes":[],"default_left":[0,0,0],"id":117,"left_children":[1,-1,-1],"loss_changes":[1.3918439E-6,0E0,0E0],"parents":[2147483647,0,0],"right_children":[2,-1,-1],"split_conditions":[8.06114E0,1.713889E-5,-8.16536E-5],"split_indices":[2,0,0],"split_type":[0,0,0],"sum_hessian":[5E0,3E0,2E0],"tree_param":{"num_deleted":"0","num_feature":"6","num_nodes":"3","size_leaf_vector":"1"}},{"base_weights":[-2.4179979E-4,1.5667507E-5,-7.513046E-5],"categories":[],"categories_nodes":[],"categories_segments":[],"categories_sizes":[],"default_left":[0,0,0],"id":118,"left_children":[1,-1,-1],"loss_changes":[1.1754921E-6,0E0,0E0],"parents":[2147483647,0,0],"right_children":[2,-1,-1],"split_conditions":[1E1,1.5667507E-5,-7.513046E-5],"split_indices":[4,0,0],"split_type":[0,0,0],"sum_hessian":[5E0,3E0,2E0],"tree_param":{"num_deleted":"0","num_feature":"6","num_nodes":"3","size_leaf_vector":"1"}},{"base_weights":[-1.7422896E-4,-4.30714E-5,8.242925E-5],"categories":[],"categories_nodes":[],"categories_segments":[],"categories_sizes":[],"default_left":[0,0,0],"id":119,"left_children":[1,-1,-1],"loss_changes":[1.842205E-6,0E0,0E0],"parents":[2147483647,0,0],"right_children":[2,-1,-1],"split_conditions":[8.088253E0,-4.30714E-5,8.242925E-5],"split_indices":[2,0,0],"split_type":[0,0,0],"sum_hessian":[6E0,5E0,1E0],"tree_param":{"num_deleted":"0","num_feature":"6","num_nodes":"3","size_leaf_vector":"1"}},{"base_weights":[-2.0828246E-4],"categories":[],"categories_nodes":[],"categories_segments":[],"categories_sizes":[],"default_left":[0],"id":120,"left_children":[-1],"loss_changes":[0E0],"parents":[2147483647],"right_children":[-1],"split_conditions":[-2.0828247E-5],"split_indices":[0],"split_type":[0],"sum_hessian":[7E0],"tree_param":{"num_deleted":"0","num_feature":"6","num_nodes":"1","size_leaf_vector":"1"}},{"base_weights":[-3.550603E-5,-1.0391871E-4,2.41453E-5],"categories":[],"categories_nodes":[],"categories_segments":[],"categories_sizes":[],"default_left":[0,0,0],"id":121,"left_children":[1,-1,-1],"loss_changes":[1.932318E-6,0E0,0E0],"parents":[2147483647,0,0],"right_children":[2,-1,-1],"split_conditions":[7.9054165E0,-1.0391871E-4,2.41453E-5],"split_indices":[2,0,0],"split_type":[0,0,0],"sum_hessian":[6E0,1E0,5E0],"tree_param":{"num_deleted":"0","num_feature":"6","num_nodes":"3","size_leaf_vector":"1"}},{"base_weights":[-2.2007869E-7,5.8879854E-5,-3.274282E-5],"categories":[],"categories_nodes":[],"categories_segments":[],"categories_sizes":[],"default_left":[0,0,0],"id":122,"left_children":[1,-1,-1],"loss_changes":[1.3491504E-6,0E0,0E0],"parents":[2147483647,0,0],"right_children":[2,-1,-1],"split_conditions":[7.9054165E0,5.8879854E-5,-3.274282E-5],"split_indices":[0,0,0],"split_type":[0,0,0],"sum_hessian":[6E0,2E0,4E0],"tree_param":{"num_deleted":"0","num_feature":"6","num_nodes":"3","size_leaf_vector":"1"}},{"base_weights":[-2.7143038E-4,-5.1931904E-5,7.279714E-5],"categories":[],"categories_nodes":[],"categories_segments":[],"categories_sizes":[],"default_left":[0,0,0],"id":123,"left_children":[1,-1,-1],"loss_changes":[1.7993368E-6,0E0,0E0],"parents":[2147483647,0,0],"right_children":[2,-1,-1],"split_conditions":[8.1799135E0,-5.1931904E-5,7.279714E-5],"split_indices":[2,0,0],"split_type":[0,0,0],"sum_hessian":[6E0,5E0,1E0],"tree_param":{"num_deleted":"0","num_feature":"6","num_nodes":"3","size_leaf_vector":"1"}},{"base_weights":[-3.5117223E-4],"categories":[],"categories_nodes":[],"categories_segments":[],"categories_sizes":[],"default_left":[0],"id":124,"left_children":[-1],"loss_changes":[0E0],"parents":[2147483647],"right_children":[-1],"split_conditions":[-3.5117224E-5],"split_indices":[0],"split_type":[0],"sum_hessian":[6E0],"tree_param":{"num_deleted":"0","num_feature":"6","num_nodes":"1","size_leaf_vector":"1"}},{"base_weights":[1.12109716E-4,4.5517514E-5,-7.2574614E-5],"categories":[],"categories_nodes":[],"categories_segments":[],"categories_sizes":[],"default_left":[0,0,0],"id":125,"left_children":[1,-1,-1],"loss_changes":[1.458648E-6,0E0,0E0],"parents":[2147483647,0,0],"right_children":[2,-1,-1],"split_conditions":[8.1799135E0,4.5517514E-5,-7.2574614E-5],"split_indices":[1,0,0],"split_type":[0,0,0],"sum_hessian":[4E0,3E0,1E0],"tree_param":{"num_deleted":"0","num_feature":"6","num_nodes":"3","size_leaf_vector":"1"}},{"base_weights":[-2.1995198E-4],"categories":[],"categories_nodes":[],"categories_segments":[],"categories_sizes":[],"default_left":[0],"id":126,"left_children":[-1],"loss_changes":[0E0],"parents":[2147483647],"right_children":[-1],"split_conditions":[-2.1995198E-5],"split_indices":[0],"split_type":[0],"sum_hessian":[5E0],"tree_param":{"num_deleted":"0","num_feature":"6","num_nodes":"1","size_leaf_vector":"1"}},{"base_weights":[-1.4177959E-4,-9.6639E-5,5.942125E-6],"categories":[],"categories_nodes":[],"categories_segments":[],"categories_sizes":[],"default_left":[0,0,0],"id":127,"left_children":[1,-1,-1],"loss_changes":[1.2730542E-6,0E0,0E0],"parents":[2147483647,0,0],"right_children":[2,-1,-1],"split_conditions":[2E0,-9.6639E-5,5.942125E-6],"split_indices":[4,0,0],"split_type":[0,0,0],"sum_hessian":[7E0,1E0,6E0],"tree_param":{"num_deleted":"0","num_feature":"6","num_nodes":"3","size_leaf_vector":"1"}},{"base_weights":[-1.3345083E-4,-9.018581E-5,5.413936E-6],"categories":[],"categories_nodes":[],"categories_segments":[],"categories_sizes":[],"default_left":[0,0,0],"id":128,"left_children":[1,-1,-1],"loss_changes":[1.1055054E-6,0E0,0E0],"parents":[2147483647,0,0],"right_children":[2,-1,-1],"split_conditions":[2E0,-9.018581E-5,5.413936E-6],"split_indices":[4,0,0],"split_type":[0,0,0],"sum_hessian":[7E0,1E0,6E0],"tree_param":{"num_deleted":"0","num_feature":"6","num_nodes":"3","size_leaf_vector":"1"}},{"base_weights":[-1.7417561E-4],"categories":[],"categories_nodes":[],"categories_segments":[],"categories_sizes":[],"default_left":[0],"id":129,"left_children":[-1],"loss_changes":[0E0],"parents":[2147483647],"right_children":[-1],"split_conditions":[-1.7417562E-5],"split_indices":[0],"split_type":[0],"sum_hessian":[5E0],"tree_param":{"num_deleted":"0","num_feature":"6","num_nodes":"1","size_leaf_vector":"1"}},{"base_weights":[-1.0941823E-4],"categories":[],"categories_nodes":[],"categories_segments":[],"categories_sizes":[],"default_left":[0],"id":130,"left_children":[-1],"loss_changes":[0E0],"parents":[2147483647],"right_children":[-1],"split_conditions":[-1.0941823E-5],"split_indices":[0],"split_type":[0],"sum_hessian":[7E0],"tree_param":{"num_deleted":"0","num_feature":"6","num_nodes":"1","size_leaf_vector":"1"}},{"base_weights":[-9.930928E-5,-2.7590531E-5,6.990433E-5],"categories":[],"categories_nodes":[],"categories_segments":[],"categories_sizes":[],"default_left":[0,0,0],"id":131,"left_children":[1,-1,-1],"loss_changes":[1.1538291E-6,0E0,0E0],"parents":[2147483647,0,0],"right_children":[2,-1,-1],"split_conditions":[8.1799135E0,-2.7590531E-5,6.990433E-5],"split_indices":[2,0,0],"split_type":[0,0,0],"sum_hessian":[7E0,6E0,1E0],"tree_param":{"num_deleted":"0","num_feature":"6","num_nodes":"3","size_leaf_vector":"1"}},{"base_weights":[2.7387793E-4],"categories":[],"categories_nodes":[],"categories_segments":[],"categories_sizes":[],"default_left":[0],"id":132,"left_children":[-1],"loss_changes":[0E0],"parents":[2147483647],"right_children":[-1],"split_conditions":[2.7387794E-5],"split_indices":[0],"split_type":[0],"sum_hessian":[5E0],"tree_param":{"num_deleted":"0","num_feature":"6","num_nodes":"1","size_leaf_vector":"1"}},{"base_weights":[1.5336816E-4,5.3378517E-5,-4.098892E-5],"categories":[],"categories_nodes":[],"categories_segments":[],"categories_sizes":[],"default_left":[0,0,0],"id":133,"left_children":[1,-1,-1],"loss_changes":[1.2878961E-6,0E0,0E0],"parents":[2147483647,0,0],"right_children":[2,-1,-1],"split_conditions":[8.088253E0,5.3378517E-5,-4.098892E-5],"split_indices":[0,0,0],"split_type":[0,0,0],"sum_hessian":[5E0,3E0,2E0],"tree_param":{"num_deleted":"0","num_feature":"6","num_nodes":"3","size_leaf_vector":"1"}},{"base_weights":[4.02744E-5],"categories":[],"categories_nodes":[],"categories_segments":[],"categories_sizes":[],"default_left":[0],"id":134,"left_children":[-1],"loss_changes":[0E0],"parents":[2147483647],"right_children":[-1],"split_conditions":[4.0274404E-6],"split_indices":[0],"split_type":[0],"sum_hessian":[6E0],"tree_param":{"num_deleted":"0","num_feature":"6","num_nodes":"1","size_leaf_vector":"1"}},{"base_weights":[7.169897E-5,-8.605321E-5,3.744761E-5],"categories":[],"categories_nodes":[],"categories_segments":[],"categories_sizes":[],"default_left":[0,0,0],"id":135,"left_children":[1,-1,-1],"loss_changes":[1.7135449E-6,0E0,0E0],"parents":[2147483647,0,0],"right_children":[2,-1,-1],"split_conditions":[7.9054165E0,-8.605321E-5,3.744761E-5],"split_indices":[2,0,0],"split_type":[0,0,0],"sum_hessian":[5E0,1E0,4E0],"tree_param":{"num_deleted":"0","num_feature":"6","num_nodes":"3","size_leaf_vector":"1"}},{"base_weights":[-1.5319478E-4],"categories":[],"categories_nodes":[],"categories_segments":[],"categories_sizes":[],"default_left":[0],"id":136,"left_children":[-1],"loss_changes":[0E0],"parents":[2147483647],"right_children":[-1],"split_conditions":[-1.5319478E-5],"split_indices":[0],"split_type":[0],"sum_hessian":[5E0],"tree_param":{"num_deleted":"0","num_feature":"6","num_nodes":"1","size_leaf_vector":"1"}},{"base_weights":[-1.8926767E-5,-7.931392E-5,1.9394267E-5],"categories":[],"categories_nodes":[],"categories_segments":[],"categories_sizes":[],"default_left":[0,0,0],"id":137,"left_children":[1,-1,-1],"loss_changes":[1.1481518E-6,0E0,0E0],"parents":[2147483647,0,0],"right_children":[2,-1,-1],"split_conditions":[7.9054165E0,-7.931392E-5,1.9394267E-5],"split_indices":[2,0,0],"split_type":[0,0,0],"sum_hessian":[6E0,1E0,5E0],"tree_param":{"num_deleted":"0","num_feature":"6","num_nodes":"3","size_leaf_vector":"1"}},{"base_weights":[6.506178E-5,3.638949E-5,-6.5390275E-5],"categories":[],"categories_nodes":[],"categories_segments":[],"categories_sizes":[],"default_left":[0,0,0],"id":138,"left_children":[1,-1,-1],"loss_changes":[1.0858026E-6,0E0,0E0],"parents":[2147483647,0,0],"right_children":[2,-1,-1],"split_conditions":[8.1799135E0,3.638949E-5,-6.5390275E-5],"split_indices":[1,0,0],"split_type":[0,0,0],"sum_hessian":[4E0,3E0,1E0],"tree_param":{"num_deleted":"0","num_feature":"6","num_nodes":"3","size_leaf_vector":"1"}},{"base_weights":[-1.0585785E-4],"categories":[],"categories_nodes":[],"categories_segments":[],"categories_sizes":[],"default_left":[0],"id":139,"left_children":[-1],"loss_changes":[0E0],"parents":[2147483647],"right_children":[-1],"split_conditions":[-1.0585785E-5],"split_indices":[0],"split_type":[0],"sum_hessian":[6E0],"tree_param":{"num_deleted":"0","num_feature":"6","num_nodes":"1","size_leaf_vector":"1"}},{"base_weights":[3.1471252E-4],"categories":[],"categories_nodes":[],"categories_segments":[],"categories_sizes":[],"default_left":[0],"id":140,"left_children":[-1],"loss_changes":[0E0],"parents":[2147483647],"right_children":[-1],"split_conditions":[3.1471252E-5],"split_indices":[0],"split_type":[0],"sum_hessian":[4E0],"tree_param":{"num_deleted":"0","num_feature":"6","num_nodes":"1","size_leaf_vector":"1"}},{"base_weights":[-3.8880567E-5],"categories":[],"categories_nodes":[],"categories_segments":[],"categories_sizes":[],"default_left":[0],"id":141,"left_children":[-1],"loss_changes":[0E0],"parents":[2147483647],"right_children":[-1],"split_conditions":[-3.8880567E-6],"split_indices":[0],"split_type":[0],"sum_hessian":[6E0],"tree_param":{"num_deleted":"0","num_feature":"6","num_nodes":"1","size_leaf_vector":"1"}},{"base_weights":[1.2779236E-4],"categories":[],"categories_nodes":[],"categories_segments":[],"categories_sizes":[],"default_left":[0],"id":142,"left_children":[-1],"loss_changes":[0E0],"parents":[2147483647],"right_children":[-1],"split_conditions":[1.2779236E-5],"split_indices":[0],"split_type":[0],"sum_hessian":[5E0],"tree_param":{"num_deleted":"0","num_feature":"6","num_nodes":"1","size_leaf_vector":"1"}},{"base_weights":[-4.451058E-4],"categories":[],"categories_nodes":[],"categories_segments":[],"categories_sizes":[],"default_left":[0],"id":143,"left_children":[-1],"loss_changes":[0E0],"parents":[2147483647],"right_children":[-1],"split_conditions":[-4.451058E-5],"split_indices":[0],"split_type":[0],"sum_hessian":[5E0],"tree_param":{"num_deleted":"0","num_feature":"6","num_nodes":"1","size_leaf_vector":"1"}},{"base_weights":[-1.5621186E-4],"categories":[],"categories_nodes":[],"categories_segments":[],"categories_sizes":[],"default_left":[0],"id":144,"left_children":[-1],"loss_changes":[0E0],"parents":[2147483647],"right_children":[-1],"split_conditions":[-1.5621186E-5],"split_indices":[0],"split_type":[0],"sum_hessian":[7E0],"tree_param":{"num_deleted":"0","num_feature":"6","num_nodes":"1","size_leaf_vector":"1"}},{"base_weights":[-7.5687065E-5,-6.689072E-5,3.58854E-5],"categories":[],"categories_nodes":[],"categories_segments":[],"categories_sizes":[],"default_left":[0,0,0],"id":145,"left_children":[1,-1,-1],"loss_changes":[1.5378017E-6,0E0,0E0],"parents":[2147483647,0,0],"right_children":[2,-1,-1],"split_conditions":[8.01502E0,-6.689072E-5,3.58854E-5],"split_indices":[3,0,0],"split_type":[0,0,0],"sum_hessian":[5E0,2E0,3E0],"tree_param":{"num_deleted":"0","num_feature":"6","num_nodes":"3","size_leaf_vector":"1"}},{"base_weights":[6.7490796E-6],"categories":[],"categories_nodes":[],"categories_segments":[],"categories_sizes":[],"default_left":[0],"id":146,"left_children":[-1],"loss_changes":[0E0],"parents":[2147483647],"right_children":[-1],"split_conditions":[6.74908E-7],"split_indices":[0],"split_type":[0],"sum_hessian":[6E0],"tree_param":{"num_deleted":"0","num_feature":"6","num_nodes":"1","size_leaf_vector":"1"}},{"base_weights":[-2.024724E-4],"categories":[],"categories_nodes":[],"categories_segments":[],"categories_sizes":[],"default_left":[0],"id":147,"left_children":[-1],"loss_changes":[0E0],"parents":[2147483647],"right_children":[-1],"split_conditions":[-2.024724E-5],"split_indices":[0],"split_type":[0],"sum_hessian":[6E0],"tree_param":{"num_deleted":"0","num_feature":"6","num_nodes":"1","size_leaf_vector":"1"}},{"base_weights":[-1.2172352E-4],"categories":[],"categories_nodes":[],"categories_segments":[],"categories_sizes":[],"default_left":[0],"id":148,"left_children":[-1],"loss_changes":[0E0],"parents":[2147483647],"right_children":[-1],"split_conditions":[-1.2172352E-5],"split_indices":[0],"split_type":[0],"sum_hessian":[5E0],"tree_param":{"num_deleted":"0","num_feature":"6","num_nodes":"1","size_leaf_vector":"1"}},{"base_weights":[3.6092904E-5],"categories":[],"categories_nodes":[],"categories_segments":[],"categories_sizes":[],"default_left":[0],"id":149,"left_children":[-1],"loss_changes":[0E0],"parents":[2147483647],"right_children":[-1],"split_conditions":[3.6092904E-6],"split_indices":[0],"split_type":[0],"sum_hessian":[6E0],"tree_param":{"num_deleted":"0","num_feature":"6","num_nodes":"1","size_leaf_vector":"1"}},{"base_weights":[1.27645635E-5],"categories":[],"categories_nodes":[],"categories_segments":[],"categories_sizes":[],"default_left":[0],"id":150,"left_children":[-1],"loss_changes":[0E0],"parents":[2147483647],"right_children":[-1],"split_conditions":[1.2764564E-6],"split_indices":[0],"split_type":[0],"sum_hessian":[6E0],"tree_param":{"num_deleted":"0","num_feature":"6","num_nodes":"1","size_leaf_vector":"1"}},{"base_weights":[-1.092275E-4],"categories":[],"categories_nodes":[],"categories_segments":[],"categories_sizes":[],"default_left":[0],"id":151,"left_children":[-1],"loss_changes":[0E0],"parents":[2147483647],"right_children":[-1],"split_conditions":[-1.092275E-5],"split_indices":[0],"split_type":[0],"sum_hessian":[7E0],"tree_param":{"num_deleted":"0","num_feature":"6","num_nodes":"1","size_leaf_vector":"1"}},{"base_weights":[-3.5181912E-4],"categories":[],"categories_nodes":[],"categories_segments":[],"categories_sizes":[],"default_left":[0],"id":152,"left_children":[-1],"loss_changes":[0E0],"parents":[2147483647],"right_children":[-1],"split_conditions":[-3.5181914E-5],"split_indices":[0],"split_type":[0],"sum_hessian":[5E0],"tree_param":{"num_deleted":"0","num_feature":"6","num_nodes":"1","size_leaf_vector":"1"}},{"base_weights":[-1.2397766E-5],"categories":[],"categories_nodes":[],"categories_segments":[],"categories_sizes":[],"default_left":[0],"id":153,"left_children":[-1],"loss_changes":[0E0],"parents":[2147483647],"right_children":[-1],"split_conditions":[-1.2397767E-6],"split_indices":[0],"split_type":[0],"sum_hessian":[6E0],"tree_param":{"num_deleted":"0","num_feature":"6","num_nodes":"1","size_leaf_vector":"1"}},{"base_weights":[2.4275346E-4],"categories":[],"categories_nodes":[],"categories_segments":[],"categories_sizes":[],"default_left":[0],"id":154,"left_children":[-1],"loss_changes":[0E0],"parents":[2147483647],"right_children":[-1],"split_conditions":[2.4275347E-5],"split_indices":[0],"split_type":[0],"sum_hessian":[5E0],"tree_param":{"num_deleted":"0","num_feature":"6","num_nodes":"1","size_leaf_vector":"1"}},{"base_weights":[-3.352532E-5],"categories":[],"categories_nodes":[],"categories_segments":[],"categories_sizes":[],"default_left":[0],"id":155,"left_children":[-1],"loss_changes":[0E0],"parents":[2147483647],"right_children":[-1],"split_conditions":[-3.352532E-6],"split_indices":[0],"split_type":[0],"sum_hessian":[6E0],"tree_param":{"num_deleted":"0","num_feature":"6","num_nodes":"1","size_leaf_vector":"1"}},{"base_weights":[-1.5258789E-4],"categories":[],"categories_nodes":[],"categories_segments":[],"categories_sizes":[],"default_left":[0],"id":156,"left_children":[-1],"loss_changes":[0E0],"parents":[2147483647],"right_children":[-1],"split_conditions":[-1.5258789E-5],"split_indices":[0],"split_type":[0],"sum_hessian":[6E0],"tree_param":{"num_deleted":"0","num_feature":"6","num_nodes":"1","size_leaf_vector":"1"}},{"base_weights":[7.013174E-5],"categories":[],"categories_nodes":[],"categories_segments":[],"categories_sizes":[],"default_left":[0],"id":157,"left_children":[-1],"loss_changes":[0E0],"parents":[2147483647],"right_children":[-1],"split_conditions":[7.013174E-6],"split_indices":[0],"split_type":[0],"sum_hessian":[6E0],"tree_param":{"num_deleted":"0","num_feature":"6","num_nodes":"1","size_leaf_vector":"1"}},{"base_weights":[8.932749E-5],"categories":[],"categories_nodes":[],"categories_segments":[],"categories_sizes":[],"default_left":[0],"id":158,"left_children":[-1],"loss_changes":[0E0],"parents":[2147483647],"right_children":[-1],"split_conditions":[8.93275E-6],"split_indices":[0],"split_type":[0],"sum_hessian":[4E0],"tree_param":{"num_deleted":"0","num_feature":"6",