{"learner":{"attributes":{"scikit_learn":"{\"_estimator_type\": \"regressor\"}"},"feature_names":[],"feature_types":[],"gradient_booster":{"model":{"cats":{"enc":[],"feature_segments":[],"sorted_idx":[]},"gbtree_model_param":{"num_parallel_tree":"1","num_trees":"300"},"iteration_indptr":[0,1,2,3,4,5,6,7,8,9,10,11,12,13,14,15,16,17,18,19,20,21,22,23,24,25,26,27,28,29,30,31,32,33,34,35,36,37,38,39,40,41,42,43,44,45,46,47,48,49,50,51,52,53,54,55,56,57,58,59,60,61,62,63,64,65,66,67,68,69,70,71,72,73,74,75,76,77,78,79,80,81,82,83,84,85,86,87,88,89,90,91,92,93,94,95,96,97,98,99,100,101,102,103,104,105,106,107,108,109,110,111,112,113,114,115,116,117,118,119,120,121,122,123,124,125,126,127,128,129,130,131,132,133,134,135,136,137,138,139,140,141,142,143,144,145,146,147,148,149,150,151,152,153,154,155,156,157,158,159,160,161,162,163,164,165,166,167,168,169,170,171,172,173,174,175,176,177,178,179,180,181,182,183,184,185,186,187,188,189,190,191,192,193,194,195,196,197,198,199,200,201,202,203,204,205,206,207,208,209,210,211,212,213,214,215,216,217,218,219,220,221,222,223,224,225,226,227,228,229,230,231,232,233,234,235,236,237,238,239,240,241,242,243,244,245,246,247,248,249,250,251,252,253,254,255,256,257,258,259,260,261,262,263,264,265,266,267,268,269,270,271,272,273,274,275,276,277,278,279,280,281,282,283,284,285,286,287,288,289,290,291,292,293,294,295,296,297,298,299,300],"tree_info":[0,0,0,0,0,0,0,0,0,0,0,0,0,0,0,0,0,0,0,0,0,0,0,0,0,0,0,0,0,0,0,0,0,0,0,0,0,0,0,0,0,0,0,0,0,0,0,0,0,0,0,0,0,0,0,0,0,0,0,0,0,0,0,0,0,0,0,0,0,0,0,0,0,0,0,0,0,0,0,0,0,0,0,0,0,0,0,0,0,0,0,0,0,0,0,0,0,0,0,0,0,0,0,0,0,0,0,0,0,0,0,0,0,0,0,0,0,0,0,0,0,0,0,0,0,0,0,0,0,0,0,0,0,0,0,0,0,0,0,0,0,0,0,0,0,0,0,0,0,0,0,0,0,0,0,0,0,0,0,0,0,0,0,0,0,0,0,0,0,0,0,0,0,0,0,0,0,0,0,0,0,0,0,0,0,0,0,0,0,0,0,0,0,0,0,0,0,0,0,0,0,0,0,0,0,0,0,0,0,0,0,0,0,0,0,0,0,0,0,0,0,0,0,0,0,0,0,0,0,0,0,0,0,0,0,0,0,0,0,0,0,0,0,0,0,0,0,0,0,0,0,0,0,0,0,0,0,0,0,0,0,0,0,0,0,0,0,0,0,0,0,0,0,0,0,0,0,0,0,0,0,0,0,0,0,0,0,0,0,0,0,0,0,0,0,0,0,0,0,0],"trees":[{"base_weights":[-3.3113693E-8,-5.925904E-3,2.2222102E-2,4.501319E-3,-4.5771836E-3],"categories":[],"categories_nodes":[],"categories_segments":[],"categories_sizes":[],"default_left":[0,0,0,0,0],"id":0,"left_children":[1,-1,3,-1,-1],"loss_changes":[1.4485475E-2,0E0,1.6517919E-2,0E0,0E0],"parents":[2147483647,0,0,2,2],"right_children":[2,-1,4,-1,-1],"split_conditions":[9.2596775E-1,-5.925904E-3,1.2409294E0,4.501319E-3,-4.5771836E-3],"split_indices":[1,0,0,0,0],"split_type":[0,0,0,0,0],"sum_hessian":[7E0,1E0,6E0,5E0,1E0],"tree_param":{"num_deleted":"0","num_feature":"6","num_nodes":"5","size_leaf_vector":"1"}},{"base_weights":[-1.3337731E-3,-5.7283742E-3,1.9980907E-2,4.1797943E-3,-4.424612E-3],"categories":[],"categories_nodes":[],"categories_segments":[],"categories_sizes":[],"default_left":[0,0,0,0,0],"id":1,"left_children":[1,-1,3,-1,-1],"loss_changes":[1.3022163E-2,0E0,1.4908741E-2,0E0,0E0],"parents":[2147483647,0,0,2,2],"right_children":[2,-1,4,-1,-1],"split_conditions":[9.2596775E-1,-5.7283742E-3,1.2409294E0,4.1797943E-3,-4.424612E-3],"split_indices":[1,0,0,0,0],"split_type":[0,0,0,0,0],"sum_hessian":[7E0,1E0,6E0,5E0,1E0],"tree_param":{"num_deleted":"0","num_feature":"6","num_nodes":"5","size_leaf_vector":"1"}},{"base_weights":[-2.5278E-3,-5.5374284E-3,1.7921582E-2,3.8812347E-3,-4.2771264E-3],"categories":[],"categories_nodes":[],"categories_segments":[],"categories_sizes":[],"default_left":[0,0,0,0,0],"id":2,"left_children":[1,-1,3,-1,-1],"loss_changes":[1.17108915E-2,0E0,1.34634655E-2,0E0,0E0],"parents":[2147483647,0,0,2,2],"right_children":[2,-1,4,-1,-1],"split_conditions":[9.2596775E-1,-5.5374284E-3,1.2409294E0,3.8812347E-3,-4.2771264E-3],"split_indices":[1,0,0,0,0],"split_type":[0,0,0,0,0],"sum_hessian":[7E0,1E0,6E0,5E0,1E0],"tree_param":{"num_deleted":"0","num_feature":"6","num_nodes":"5","size_leaf_vector":"1"}},{"base_weights":[-3.593531E-3,-2.6683476E-2,3.8610639E-3,1.956756E-3,-7.1155536E-3],"categories":[],"categories_nodes":[],"categories_segments":[],"categories_sizes":[],"default_left":[0,0,0,0,0],"id":3,"left_children":[1,3,-1,-1,-1],"loss_changes":[1.0830958E-2,1.7182833E-2,0E0,0E0,0E0],"parents":[2147483647,0,0,1,1],"right_children":[2,4,-1,-1,-1],"split_conditions":[1.1436988E0,1.1236389E0,3.8610639E-3,1.956756E-3,-7.1155536E-3],"split_indices":[2,2,0,0,0],"split_type":[0,0,0,0,0],"sum_hessian":[7E0,5E0,2E0,3E0,2E0],"tree_param":{"num_deleted":"0","num_feature":"6","num_nodes":"5","size_leaf_vector":"1"}},{"base_weights":[-3.522535E-3,-2.5489032E-2,3.6680102E-3,1.839354E-3,-6.7597735E-3],"categories":[],"categories_nodes":[],"categories_segments":[],"categories_sizes":[],"default_left":[0,0,0,0,0],"id":4,"left_children":[1,3,-1,-1,-1],"loss_changes":[9.817881E-3,1.5421589E-2,0E0,0E0,0E0],"parents":[2147483647,0,0,1,1],"right_children":[2,4,-1,-1,-1],"split_conditions":[1.1436988E0,1.1236389E0,3.6680102E-3,1.839354E-3,-6.7597735E-3],"split_indices":[2,2,0,0,0],"split_type":[0,0,0,0,0],"sum_hessian":[7E0,5E0,2E0,3E0,2E0],"tree_param":{"num_deleted":"0","num_feature":"6","num_nodes":"5","size_leaf_vector":"1"}},{"base_weights":[-3.448599E-3,-2.4345985E-2,3.4846128E-3,1.7289901E-3,-6.4217853E-3],"categories":[],"categories_nodes":[],"categories_segments":[],"categories_sizes":[],"default_left":[0,0,0,0,0],"id":5,"left_children":[1,3,-1,-1,-1],"loss_changes":[8.899064E-3,1.3841344E-2,0E0,0E0,0E0],"parents":[2147483647,0,0,1,1],"right_children":[2,4,-1,-1,-1],"split_conditions":[1.1436988E0,1.1236389E0,3.4846128E-3,1.7289901E-3,-6.4217853E-3],"split_indices":[2,2,0,0,0],"split_type":[0,0,0,0,0],"sum_hessian":[7E0,5E0,2E0,3E0,2E0],"tree_param":{"num_deleted":"0","num_feature":"6","num_nodes":"5","size_leaf_vector":"1"}},{"base_weights":[-3.3722254E-3,-2.325219E-2,3.3103824E-2,1.6252494E-3,-6.100695E-3,6.268939E-4,3.7869494E-3],"categories":[],"categories_nodes":[],"categories_segments":[],"categories_sizes":[],"default_left":[0,0,0,0,0,0,0],"id":6,"left_children":[1,3,5,-1,-1,-1,-1],"loss_changes":[8.065756E-3,1.24234585E-2,3.6741607E-5,0E0,0E0,0E0,0E0],"parents":[2147483647,0,0,1,1,2,2],"right_children":[2,4,6,-1,-1,-1,-1],"split_conditions":[1.1436988E0,1.1236389E0,1.1436988E0,1.6252494E-3,-6.100695E-3,6.268939E-4,3.7869494E-3],"split_indices":[2,2,0,0,0,0,0],"split_type":[0,0,0,0,0,0,0],"sum_hessian":[7E0,5E0,2E0,3E0,2E0,1E0,1E0],"tree_param":{"num_deleted":"0","num_feature":"6","num_nodes":"7","size_leaf_vector":"1"}},{"base_weights":[-3.048718E-3,-2.2205701E-2,3.2000363E-2,1.5277314E-3,-5.7956623E-3,6.0599647E-4,3.6607187E-3],"categories":[],"categories_nodes":[],"categories_segments":[],"categories_sizes":[],"default_left":[0,0,0,0,0,0,0],"id":7,"left_children":[1,3,5,-1,-1,-1,-1],"loss_changes":[7.464093E-3,1.11512095E-2,3.4334604E-5,0E0,0E0,0E0,0E0],"parents":[2147483647,0,0,1,1,2,2],"right_children":[2,4,6,-1,-1,-1,-1],"split_conditions":[1.1436988E0,1.1236389E0,1.1436988E0,1.5277314E-3,-5.7956623E-3,6.0599647E-4,3.6607187E-3],"split_indices":[2,2,0,0,0,0,0],"split_type":[0,0,0,0,0,0,0],"sum_hessian":[7E0,5E0,2E0,3E0,2E0,1E0,1E0],"tree_param":{"num_deleted":"0","num_feature":"6","num_nodes":"7","size_leaf_vector":"1"}},{"base_weights":[-2.7441117E-3,-2.1204548E-2,3.0933708E-2,1.4360643E-3,-5.505876E-3,5.857984E-4,3.538696E-3],"categories":[],"categories_nodes":[],"categories_segments":[],"categories_sizes":[],"default_left":[0,0,0,0,0,0,0],"id":8,"left_children":[1,3,5,-1,-1,-1,-1],"loss_changes":[6.907236E-3,1.0009579E-2,3.208127E-5,0E0,0E0,0E0,0E0],"parents":[2147483647,0,0,1,1,2,2],"right_children":[2,4,6,-1,-1,-1,-1],"split_conditions":[1.1436988E0,1.1236389E0,1.1436988E0,1.4360643E-3,-5.505876E-3,5.857984E-4,3.538696E-3],"split_indices":[2,2,0,0,0,0,0],"split_type":[0,0,0,0,0,0,0],"sum_hessian":[7E0,5E0,2E0,3E0,2E0,1E0,1E0],"tree_param":{"num_deleted":"0","num_feature":"6","num_nodes":"7","size_leaf_vector":"1"}},{"base_weights":[-2.457559E-3,-2.0246906E-2,2.9902577E-2,1.3498975E-3,-5.2305805E-3,5.6627195E-4,3.4207385E-3],"categories":[],"categories_nodes":[],"categories_segments":[],"categories_sizes":[],"default_left":[0,0,0,0,0,0,0],"id":9,"left_children":[1,3,5,-1,-1,-1,-1],"loss_changes":[6.391861E-3,8.9851385E-3,2.9977877E-5,0E0,0E0,0E0,0E0],"parents":[2147483647,0,0,1,1,2,2],"right_children":[2,4,6,-1,-1,-1,-1],"split_conditions":[1.1436988E0,1.1236389E0,1.1436988E0,1.3498975E-3,-5.2305805E-3,5.6627195E-4,3.4207385E-3],"split_indices":[2,2,0,0,0,0,0],"split_type":[0,0,0,0,0,0,0],"sum_hessian":[7E0,5E0,2E0,3E0,2E0,1E0,1E0],"tree_param":{"num_deleted":"0","num_feature":"6","num_nodes":"7","size_leaf_vector":"1"}},{"base_weights":[-2.188186E-3,-1.9331004E-2,2.8905839E-2,1.2689019E-3,-4.969053E-3,5.473971E-4,3.3067148E-3],"categories":[],"categories_nodes":[],"categories_segments":[],"categories_sizes":[],"default_left":[0,0,0,0,0,0,0],"id":10,"left_children":[1,3,5,-1,-1,-1,-1],"loss_changes":[5.9149107E-3,8.0658365E-3,2.8011855E-5,0E0,0E0,0E0,0E0],"parents":[2147483647,0,0,1,1,2,2],"right_children":[2,4,6,-1,-1,-1,-1],"split_conditions":[1.1436988E0,1.1236389E0,1.1436988E0,1.2689019E-3,-4.969053E-3,5.473971E-4,3.3067148E-3],"split_indices":[2,2,0,0,0,0,0],"split_type":[0,0,0,0,0,0,0],"sum_hessian":[7E0,5E0,2E0,3E0,2E0,1E0,1E0],"tree_param":{"num_deleted":"0","num_feature":"6","num_nodes":"7","size_leaf_vector":"1"}},{"base_weights":[-1.9351575E-3,-1.8455088E-2,2.79423E-2,1.19277E-3,-4.720603E-3,5.291502E-4,3.1964898E-3],"categories":[],"categories_nodes":[],"categories_segments":[],"categories_sizes":[],"default_left":[0,0,0,0,0,0,0],"id":11,"left_children":[1,3,5,-1,-1,-1,-1],"loss_changes":[5.473517E-3,7.240855E-3,2.617552E-5,0E0,0E0,0E0,0E0],"parents":[2147483647,0,0,1,1,2,2],"right_children":[2,4,6,-1,-1,-1,-1],"split_conditions":[1.1436988E0,1.1236389E0,1.1436988E0,1.19277E-3,-4.720603E-3,5.291502E-4,3.1964898E-3],"split_indices":[2,2,0,0,0,0,0],"split_type":[0,0,0,0,0,0,0],"sum_hessian":[7E0,5E0,2E0,3E0,2E0,1E0,1E0],"tree_param":{"num_deleted":"0","num_feature":"6","num_nodes":"7","size_leaf_vector":"1"}},{"base_weights":[-1.6977058E-3,-1.7617557E-2,2.7010888E-2,1.1212016E-3,-4.484575E-3,5.1151117E-4,3.0899406E-3],"categories":[],"categories_nodes":[],"categories_segments":[],"categories_sizes":[],"default_left":[0,0,0,0,0,0,0],"id":12,"left_children":[1,3,5,-1,-1,-1,-1],"loss_changes":[5.0650607E-3,6.5004616E-3,2.4460722E-5,0E0,0E0,0E0,0E0],"parents":[2147483647,0,0,1,1,2,2],"right_children":[2,4,6,-1,-1,-1,-1],"split_conditions":[1.1436988E0,1.1236389E0,1.1436988E0,1.1212016E-3,-4.484575E-3,5.1151117E-4,3.0899406E-3],"split_indices":[2,2,0,0,0,0,0],"split_type":[0,0,0,0,0,0,0],"sum_hessian":[7E0,5E0,2E0,3E0,2E0,1E0,1E0],"tree_param":{"num_deleted":"0","num_feature":"6","num_nodes":"7","size_leaf_vector":"1"}},{"base_weights":[-1.4750229E-3,-1.6816761E-2,2.611053E-2,1.0539318E-3,-4.2603477E-3,4.944603E-4,2.9869438E-3],"categories":[],"categories_nodes":[],"categories_segments":[],"categories_sizes":[],"default_left":[0,0,0,0,0,0,0],"id":13,"left_children":[1,3,5,-1,-1,-1,-1],"loss_changes":[4.687082E-3,5.8359876E-3,2.2858148E-5,0E0,0E0,0E0,0E0],"parents":[2147483647,0,0,1,1,2,2],"right_children":[2,4,6,-1,-1,-1,-1],"split_conditions":[1.1436988E0,1.1236389E0,1.1436988E0,1.0539318E-3,-4.2603477E-3,4.944603E-4,2.9869438E-3],"split_indices":[2,2,0,0,0,0,0],"split_type":[0,0,0,0,0,0,0],"sum_hessian":[7E0,5E0,2E0,3E0,2E0,1E0,1E0],"tree_param":{"num_deleted":"0","num_feature":"6","num_nodes":"7","size_leaf_vector":"1"}},{"base_weights":[-1.2664199E-3,-1.6051216E-2,2.5240183E-2,9.90696E-4,-4.047333E-3,4.7797762E-4,2.88738E-3],"categories":[],"categories_nodes":[],"categories_segments":[],"categories_sizes":[],"default_left":[0,0,0,0,0,0,0],"id":14,"left_children":[1,3,5,-1,-1,-1,-1],"loss_changes":[4.3373234E-3,5.239609E-3,2.1360582E-5,0E0,0E0,0E0,0E0],"parents":[2147483647,0,0,1,1,2,2],"right_children":[2,4,6,-1,-1,-1,-1],"split_conditions":[1.1436988E0,1.1236389E0,1.1436988E0,9.90696E-4,-4.047333E-3,4.7797762E-4,2.88738E-3],"split_indices":[2,2,0,0,0,0,0],"split_type":[0,0,0,0,0,0,0],"sum_hessian":[7E0,5E0,2E0,3E0,2E0,1E0,1E0],"tree_param":{"num_deleted":"0","num_feature":"6","num_nodes":"7","size_leaf_vector":"1"}},{"base_weights":[-1.071208E-3,-1.5319458E-2,2.4398834E-2,9.3125104E-4,-3.844969E-3,4.620433E-4,2.7911344E-3],"categories":[],"categories_nodes":[],"categories_segments":[],"categories_sizes":[],"default_left":[0,0,0,0,0,0,0],"id":15,"left_children":[1,3,5,-1,-1,-1,-1],"loss_changes":[4.0136855E-3,4.7043283E-3,1.9962434E-5,0E0,0E0,0E0,0E0],"parents":[2147483647,0,0,1,1,2,2],"right_children":[2,4,6,-1,-1,-1,-1],"split_conditions":[1.1436988E0,1.1236389E0,1.1436988E0,9.3125104E-4,-3.844969E-3,4.620433E-4,2.7911344E-3],"split_indices":[2,2,0,0,0,0,0],"split_type":[0,0,0,0,0,0,0],"sum_hessian":[7E0,5E0,2E0,3E0,2E0,1E0,1E0],"tree_param":{"num_deleted":"0","num_feature":"6","num_nodes":"7","size_leaf_vector":"1"}},{"base_weights":[-8.886589E-4,-1.4620006E-2,2.3585528E-2,8.7537523E-4,-3.6527202E-3,4.4664144E-4,2.6980957E-3],"categories":[],"categories_nodes":[],"categories_segments":[],"categories_sizes":[],"default_left":[0,0,0,0,0,0,0],"id":16,"left_children":[1,3,5,-1,-1,-1,-1],"loss_changes":[3.7142131E-3,4.223875E-3,1.8654158E-5,0E0,0E0,0E0,0E0],"parents":[2147483647,0,0,1,1,2,2],"right_children":[2,4,6,-1,-1,-1,-1],"split_conditions":[1.1436988E0,1.1236389E0,1.1436988E0,8.7537523E-4,-3.6527202E-3,4.4664144E-4,2.6980957E-3],"split_indices":[2,2,0,0,0,0,0],"split_type":[0,0,0,0,0,0,0],"sum_hessian":[7E0,5E0,2E0,3E0,2E0,1E0,1E0],"tree_param":{"num_deleted":"0","num_feature":"6","num_nodes":"7","size_leaf_vector":"1"}},{"base_weights":[-7.181499E-4,-1.3951532E-2,2.2799343E-2,8.2285405E-4,-3.4700856E-3,4.317522E-4,2.6081603E-3],"categories":[],"categories_nodes":[],"categories_segments":[],"categories_sizes":[],"default_left":[0,0,0,0,0,0,0],"id":17,"left_children":[1,3,5,-1,-1,-1,-1],"loss_changes":[3.4371149E-3,3.7926254E-3,1.7432729E-5,0E0,0E0,0E0,0E0],"parents":[2147483647,0,0,1,1,2,2],"right_children":[2,4,6,-1,-1,-1,-1],"split_conditions":[1.1436988E0,1.1236389E0,1.1436988E0,8.2285405E-4,-3.4700856E-3,4.317522E-4,2.6081603E-3],"split_indices":[2,2,0,0,0,0,0],"split_type":[0,0,0,0,0,0,0],"sum_hessian":[7E0,5E0,2E0,3E0,2E0,1E0,1E0],"tree_param":{"num_deleted":"0","num_feature":"6","num_nodes":"7","size_leaf_vector":"1"}},{"base_weights":[-5.590982E-4,-1.3312757E-2,2.2039354E-2,7.7347993E-4,-3.2965825E-3,4.173597E-4,2.5212208E-3],"categories":[],"categories_nodes":[],"categories_segments":[],"categories_sizes":[],"default_left":[0,0,0,0,0,0,0],"id":18,"left_children":[1,3,5,-1,-1,-1,-1],"loss_changes":[3.1807257E-3,3.4055114E-3,1.6290578E-5,0E0,0E0,0E0,0E0],"parents":[2147483647,0,0,1,1,2,2],"right_children":[2,4,6,-1,-1,-1,-1],"split_conditions":[1.1436988E0,1.1236389E0,1.1436988E0,7.7347993E-4,-3.2965825E-3,4.173597E-4,2.5212208E-3],"split_indices":[2,2,0,0,0,0,0],"split_type":[0,0,0,0,0,0,0],"sum_hessian":[7E0,5E0,2E0,3E0,2E0,1E0,1E0],"tree_param":{"num_deleted":"0","num_feature":"6","num_nodes":"7","size_leaf_vector":"1"}},{"base_weights":[-4.1084157E-4,-1.27023375E-2,2.1304697E-2,7.2707416E-4,-3.1317517E-3,4.0344798E-4,2.4371783E-3],"categories":[],"categories_nodes":[],"categories_segments":[],"categories_sizes":[],"default_left":[0,0,0,0,0,0,0],"id":19,"left_children":[1,3,5,-1,-1,-1,-1],"loss_changes":[2.9434867E-3,3.05802E-3,1.5222235E-5,0E0,0E0,0E0,0E0],"parents":[2147483647,0,0,1,1,2,2],"right_children":[2,4,6,-1,-1,-1,-1],"split_conditions":[1.1436988E0,1.1236389E0,1.1436988E0,7.2707416E-4,-3.1317517E-3,4.0344798E-4,2.4371783E-3],"split_indices":[2,2,0,0,0,0,0],"split_type":[0,0,0,0,0,0,0],"sum_hessian":[7E0,5E0,2E0,3E0,2E0,1E0,1E0],"tree_param":{"num_deleted":"0","num_feature":"6","num_nodes":"7","size_leaf_vector":"1"}},{"base_weights":[-2.728767E-4,-2.5925895E-3,9.415224E-3,2.174014E-3,-1.3779759E-3],"categories":[],"categories_nodes":[],"categories_segments":[],"categories_sizes":[],"default_left":[0,0,0,0,0],"id":20,"left_children":[1,-1,3,-1,-1],"loss_changes":[2.7249577E-3,0E0,2.8861573E-3,0E0,0E0],"parents":[2147483647,0,0,2,2],"right_children":[2,-1,4,-1,-1],"split_conditions":[9.2596775E-1,-2.5925895E-3,1.1794219E0,2.174014E-3,-1.3779759E-3],"split_indices":[1,0,0,0,0],"split_type":[0,0,0,0,0],"sum_hessian":[7E0,1E0,6E0,4E0,2E0],"tree_param":{"num_deleted":"0","num_feature":"6","num_nodes":"5","size_leaf_vector":"1"}},{"base_weights":[-6.4483617E-4,-1.1976234E-2,1.9507527E-2,6.240487E-4,-2.8759018E-3,3.1753382E-4,2.2834698E-3],"categories":[],"categories_nodes":[],"categories_segments":[],"categories_sizes":[],"default_left":[0,0,0,0,0,0,0],"id":21,"left_children":[1,3,5,-1,-1,-1,-1],"loss_changes":[2.5224432E-3,2.4990316E-3,7.2344206E-5,0E0,0E0,0E0,0E0],"parents":[2147483647,0,0,1,1,2,2],"right_children":[2,4,6,-1,-1,-1,-1],"split_conditions":[1.1436988E0,1.1236389E0,1.1436988E0,6.240487E-4,-2.8759018E-3,3.1753382E-4,2.2834698E-3],"split_indices":[2,2,0,0,0,0,0],"split_type":[0,0,0,0,0,0,0],"sum_hessian":[7E0,5E0,2E0,3E0,2E0,1E0,1E0],"tree_param":{"num_deleted":"0","num_feature":"6","num_nodes":"7","size_leaf_vector":"1"}},{"base_weights":[-5.027652E-4,-1.1421995E-2,1.885727E-2,5.866051E-4,-2.7321056E-3,3.0694803E-4,2.2073546E-3],"categories":[],"categories_nodes":[],"categories_segments":[],"categories_sizes":[],"default_left":[0,0,0,0,0,0,0],"id":22,"left_children":[1,3,5,-1,-1,-1,-1],"loss_changes":[2.3333456E-3,2.2445791E-3,6.760296E-5,0E0,0E0,0E0,0E0],"parents":[2147483647,0,0,1,1,2,2],"right_children":[2,4,6,-1,-1,-1,-1],"split_conditions":[1.1436988E0,1.1236389E0,1.1436988E0,5.866051E-4,-2.7321056E-3,3.0694803E-4,2.2073546E-3],"split_indices":[2,2,0,0,0,0,0],"split_type":[0,0,0,0,0,0,0],"sum_hessian":[7E0,5E0,2E0,3E0,2E0,1E0,1E0],"tree_param":{"num_deleted":"0","num_feature":"6","num_nodes":"7","size_leaf_vector":"1"}},{"base_weights":[-3.705422E-4,-2.3192368E-3,8.280277E-3,1.9034663E-3,-1.1991442E-3],"categories":[],"categories_nodes":[],"categories_segments":[],"categories_sizes":[],"default_left":[0,0,0,0,0],"id":23,"left_children":[1,-1,3,-1,-1],"loss_changes":[2.1609257E-3,0E0,2.2005853E-3,0E0,0E0],"parents":[2147483647,0,0,2,2],"right_children":[2,-1,4,-1,-1],"split_conditions":[9.2596775E-1,-2.3192368E-3,1.1794219E0,1.9034663E-3,-1.1991442E-3],"split_indices":[1,0,0,0,0],"split_type":[0,0,0,0,0],"sum_hessian":[7E0,1E0,6E0,4E0,2E0],"tree_param":{"num_deleted":"0","num_feature":"6","num_nodes":"5","size_leaf_vector":"1"}},{"base_weights":[-6.9234107E-4,-1.0762708E-2,1.7276973E-2,4.992533E-4,-2.5075406E-3,2.3326874E-4,2.0703278E-3],"categories":[],"categories_nodes":[],"categories_segments":[],"categories_sizes":[],"default_left":[0,0,0,0,0,0,0],"id":24,"left_children":[1,3,5,-1,-1,-1,-1],"loss_changes":[2.0005123E-3,1.8288796E-3,1.082262E-4,0E0,0E0,0E0,0E0],"parents":[2147483647,0,0,1,1,2,2],"right_children":[2,4,6,-1,-1,-1,-1],"split_conditions":[1.1436988E0,1.1236389E0,1.1436988E0,4.992533E-4,-2.5075406E-3,2.3326874E-4,2.0703278E-3],"split_indices":[2,2,0,0,0,0,0],"split_type":[0,0,0,0,0,0,0],"sum_hessian":[7E0,5E0,2E0,3E0,2E0,1E0,1E0],"tree_param":{"num_deleted":"0","num_feature":"6","num_nodes":"7","size_leaf_vector":"1"}},{"base_weights":[-5.574756E-4,-1.0260224E-2,1.6701072E-2,4.692984E-4,-2.3821623E-3,2.2549232E-4,2.0013175E-3],"categories":[],"categories_nodes":[],"categories_segments":[],"categories_sizes":[],"default_left":[0,0,0,0,0,0,0],"id":25,"left_children":[1,3,5,-1,-1,-1,-1],"loss_changes":[1.8498116E-3,1.6430939E-3,1.01132086E-4,0E0,0E0,0E0,0E0],"parents":[2147483647,0,0,1,1,2,2],"right_children":[2,4,6,-1,-1,-1,-1],"split_conditions":[1.1436988E0,1.1236389E0,1.1436988E0,4.692984E-4,-2.3821623E-3,2.2549232E-4,2.0013175E-3],"split_indices":[2,2,0,0,0,0,0],"split_type":[0,0,0,0,0,0,0],"sum_hessian":[7E0,5E0,2E0,3E0,2E0,1E0,1E0],"tree_param":{"num_deleted":"0","num_feature":"6","num_nodes":"7","size_leaf_vector":"1"}},{"base_weights":[-4.3197474E-4,-2.0789385E-3,7.3100477E-3,1.6687791E-3,-1.041159E-3],"categories":[],"categories_nodes":[],"categories_segments":[],"categories_sizes":[],"default_left":[0,0,0,0,0],"id":26,"left_children":[1,-1,3,-1,-1],"loss_changes":[1.7224106E-3,0E0,1.6770045E-3,0E0,0E0],"parents":[2147483647,0,0,2,2],"right_children":[2,-1,4,-1,-1],"split_conditions":[9.2596775E-1,-2.0789385E-3,1.1794219E0,1.6687791E-3,-1.041159E-3],"split_indices":[1,0,0,0,0],"split_type":[0,0,0,0,0],"sum_hessian":[7E0,1E0,6E0,4E0,2E0],"tree_param":{"num_deleted":"0","num_feature":"6","num_nodes":"5","size_leaf_vector":"1"}},{"base_weights":[-7.11302E-4,-9.66308E-3,1.530996E-2,3.9520982E-4,-2.185051E-3,1.6234716E-4,1.8789808E-3],"categories":[],"categories_nodes":[],"categories_segments":[],"categories_sizes":[],"default_left":[0,0,0,0,0,0,0],"id":27,"left_children":[1,3,5,-1,-1,-1,-1],"loss_changes":[1.5866515E-3,1.334249E-3,1.2949819E-4,0E0,0E0,0E0,0E0],"parents":[2147483647,0,0,1,1,2,2],"right_children":[2,4,6,-1,-1,-1,-1],"split_conditions":[1.1436988E0,1.1236389E0,1.1436988E0,3.9520982E-4,-2.185051E-3,1.6234716E-4,1.8789808E-3],"split_indices":[2,2,0,0,0,0,0],"split_type":[0,0,0,0,0,0,0],"sum_hessian":[7E0,5E0,2E0,3E0,2E0,1E0,1E0],"tree_param":{"num_deleted":"0","num_feature":"6","num_nodes":"7","size_leaf_vector":"1"}},{"base_weights":[-5.8427785E-4,-1.9368053E-3,6.605707E-3,1.51033E-3,-9.4435364E-4],"categories":[],"categories_nodes":[],"categories_segments":[],"categories_sizes":[],"default_left":[0,0,0,0,0],"id":28,"left_children":[1,-1,3,-1,-1],"loss_changes":[1.4713749E-3,0E0,1.3762966E-3,0E0,0E0],"parents":[2147483647,0,0,2,2],"right_children":[2,-1,4,-1,-1],"split_conditions":[9.2596775E-1,-1.9368053E-3,1.1794219E0,1.51033E-3,-9.4435364E-4],"split_indices":[1,0,0,0,0],"split_type":[0,0,0,0,0],"sum_hessian":[7E0,1E0,6E0,4E0,2E0],"tree_param":{"num_deleted":"0","num_feature":"6","num_nodes":"5","size_leaf_vector":"1"}},{"base_weights":[-8.30498E-4,-7.5568184E-3,1.7660022E-3,-2.0037696E-3,3.282706E-4],"categories":[],"categories_nodes":[],"categories_segments":[],"categories_sizes":[],"default_left":[0,0,0,0,0],"id":29,"left_children":[1,3,-1,-1,-1],"loss_changes":[1.3862656E-3,1.21385E-3,0E0,0E0,0E0],"parents":[2147483647,0,0,1,1],"right_children":[2,4,-1,-1,-1],"split_conditions":[1.1794219E0,9E0,1.7660022E-3,-2.0037696E-3,3.282706E-4],"split_indices":[2,4,0,0,0],"split_type":[0,0,0,0,0],"sum_hessian":[7E0,6E0,1E0,2E0,4E0],"tree_param":{"num_deleted":"0","num_feature":"6","num_nodes":"5","size_leaf_vector":"1"}},{"base_weights":[-7.273422E-4,-7.2200224E-3,1.7071366E-3,-1.9035802E-3,3.063838E-4],"categories":[],"categories_nodes":[],"categories_segments":[],"categories_sizes":[],"default_left":[0,0,0,0,0],"id":30,"left_children":[1,3,-1,-1,-1],"loss_changes":[1.2865631E-3,1.0887398E-3,0E0,0E0,0E0],"parents":[2147483647,0,0,1,1],"right_children":[2,4,-1,-1,-1],"split_conditions":[1.1794219E0,9E0,1.7071366E-3,-1.9035802E-3,3.063838E-4],"split_indices":[2,4,0,0,0],"split_type":[0,0,0,0,0],"sum_hessian":[7E0,6E0,1E0,2E0,4E0],"tree_param":{"num_deleted":"0","num_feature":"6","num_nodes":"5","size_leaf_vector":"1"}},{"base_weights":[-6.301734E-4,-6.897308E-3,1.65023E-3,-1.8084005E-3,2.8595925E-4],"categories":[],"categories_nodes":[],"categories_segments":[],"categories_sizes":[],"default_left":[0,0,0,0,0],"id":31,"left_children":[1,3,-1,-1,-1],"loss_changes":[1.1939866E-3,9.766056E-4,0E0,0E0,0E0],"parents":[2147483647,0,0,1,1],"right_children":[2,4,-1,-1,-1],"split_conditions":[1.1794219E0,9E0,1.65023E-3,-1.8084005E-3,2.8595925E-4],"split_indices":[2,4,0,0,0],"split_type":[0,0,0,0,0],"sum_hessian":[7E0,6E0,1E0,2E0,4E0],"tree_param":{"num_deleted":"0","num_feature":"6","num_nodes":"5","size_leaf_vector":"1"}},{"base_weights":[-5.387664E-4,-1.3758376E-2,7.1692294E-3,-1.5273095E-4,-1.6817192E-3,1.9749464E-3,-5.7626487E-4],"categories":[],"categories_nodes":[],"categories_segments":[],"categories_sizes":[],"default_left":[0,0,0,0,0,0,0],"id":32,"left_children":[1,3,5,-1,-1,-1,-1],"loss_changes":[1.1143441E-3,9.828026E-5,1.3664206E-3,0E0,0E0,0E0,0E0],"parents":[2147483647,0,0,1,1,2,2],"right_children":[2,4,6,-1,-1,-1,-1],"split_conditions":[1.1236389E0,9.8708314E-1,1.1436988E0,-1.5273095E-4,-1.6817192E-3,1.9749464E-3,-5.7626487E-4],"split_indices":[0,0,1,0,0,0,0],"split_type":[0,0,0,0,0,0,0],"sum_hessian":[7E0,2E0,5E0,1E0,1E0,2E0,3E0],"tree_param":{"num_deleted":"0","num_feature":"6","num_nodes":"7","size_leaf_vector":"1"}},{"base_weights":[-5.8172806E-4,-1.3299763E-2,6.851929E-3,-1.476407E-4,-1.625661E-3,1.8761993E-3,-5.416894E-4],"categories":[],"categories_nodes":[],"categories_segments":[],"categories_sizes":[],"default_left":[0,0,0,0,0,0,0],"id":33,"left_children":[1,3,5,-1,-1,-1,-1],"loss_changes":[1.0331316E-3,9.183673E-5,1.2261206E-3,0E0,0E0,0E0,0E0],"parents":[2147483647,0,0,1,1,2,2],"right_children":[2,4,6,-1,-1,-1,-1],"split_conditions":[1.1236389E0,9.8708314E-1,1.1436988E0,-1.476407E-4,-1.625661E-3,1.8761993E-3,-5.416894E-4],"split_indices":[0,0,1,0,0,0,0],"split_type":[0,0,0,0,0,0,0],"sum_hessian":[7E0,2E0,5E0,1E0,1E0,2E0,3E0],"tree_param":{"num_deleted":"0","num_feature":"6","num_nodes":"7","size_leaf_vector":"1"}},{"base_weights":[-6.210804E-4,-7.5700283E-3,1.1850119E-2,2.2607327E-4,-1.6073466E-3,1.1316538E-4,1.4668505E-3],"categories":[],"categories_nodes":[],"categories_segments":[],"categories_sizes":[],"default_left":[0,0,0,0,0,0,0],"id":34,"left_children":[1,3,5,-1,-1,-1,-1],"loss_changes":[9.5936685E-4,6.578424E-4,8.7635766E-5,0E0,0E0,0E0,0E0],"parents":[2147483647,0,0,1,1,2,2],"right_children":[2,4,6,-1,-1,-1,-1],"split_conditions":[1.1436988E0,1.1236389E0,1.1436988E0,2.2607327E-4,-1.6073466E-3,1.1316538E-4,1.4668505E-3],"split_indices":[2,2,0,0,0,0,0],"split_type":[0,0,0,0,0,0,0],"sum_hessian":[7E0,5E0,2E0,3E0,2E0,1E0,1E0],"tree_param":{"num_deleted":"0","num_feature":"6","num_nodes":"7","size_leaf_vector":"1"}},{"base_weights":[-5.1478547E-4,-1.2511119E-2,6.487344E-3,-1.5025536E-4,-1.5178939E-3,1.7400653E-3,-4.8382403E-4],"categories":[],"categories_nodes":[],"categories_segments":[],"categories_sizes":[],"default_left":[0,0,0,0,0,0,0],"id":35,"left_children":[1,3,5,-1,-1,-1,-1],"loss_changes":[9.183267E-4,7.186114E-5,1.0335741E-3,0E0,0E0,0E0,0E0],"parents":[2147483647,0,0,1,1,2,2],"right_children":[2,4,6,-1,-1,-1,-1],"split_conditions":[1.1236389E0,9.8708314E-1,1.1436988E0,-1.5025536E-4,-1.5178939E-3,1.7400653E-3,-4.8382403E-4],"split_indices":[0,0,1,0,0,0,0],"split_type":[0,0,0,0,0,0,0],"sum_hessian":[7E0,2E0,5E0,1E0,1E0,2E0,3E0],"tree_param":{"num_deleted":"0","num_feature":"6","num_nodes":"7","size_leaf_vector":"1"}},{"base_weights":[-5.5484637E-4,-1.2094095E-2,6.1975378E-3,-1.4524857E-4,-1.4672976E-3,1.6530603E-3,-4.54793E-4],"categories":[],"categories_nodes":[],"categories_segments":[],"categories_sizes":[],"default_left":[0,0,0,0,0,0,0],"id":36,"left_children":[1,3,5,-1,-1,-1,-1],"loss_changes":[8.5116416E-4,6.714917E-5,9.275954E-4,0E0,0E0,0E0,0E0],"parents":[2147483647,0,0,1,1,2,2],"right_children":[2,4,6,-1,-1,-1,-1],"split_conditions":[1.1236389E0,9.8708314E-1,1.1436988E0,-1.4524857E-4,-1.4672976E-3,1.6530603E-3,-4.54793E-4],"split_indices":[0,0,1,0,0,0,0],"split_type":[0,0,0,0,0,0,0],"sum_hessian":[7E0,2E0,5E0,1E0,1E0,2E0,3E0],"tree_param":{"num_deleted":"0","num_feature":"6","num_nodes":"7","size_leaf_vector":"1"}},{"base_weights":[-5.9143704E-4,-6.9555556E-3,1.0841489E-2,1.6932965E-4,-1.4288843E-3,1.4068285E-4,1.3048489E-3],"categories":[],"categories_nodes":[],"categories_segments":[],"categories_sizes":[],"default_left":[0,0,0,0,0,0,0],"id":37,"left_children":[1,3,5,-1,-1,-1,-1],"loss_changes":[8.056616E-4,4.923621E-4,4.657524E-5,0E0,0E0,0E0,0E0],"parents":[2147483647,0,0,1,1,2,2],"right_children":[2,4,6,-1,-1,-1,-1],"split_conditions":[1.1436988E0,1.1236389E0,1.1436988E0,1.6932965E-4,-1.4288843E-3,1.4068285E-4,1.3048489E-3],"split_indices":[2,2,0,0,0,0,0],"split_type":[0,0,0,0,0,0,0],"sum_hessian":[7E0,5E0,2E0,3E0,2E0,1E0,1E0],"tree_param":{"num_deleted":"0","num_feature":"6","num_nodes":"7","size_leaf_vector":"1"}},{"base_weights":[-4.909436E-4,-1.1376068E-2,5.869397E-3,-1.4605126E-4,-1.3707578E-3,1.533553E-3,-4.051268E-4],"categories":[],"categories_nodes":[],"categories_segments":[],"categories_sizes":[],"default_left":[0,0,0,0,0,0,0],"id":38,"left_children":[1,3,5,-1,-1,-1,-1],"loss_changes":[7.5663923E-4,5.2432704E-5,7.81629E-4,0E0,0E0,0E0,0E0],"parents":[2147483647,0,0,1,1,2,2],"right_children":[2,4,6,-1,-1,-1,-1],"split_conditions":[1.1236389E0,9.8708314E-1,1.1436988E0,-1.4605126E-4,-1.3707578E-3,1.533553E-3,-4.051268E-4],"split_indices":[0,0,1,0,0,0,0],"split_type":[0,0,0,0,0,0,0],"sum_hessian":[7E0,2E0,5E0,1E0,1E0,2E0,3E0],"tree_param":{"num_deleted":"0","num_feature":"6","num_nodes":"7","size_leaf_vector":"1"}},{"base_weights":[-5.2815676E-4,-6.5064854E-3,1.0197997E-2,1.3952494E-4,-1.3130412E-3,1.4949641E-4,1.2102366E-3],"categories":[],"categories_nodes":[],"categories_segments":[],"categories_sizes":[],"default_left":[0,0,0,0,0,0,0],"id":39,"left_children":[1,3,5,-1,-1,-1,-1],"loss_changes":[7.0982653E-4,4.030239E-4,3.010992E-5,0E0,0E0,0E0,0E0],"parents":[2147483647,0,0,1,1,2,2],"right_children":[2,4,6,-1,-1,-1,-1],"split_conditions":[1.1436988E0,1.1236389E0,1.1436988E0,1.3952494E-4,-1.3130412E-3,1.4949641E-4,1.2102366E-3],"split_indices":[2,2,0,0,0,0,0],"split_type":[0,0,0,0,0,0,0],"sum_hessian":[7E0,5E0,2E0,3E0,2E0,1E0,1E0],"tree_param":{"num_deleted":"0","num_feature":"6","num_nodes":"7","size_leaf_vector":"1"}},{"base_weights":[-4.339417E-4,-1.0703474E-2,5.558346E-3,-1.458327E-4,-1.2812972E-3,1.2252164E-3,-5.5880996E-4],"categories":[],"categories_nodes":[],"categories_segments":[],"categories_sizes":[],"default_left":[0,0,0,0,0,0,0],"id":40,"left_children":[1,3,5,-1,-1,-1,-1],"loss_changes":[6.7282916E-4,4.0639425E-5,6.592185E-4,0E0,0E0,0E0,0E0],"parents":[2147483647,0,0,1,1,2,2],"right_children":[2,4,6,-1,-1,-1,-1],"split_conditions":[1.1236389E0,9.8708314E-1,1.1794219E0,-1.458327E-4,-1.2812972E-3,1.2252164E-3,-5.5880996E-4],"split_indices":[0,0,0,0,0,0,0],"split_type":[0,0,0,0,0,0,0],"sum_hessian":[7E0,2E0,5E0,1E0,1E0,3E0,2E0],"tree_param":{"num_deleted":"0","num_feature":"6","num_nodes":"7","size_leaf_vector":"1"}},{"base_weights":[-5.596015E-4,-1.0346696E-2,5.19291E-3,-1.4097294E-4,-1.2385865E-3,1.3618738E-3,-3.624916E-4],"categories":[],"categories_nodes":[],"categories_segments":[],"categories_sizes":[],"default_left":[0,0,0,0,0,0,0],"id":41,"left_children":[1,3,5,-1,-1,-1,-1],"loss_changes":[6.141623E-4,3.7974532E-5,6.1881595E-4,0E0,0E0,0E0,0E0],"parents":[2147483647,0,0,1,1,2,2],"right_children":[2,4,6,-1,-1,-1,-1],"split_conditions":[1.1236389E0,9.8708314E-1,1.1436988E0,-1.4097294E-4,-1.2385865E-3,1.3618738E-3,-3.624916E-4],"split_indices":[0,0,1,0,0,0,0],"split_type":[0,0,0,0,0,0,0],"sum_hessian":[7E0,2E0,5E0,1E0,1E0,2E0,3E0],"tree_param":{"num_deleted":"0","num_feature":"6","num_nodes":"7","size_leaf_vector":"1"}},{"base_weights":[-5.8810576E-4,-1.00017935E-2,4.9591744E-3,-1.3627211E-4,-1.1973004E-3,1.2937814E-3,-3.407407E-4],"categories":[],"categories_nodes":[],"categories_segments":[],"categories_sizes":[],"default_left":[0,0,0,0,0,0,0],"id":42,"left_children":[1,3,5,-1,-1,-1,-1],"loss_changes":[5.6918454E-4,3.548598E-5,5.554464E-4,0E0,0E0,0E0,0E0],"parents":[2147483647,0,0,1,1,2,2],"right_children":[2,4,6,-1,-1,-1,-1],"split_conditions":[1.1236389E0,9.8708314E-1,1.1436988E0,-1.3627211E-4,-1.1973004E-3,1.2937814E-3,-3.407407E-4],"split_indices":[0,0,1,0,0,0,0],"split_type":[0,0,0,0,0,0,0],"sum_hessian":[7E0,2E0,5E0,1E0,1E0,2E0,3E0],"tree_param":{"num_deleted":"0","num_feature":"6","num_nodes":"7","size_leaf_vector":"1"}},{"base_weights":[-6.1386824E-4,-5.7934606E-3,8.757353E-3,8.724213E-5,-1.1229083E-3,1.2711287E-4,1.0405342E-3],"categories":[],"categories_nodes":[],"categories_segments":[],"categories_sizes":[],"default_left":[0,0,0,0,0,0,0],"id":43,"left_children":[1,3,5,-1,-1,-1,-1],"loss_changes":[5.383227E-4,2.732255E-4,2.2895809E-5,0E0,0E0,0E0,0E0],"parents":[2147483647,0,0,1,1,2,2],"right_children":[2,4,6,-1,-1,-1,-1],"split_conditions":[1.1436988E0,1.1236389E0,1.1436988E0,8.724213E-5,-1.1229083E-3,1.2711287E-4,1.0405342E-3],"split_indices":[2,2,0,0,0,0,0],"split_type":[0,0,0,0,0,0,0],"sum_hessian":[7E0,5E0,2E0,3E0,2E0,1E0,1E0],"tree_param":{"num_deleted":"0","num_feature":"6","num_nodes":"7","size_leaf_vector":"1"}},{"base_weights":[-5.2316324E-4,-9.409502E-3,4.7042198E-3,-1.3463895E-4,-1.1199614E-3,1.0344434E-3,-4.6981574E-4],"categories":[],"categories_nodes":[],"categories_segments":[],"categories_sizes":[],"default_left":[0,0,0,0,0,0,0],"id":44,"left_children":[1,3,5,-1,-1,-1,-1],"loss_changes":[5.0659943E-4,2.7577393E-5,4.6841946E-4,0E0,0E0,0E0,0E0],"parents":[2147483647,0,0,1,1,2,2],"right_children":[2,4,6,-1,-1,-1,-1],"split_conditions":[1.1236389E0,9.8708314E-1,1.1794219E0,-1.3463895E-4,-1.1199614E-3,1.0344434E-3,-4.6981574E-4],"split_indices":[0,0,0,0,0,0,0],"split_type":[0,0,0,0,0,0,0],"sum_hessian":[7E0,2E0,5E0,1E0,1E0,3E0,2E0],"tree_param":{"num_deleted":"0","num_feature":"6","num_nodes":"7","size_leaf_vector":"1"}},{"base_weights":[-6.241997E-4,-9.0958625E-3,4.3950933E-3,-1.3015271E-4,-1.082629E-3,1.1491716E-3,-3.0402423E-4],"categories":[],"categories_nodes":[],"categories_segments":[],"categories_sizes":[],"default_left":[0,0,0,0,0,0,0],"id":45,"left_children":[1,3,5,-1,-1,-1,-1],"loss_changes":[4.6265015E-4,2.5768677E-5,4.392356E-4,0E0,0E0,0E0,0E0],"parents":[2147483647,0,0,1,1,2,2],"right_children":[2,4,6,-1,-1,-1,-1],"split_conditions":[1.1236389E0,9.8708314E-1,1.1436988E0,-1.3015271E-4,-1.082629E-3,1.1491716E-3,-3.0402423E-4],"split_indices":[0,0,1,0,0,0,0],"split_type":[0,0,0,0,0,0,0],"sum_hessian":[7E0,2E0,5E0,1E0,1E0,2E0,3E0],"tree_param":{"num_deleted":"0","num_feature":"6","num_nodes":"7","size_leaf_vector":"1"}},{"base_weights":[-6.434785E-4,-8.792654E-3,4.197044E-3,-1.2581349E-4,-1.0465403E-3,1.0917127E-3,-2.8578402E-4],"categories":[],"categories_nodes":[],"categories_segments":[],"categories_sizes":[],"default_left":[0,0,0,0,0,0,0],"id":46,"left_children":[1,3,5,-1,-1,-1,-1],"loss_changes":[4.288227E-4,2.4079665E-5,3.9426464E-4,0E0,0E0,0E0,0E0],"parents":[2147483647,0,0,1,1,2,2],"right_children":[2,4,6,-1,-1,-1,-1],"split_conditions":[1.1236389E0,9.8708314E-1,1.1436988E0,-1.2581349E-4,-1.0465403E-3,1.0917127E-3,-2.8578402E-4],"split_indices":[0,0,1,0,0,0,0],"split_type":[0,0,0,0,0,0,0],"sum_hessian":[7E0,2E0,5E0,1E0,1E0,2E0,3E0],"tree_param":{"num_deleted":"0","num_feature":"6","num_nodes":"7","size_leaf_vector":"1"}},{"base_weights":[-6.605718E-4,-5.155248E-3,7.535398E-3,4.5499804E-5,-9.590432E-4,1.080513E-4,8.9666847E-4],"categories":[],"categories_nodes":[],"categories_segments":[],"categories_sizes":[],"default_left":[0,0,0,0,0,0,0],"id":47,"left_children":[1,3,5,-1,-1,-1,-1],"loss_changes":[4.092378E-4,1.8290455E-4,1.7577913E-5,0E0,0E0,0E0,0E0],"parents":[2147483647,0,0,1,1,2,2],"right_children":[2,4,6,-1,-1,-1,-1],"split_conditions":[1.1436988E0,1.1236389E0,1.1436988E0,4.5499804E-5,-9.590432E-4,1.080513E-4,8.9666847E-4],"split_indices":[2,2,0,0,0,0,0],"split_type":[0,0,0,0,0,0,0],"sum_hessian":[7E0,5E0,2E0,3E0,2E0,1E0,1E0],"tree_param":{"num_deleted":"0","num_feature":"6","num_nodes":"7","size_leaf_vector":"1"}},{"base_weights":[-5.7426427E-4,-8.271202E-3,3.9880616E-3,-1.2313922E-4,-9.796878E-4,8.735275E-4,-3.9399863E-4],"categories":[],"categories_nodes":[],"categories_segments":[],"categories_sizes":[],"default_left":[0,0,0,0,0,0,0],"id":48,"left_children":[1,3,5,-1,-1,-1,-1],"loss_changes":[3.820156E-4,1.8834282E-5,3.322867E-4,0E0,0E0,0E0,0E0],"parents":[2147483647,0,0,1,1,2,2],"right_children":[2,4,6,-1,-1,-1,-1],"split_conditions":[1.1236389E0,9.8708314E-1,1.1794219E0,-1.2313922E-4,-9.796878E-4,8.735275E-4,-3.9399863E-4],"split_indices":[0,0,0,0,0,0,0],"split_type":[0,0,0,0,0,0,0],"sum_hessian":[7E0,2E0,5E0,1E0,1E0,3E0,2E0],"tree_param":{"num_deleted":"0","num_feature":"6","num_nodes":"7","size_leaf_vector":"1"}},{"base_weights":[-6.5536634E-4,-7.995501E-3,3.726244E-3,-1.1903445E-4,-9.470324E-4,9.698928E-4,-2.5424003E-4],"categories":[],"categories_nodes":[],"categories_segments":[],"categories_sizes":[],"default_left":[0,0,0,0,0,0,0],"id":49,"left_children":[1,3,5,-1,-1,-1,-1],"loss_changes":[3.4904087E-4,1.7599697E-5,3.114015E-4,0E0,0E0,0E0,0E0],"parents":[2147483647,0,0,1,1,2,2],"right_children":[2,4,6,-1,-1,-1,-1],"split_conditions":[1.1236389E0,9.8708314E-1,1.1436988E0,-1.1903445E-4,-9.470324E-4,9.698928E-4,-2.5424003E-4],"split_indices":[0,0,1,0,0,0,0],"split_type":[0,0,0,0,0,0,0],"sum_hessian":[7E0,2E0,5E0,1E0,1E0,2E0,3E0],"tree_param":{"num_deleted":"0","num_feature":"6","num_nodes":"7","size_leaf_vector":"1"}},{"base_weights":[-6.676846E-4,-4.6690446E-3,6.668538E-3,2.3708344E-5,-8.4671826E-4,8.380811E-5,8.053303E-4],"categories":[],"categories_nodes":[],"categories_segments":[],"categories_sizes":[],"default_left":[0,0,0,0,0,0,0],"id":50,"left_children":[1,3,5,-1,-1,-1,-1],"loss_changes":[3.264652E-4,1.3445393E-4,1.8796622E-5,0E0,0E0,0E0,0E0],"parents":[2147483647,0,0,1,1,2,2],"right_children":[2,4,6,-1,-1,-1,-1],"split_conditions":[1.1436988E0,1.1236389E0,1.1436988E0,2.3708344E-5,-8.4671826E-4,8.380811E-5,8.053303E-4],"split_indices":[2,2,0,0,0,0,0],"split_type":[0,0,0,0,0,0,0],"sum_hessian":[7E0,5E0,2E0,3E0,2E0,1E0,1E0],"tree_param":{"num_deleted":"0","num_feature":"6","num_nodes":"7","size_leaf_vector":"1"}},{"base_weights":[-5.8622495E-4,-7.523209E-3,3.5452587E-3,-1.1585554E-4,-8.87239E-4,9.006709E-4,-2.242005E-4],"categories":[],"categories_nodes":[],"categories_segments":[],"categories_sizes":[],"default_left":[0,0,0,0,0,0,0],"id":51,"left_children":[1,3,5,-1,-1,-1,-1],"loss_changes":[3.1128374E-4,1.3789977E-5,2.6163412E-4,0E0,0E0,0E0,0E0],"parents":[2147483647,0,0,1,1,2,2],"right_children":[2,4,6,-1,-1,-1,-1],"split_conditions":[1.1236389E0,9.8708314E-1,1.1436988E0,-1.1585554E-4,-8.87239E-4,9.006709E-4,-2.242005E-4],"split_indices":[0,0,1,0,0,0,0],"split_type":[0,0,0,0,0,0,0],"sum_hessian":[7E0,2E0,5E0,1E0,1E0,2E0,3E0],"tree_param":{"num_deleted":"0","num_feature":"6","num_nodes":"7","size_leaf_vector":"1"}},{"base_weights":[-6.0017244E-4,-7.272437E-3,3.384028E-3,-1.1199316E-4,-8.5766515E-4,7.376051E-4,-3.2980143E-4],"categories":[],"categories_nodes":[],"categories_segments":[],"categories_sizes":[],"default_left":[0,0,0,0,0,0,0],"id":52,"left_children":[1,3,5,-1,-1,-1,-1],"loss_changes":[2.8847303E-4,1.2886216E-5,2.3537673E-4,0E0,0E0,0E0,0E0],"parents":[2147483647,0,0,1,1,2,2],"right_children":[2,4,6,-1,-1,-1,-1],"split_conditions":[1.1236389E0,9.8708314E-1,1.1794219E0,-1.1199316E-4,-8.5766515E-4,7.376051E-4,-3.2980143E-4],"split_indices":[0,0,0,0,0,0,0],"split_type":[0,0,0,0,0,0,0],"sum_hessian":[7E0,2E0,5E0,1E0,1E0,3E0,2E0],"tree_param":{"num_deleted":"0","num_feature":"6","num_nodes":"7","size_leaf_vector":"1"}},{"base_weights":[-6.6499575E-4,-7.03004E-3,3.1621712E-3,-1.08261906E-4,-8.290768E-4,8.187622E-4,-2.123058E-4],"categories":[],"categories_nodes":[],"categories_segments":[],"categories_sizes":[],"default_left":[0,0,0,0,0,0,0],"id":53,"left_children":[1,3,5,-1,-1,-1,-1],"loss_changes":[2.6370116E-4,1.2040837E-5,2.2069018E-4,0E0,0E0,0E0,0E0],"parents":[2147483647,0,0,1,1,2,2],"right_children":[2,4,6,-1,-1,-1,-1],"split_conditions":[1.1236389E0,9.8708314E-1,1.1436988E0,-1.08261906E-4,-8.290768E-4,8.187622E-4,-2.123058E-4],"split_indices":[0,0,1,0,0,0,0],"split_type":[0,0,0,0,0,0,0],"sum_hessian":[7E0,2E0,5E0,1E0,1E0,2E0,3E0],"tree_param":{"num_deleted":"0","num_feature":"6","num_nodes":"7","size_leaf_vector":"1"}},{"base_weights":[-6.720159E-4,-4.153601E-3,5.7567656E-3,-4.8041343E-6,-7.20875E-4,7.098119E-5,6.9658755E-4],"categories":[],"categories_nodes":[],"categories_segments":[],"categories_sizes":[],"default_left":[0,0,0,0,0,0,0],"id":54,"left_children":[1,3,5,-1,-1,-1,-1],"loss_changes":[2.4926374E-4,8.710903E-5,1.4520367E-5,0E0,0E0,0E0,0E0],"parents":[2147483647,0,0,1,1,2,2],"right_children":[2,4,6,-1,-1,-1,-1],"split_conditions":[1.1436988E0,1.1236389E0,1.1436988E0,-4.8041343E-6,-7.20875E-4,7.098119E-5,6.9658755E-4],"split_indices":[2,2,0,0,0,0,0],"split_type":[0,0,0,0,0,0,0],"sum_hessian":[7E0,5E0,2E0,3E0,2E0,1E0,1E0],"tree_param":{"num_deleted":"0","num_feature":"6","num_nodes":"7","size_leaf_vector":"1"}},{"base_weights":[-5.9551E-4,-6.6142976E-3,3.0139429E-3,-1.04494895E-4,-7.7741145E-4,7.6053146E-4,-1.8647313E-4],"categories":[],"categories_nodes":[],"categories_segments":[],"categories_sizes":[],"default_left":[0,0,0,0,0,0,0],"id":55,"left_children":[1,3,5,-1,-1,-1,-1],"loss_changes":[2.3539101E-4,9.5906E-6,1.8516237E-4,0E0,0E0,0E0,0E0],"parents":[2147483647,0,0,1,1,2,2],"right_children":[2,4,6,-1,-1,-1,-1],"split_conditions":[1.1236389E0,9.8708314E-1,1.1436988E0,-1.04494895E-4,-7.7741145E-4,7.6053146E-4,-1.8647313E-4],"split_indices":[0,0,1,0,0,0,0],"split_type":[0,0,0,0,0,0,0],"sum_hessian":[7E0,2E0,5E0,1E0,1E0,2E0,3E0],"tree_param":{"num_deleted":"0","num_feature":"6","num_nodes":"7","size_leaf_vector":"1"}},{"base_weights":[-6.0437125E-4,-3.8749746E-3,5.4213703E-3,-5.8919314E-4,5.8370828E-5,7.4831645E-5,6.4801774E-4],"categories":[],"categories_nodes":[],"categories_segments":[],"categories_sizes":[],"default_left":[0,0,0,0,0,0,0],"id":56,"left_children":[1,3,5,-1,-1,-1,-1],"loss_changes":[2.1938565E-4,6.982912E-5,1.0093005E-5,0E0,0E0,0E0,0E0],"parents":[2147483647,0,0,1,1,2,2],"right_children":[2,4,6,-1,-1,-1,-1],"split_conditions":[1.1436988E0,1E1,1.1436988E0,-5.8919314E-4,5.8370828E-5,7.4831645E-5,6.4801774E-4],"split_indices":[2,4,0,0,0,0,0],"split_type":[0,0,0,0,0,0,0],"sum_hessian":[7E0,5E0,2E0,3E0,2E0,1E0,1E0],"tree_param":{"num_deleted":"0","num_feature":"6","num_nodes":"7","size_leaf_vector":"1"}},{"base_weights":[-5.012684E-4,-6.0991943E-3,2.840766E-3,-8.1368285E-5,-7.3185767E-4,7.048428E-4,-1.6616702E-4],"categories":[],"categories_nodes":[],"categories_segments":[],"categories_sizes":[],"default_left":[0,0,0,0,0,0,0],"id":57,"left_children":[1,3,5,-1,-1,-1,-1],"loss_changes":[2.0302892E-4,1.3870231E-5,1.5603742E-4,0E0,0E0,0E0,0E0],"parents":[2147483647,0,0,1,1,2,2],"right_children":[2,4,6,-1,-1,-1,-1],"split_conditions":[1.1236389E0,9.8708314E-1,1.1436988E0,-8.1368285E-5,-7.3185767E-4,7.048428E-4,-1.6616702E-4],"split_indices":[0,0,1,0,0,0,0],"split_type":[0,0,0,0,0,0,0],"sum_hessian":[7E0,2E0,5E0,1E0,1E0,2E0,3E0],"tree_param":{"num_deleted":"0","num_feature":"6","num_nodes":"7","size_leaf_vector":"1"}},{"base_weights":[-5.121496E-4,-3.5761765E-3,5.1059723E-3,-7.0746144E-4,-6.3489875E-5,7.7875455E-5,6.029209E-4],"categories":[],"categories_nodes":[],"categories_segments":[],"categories_sizes":[],"default_left":[0,0,0,0,0,0,0],"id":58,"left_children":[1,3,5,-1,-1,-1,-1],"loss_changes":[1.9144641E-4,6.304581E-5,6.589624E-6,0E0,0E0,0E0,0E0],"parents":[2147483647,0,0,1,1,2,2],"right_children":[2,4,6,-1,-1,-1,-1],"split_conditions":[1.1436988E0,9.2596775E-1,1.1436988E0,-7.0746144E-4,-6.3489875E-5,7.7875455E-5,6.029209E-4],"split_indices":[2,1,0,0,0,0,0],"split_type":[0,0,0,0,0,0,0],"sum_hessian":[7E0,5E0,2E0,1E0,4E0,1E0,1E0],"tree_param":{"num_deleted":"0","num_feature":"6","num_nodes":"7","size_leaf_vector":"1"}},{"base_weights":[-4.809565E-4,-3.4388134E-3,4.935771E-3,-6.838799E-4,-5.9254962E-5,7.5280666E-5,5.828222E-4],"categories":[],"categories_nodes":[],"categories_segments":[],"categories_sizes":[],"default_left":[0,0,0,0,0,0,0],"id":59,"left_children":[1,3,5,-1,-1,-1,-1],"loss_changes":[1.7814354E-4,5.9636135E-5,6.157301E-6,0E0,0E0,0E0,0E0],"parents":[2147483647,0,0,1,1,2,2],"right_children":[2,4,6,-1,-1,-1,-1],"split_conditions":[1.1436988E0,9.2596775E-1,1.1436988E0,-6.838799E-4,-5.9254962E-5,7.5280666E-5,5.828222E-4],"split_indices":[2,1,0,0,0,0,0],"split_type":[0,0,0,0,0,0,0],"sum_hessian":[7E0,5E0,2E0,1E0,4E0,1E0,1E0],"tree_param":{"num_deleted":"0","num_feature":"6","num_nodes":"7","size_leaf_vector":"1"}},{"base_weights":[-4.5175024E-4,-5.5173337E-3,2.5719404E-3,-7.456144E-5,-6.610831E-4,5.5808306E-4,-2.4751425E-4],"categories":[],"categories_nodes":[],"categories_segments":[],"categories_sizes":[],"default_left":[0,0,0,0,0,0,0],"id":60,"left_children":[1,3,5,-1,-1,-1,-1],"loss_changes":[1.6623133E-4,1.1013188E-5,1.3392951E-4,0E0,0E0,0E0,0E0],"parents":[2147483647,0,0,1,1,2,2],"right_children":[2,4,6,-1,-1,-1,-1],"split_conditions":[1.1236389E0,9.8708314E-1,1.1794219E0,-7.456144E-5,-6.610831E-4,5.5808306E-4,-2.4751425E-4],"split_indices":[0,0,0,0,0,0,0],"split_type":[0,0,0,0,0,0,0],"sum_hessian":[7E0,2E0,5E0,1E0,1E0,3E0,2E0],"tree_param":{"num_deleted":"0","num_feature":"6","num_nodes":"7","size_leaf_vector":"1"}},{"base_weights":[-5.010631E-4,-5.3334385E-3,2.403455E-3,-7.207791E-5,-6.3904724E-4,6.1511697E-4,-1.5560984E-4],"categories":[],"categories_nodes":[],"categories_segments":[],"categories_sizes":[],"default_left":[0,0,0,0,0,0,0],"id":61,"left_children":[1,3,5,-1,-1,-1,-1],"loss_changes":[1.5195887E-4,1.0290707E-5,1.2301857E-4,0E0,0E0,0E0,0E0],"parents":[2147483647,0,0,1,1,2,2],"right_children":[2,4,6,-1,-1,-1,-1],"split_conditions":[1.1236389E0,9.8708314E-1,1.1436988E0,-7.207791E-5,-6.3904724E-4,6.1511697E-4,-1.5560984E-4],"split_indices":[0,0,1,0,0,0,0],"split_type":[0,0,0,0,0,0,0],"sum_hessian":[7E0,2E0,5E0,1E0,1E0,2E0,3E0],"tree_param":{"num_deleted":"0","num_feature":"6","num_nodes":"7","size_leaf_vector":"1"}},{"base_weights":[-5.068779E-4,-3.1530175E-3,4.3773055E-3,-6.177465E-4,-5.8978796E-5,5.9354305E-5,5.242864E-4],"categories":[],"categories_nodes":[],"categories_segments":[],"categories_sizes":[],"default_left":[0,0,0,0,0,0,0],"id":62,"left_children":[1,3,5,-1,-1,-1,-1],"loss_changes":[1.4392153E-4,4.6979687E-5,6.876544E-6,0E0,0E0,0E0,0E0],"parents":[2147483647,0,0,1,1,2,2],"right_children":[2,4,6,-1,-1,-1,-1],"split_conditions":[1.1436988E0,9.2596775E-1,1.1436988E0,-6.177465E-4,-5.8978796E-5,5.9354305E-5,5.242864E-4],"split_indices":[2,1,0,0,0,0,0],"split_type":[0,0,0,0,0,0,0],"sum_hessian":[7E0,5E0,2E0,1E0,4E0,1E0,1E0],"tree_param":{"num_deleted":"0","num_feature":"6","num_nodes":"7","size_leaf_vector":"1"}},{"base_weights":[-4.7686364E-4,-3.0310494E-3,4.2313933E-3,-5.971551E-4,-5.504489E-5,5.7375433E-5,5.068103E-4],"categories":[],"categories_nodes":[],"categories_segments":[],"categories_sizes":[],"default_left":[0,0,0,0,0,0,0],"id":63,"left_children":[1,3,5,-1,-1,-1,-1],"loss_changes":[1.3388299E-4,4.4485394E-5,6.425842E-6,0E0,0E0,0E0,0E0],"parents":[2147483647,0,0,1,1,2,2],"right_children":[2,4,6,-1,-1,-1,-1],"split_conditions":[1.1436988E0,9.2596775E-1,1.1436988E0,-5.971551E-4,-5.504489E-5,5.7375433E-5,5.068103E-4],"split_indices":[2,1,0,0,0,0,0],"split_type":[0,0,0,0,0,0,0],"sum_hessian":[7E0,5E0,2E0,1E0,4E0,1E0,1E0],"tree_param":{"num_deleted":"0","num_feature":"6","num_nodes":"7","size_leaf_vector":"1"}},{"base_weights":[-4.487104E-4,-2.914267E-3,4.0903687E-3,-5.7724916E-4,-5.1373245E-5,5.546411E-5,4.899184E-4],"categories":[],"categories_nodes":[],"categories_segments":[],"categories_sizes":[],"default_left":[0,0,0,0,0,0,0],"id":64,"left_children":[1,3,5,-1,-1,-1,-1],"loss_changes":[1.2456307E-4,4.209783E-5,6.004426E-6,0E0,0E0,0E0,0E0],"parents":[2147483647,0,0,1,1,2,2],"right_children":[2,4,6,-1,-1,-1,-1],"split_conditions":[1.1436988E0,9.2596775E-1,1.1436988E0,-5.7724916E-4,-5.1373245E-5,5.546411E-5,4.899184E-4],"split_indices":[2,1,0,0,0,0,0],"split_type":[0,0,0,0,0,0,0],"sum_hessian":[7E0,5E0,2E0,1E0,4E0,1E0,1E0],"tree_param":{"num_deleted":"0","num_feature":"6","num_nodes":"7","size_leaf_vector":"1"}},{"base_weights":[-4.2233203E-4,-4.666239E-3,2.123424E-3,-6.415844E-5,-5.5800675E-4,5.5047276E-4,-1.4309883E-4],"categories":[],"categories_nodes":[],"categories_segments":[],"categories_sizes":[],"default_left":[0,0,0,0,0,0,0],"id":65,"left_children":[1,3,5,-1,-1,-1,-1],"loss_changes":[1.17052376E-4,7.5512E-6,9.988423E-5,0E0,0E0,0E0,0E0],"parents":[2147483647,0,0,1,1,2,2],"right_children":[2,4,6,-1,-1,-1,-1],"split_conditions":[1.1236389E0,9.8708314E-1,1.1436988E0,-6.415844E-5,-5.5800675E-4,5.5047276E-4,-1.4309883E-4],"split_indices":[0,0,1,0,0,0,0],"split_type":[0,0,0,0,0,0,0],"sum_hessian":[7E0,2E0,5E0,1E0,1E0,2E0,3E0],"tree_param":{"num_deleted":"0","num_feature":"6","num_nodes":"7","size_leaf_vector":"1"}},{"base_weights":[-4.2784878E-4,-2.7513248E-3,3.8521588E-3,-5.3940614E-4,-5.128483E-5,5.8384736E-5,4.5523644E-4],"categories":[],"categories_nodes":[],"categories_segments":[],"categories_sizes":[],"default_left":[0,0,0,0,0,0,0],"id":66,"left_children":[1,3,5,-1,-1,-1,-1],"loss_changes":[1.1069755E-4,3.5877252E-5,3.8381877E-6,0E0,0E0,0E0,0E0],"parents":[2147483647,0,0,1,1,2,2],"right_children":[2,4,6,-1,-1,-1,-1],"split_conditions":[1.1436988E0,9.2596775E-1,1.1436988E0,-5.3940614E-4,-5.128483E-5,5.8384736E-5,4.5523644E-4],"split_indices":[2,1,0,0,0,0,0],"split_type":[0,0,0,0,0,0,0],"sum_hessian":[7E0,5E0,2E0,1E0,4E0,1E0,1E0],"tree_param":{"num_deleted":"0","num_feature":"6","num_nodes":"7","size_leaf_vector":"1"}},{"base_weights":[-4.022055E-4,-2.644973E-3,3.7237406E-3,-5.214254E-4,-4.78675E-5,5.6437653E-5,4.400611E-4],"categories":[],"categories_nodes":[],"categories_segments":[],"categories_sizes":[],"default_left":[0,0,0,0,0,0,0],"id":67,"left_children":[1,3,5,-1,-1,-1,-1],"loss_changes":[1.0298023E-4,3.3968936E-5,3.5867197E-6,0E0,0E0,0E0,0E0],"parents":[2147483647,0,0,1,1,2,2],"right_children":[2,4,6,-1,-1,-1,-1],"split_conditions":[1.1436988E0,9.2596775E-1,1.1436988E0,-5.214254E-4,-4.78675E-5,5.6437653E-5,4.400611E-4],"split_indices":[2,1,0,0,0,0,0],"split_type":[0,0,0,0,0,0,0],"sum_hessian":[7E0,5E0,2E0,1E0,4E0,1E0,1E0],"tree_param":{"num_deleted":"0","num_feature":"6","num_nodes":"7","size_leaf_vector":"1"}},{"base_weights":[-3.7813187E-4,-4.2206943E-3,1.9256558E-3,-5.871455E-5,-5.040447E-4,4.3517115E-4,-2.0697415E-4],"categories":[],"categories_nodes":[],"categories_segments":[],"categories_sizes":[],"default_left":[0,0,0,0,0,0,0],"id":68,"left_children":[1,3,5,-1,-1,-1,-1],"loss_changes":[9.592724E-5,5.995491E-6,8.586522E-5,0E0,0E0,0E0,0E0],"parents":[2147483647,0,0,1,1,2,2],"right_children":[2,4,6,-1,-1,-1,-1],"split_conditions":[1.1236389E0,9.8708314E-1,1.1794219E0,-5.871455E-5,-5.040447E-4,4.3517115E-4,-2.0697415E-4],"split_indices":[0,0,0,0,0,0,0],"split_type":[0,0,0,0,0,0,0],"sum_hessian":[7E0,2E0,5E0,1E0,1E0,3E0,2E0],"tree_param":{"num_deleted":"0","num_feature":"6","num_nodes":"7","size_leaf_vector":"1"}},{"base_weights":[-4.1464964E-4,-4.0799975E-3,1.7983062E-3,-5.6755543E-5,-4.8724414E-4,4.8128964E-4,-1.3326884E-4],"categories":[],"categories_nodes":[],"categories_segments":[],"categories_sizes":[],"default_left":[0,0,0,0,0,0,0],"id":69,"left_children":[1,3,5,-1,-1,-1,-1],"loss_changes":[8.767545E-5,5.602895E-6,7.889883E-5,0E0,0E0,0E0,0E0],"parents":[2147483647,0,0,1,1,2,2],"right_children":[2,4,6,-1,-1,-1,-1],"split_conditions":[1.1236389E0,9.8708314E-1,1.1436988E0,-5.6755543E-5,-4.8724414E-4,4.8128964E-4,-1.3326884E-4],"split_indices":[0,0,1,0,0,0,0],"split_type":[0,0,0,0,0,0,0],"sum_hessian":[7E0,2E0,5E0,1E0,1E0,2E0,3E0],"tree_param":{"num_deleted":"0","num_feature":"6","num_nodes":"7","size_leaf_vector":"1"}},{"base_weights":[-4.1672256E-4,-2.4186969E-3,3.2950938E-3,-4.7100187E-4,-4.6680372E-5,4.4496857E-5,3.9484896E-4],"categories":[],"categories_nodes":[],"categories_segments":[],"categories_sizes":[],"default_left":[0,0,0,0,0,0,0],"id":70,"left_children":[1,3,5,-1,-1,-1,-1],"loss_changes":[8.281831E-5,2.6909598E-5,3.9351326E-6,0E0,0E0,0E0,0E0],"parents":[2147483647,0,0,1,1,2,2],"right_children":[2,4,6,-1,-1,-1,-1],"split_conditions":[1.1436988E0,9.2596775E-1,1.1436988E0,-4.7100187E-4,-4.6680372E-5,4.4496857E-5,3.9484896E-4],"split_indices":[2,1,0,0,0,0,0],"split_type":[0,0,0,0,0,0,0],"sum_hessian":[7E0,5E0,2E0,1E0,4E0,1E0,1E0],"tree_param":{"num_deleted":"0","num_feature":"6","num_nodes":"7","size_leaf_vector":"1"}},{"base_weights":[-3.9243698E-4,-2.3247174E-3,3.1852722E-3,-4.55302E-4,-4.356603E-5,4.3014687E-5,3.816883E-4],"categories":[],"categories_nodes":[],"categories_segments":[],"categories_sizes":[],"default_left":[0,0,0,0,0,0,0],"id":71,"left_children":[1,3,5,-1,-1,-1,-1],"loss_changes":[7.702795E-5,2.5498593E-5,3.6770216E-6,0E0,0E0,0E0,0E0],"parents":[2147483647,0,0,1,1,2,2],"right_children":[2,4,6,-1,-1,-1,-1],"split_conditions":[1.1436988E0,9.2596775E-1,1.1436988E0,-4.55302E-4,-4.356603E-5,4.3014687E-5,3.816883E-4],"split_indices":[2,1,0,0,0,0,0],"split_type":[0,0,0,0,0,0,0],"sum_hessian":[7E0,5E0,2E0,1E0,4E0,1E0,1E0],"tree_param":{"num_deleted":"0","num_feature":"6","num_nodes":"7","size_leaf_vector":"1"}},{"base_weights":[-3.696945E-4,-3.6898553E-3,1.6331673E-3,-5.185604E-5,-4.4012466E-4,4.4007003E-4,-1.2341261E-4],"categories":[],"categories_nodes":[],"categories_segments":[],"categories_sizes":[],"default_left":[0,0,0,0,0,0,0],"id":72,"left_children":[1,3,5,-1,-1,-1,-1],"loss_changes":[7.190071E-5,4.4595035E-6,6.6409346E-5,0E0,0E0,0E0,0E0],"parents":[2147483647,0,0,1,1,2,2],"right_children":[2,4,6,-1,-1,-1,-1],"split_conditions":[1.1236389E0,9.8708314E-1,1.1436988E0,-5.185604E-5,-4.4012466E-4,4.4007003E-4,-1.2341261E-4],"split_indices":[0,0,1,0,0,0,0],"split_type":[0,0,0,0,0,0,0],"sum_hessian":[7E0,2E0,5E0,1E0,1E0,2E0,3E0],"tree_param":{"num_deleted":"0","num_feature":"6","num_nodes":"7","size_leaf_vector":"1"}},{"base_weights":[-3.717012E-4,-2.192131E-3,2.9999018E-3,-4.25454E-4,-4.3021642E-5,4.5692923E-5,3.54294E-4],"categories":[],"categories_nodes":[],"categories_segments":[],"categories_sizes":[],"default_left":[0,0,0,0,0,0,0],"id":73,"left_children":[1,3,5,-1,-1,-1,-1],"loss_changes":[6.839226E-5,2.1775773E-5,2.2859786E-6,0E0,0E0,0E0,0E0],"parents":[2147483647,0,0,1,1,2,2],"right_children":[2,4,6,-1,-1,-1,-1],"split_conditions":[1.1436988E0,9.2596775E-1,1.1436988E0,-4.25454E-4,-4.3021642E-5,4.5692923E-5,3.54294E-4],"split_indices":[2,1,0,0,0,0,0],"split_type":[0,0,0,0,0,0,0],"sum_hessian":[7E0,5E0,2E0,1E0,4E0,1E0,1E0],"tree_param":{"num_deleted":"0","num_feature":"6","num_nodes":"7","size_leaf_vector":"1"}},{"base_weights":[-3.4974018E-4,-2.1067602E-3,2.899915E-3,-4.1127205E-4,-4.015267E-5,4.4171014E-5,3.424843E-4],"categories":[],"categories_nodes":[],"categories_segments":[],"categories_sizes":[],"default_left":[0,0,0,0,0,0,0],"id":74,"left_children":[1,3,5,-1,-1,-1,-1],"loss_changes":[6.360623E-5,2.0641684E-5,2.1359483E-6,0E0,0E0,0E0,0E0],"parents":[2147483647,0,0,1,1,2,2],"right_children":[2,4,6,-1,-1,-1,-1],"split_conditions":[1.1436988E0,9.2596775E-1,1.1436988E0,-4.1127205E-4,-4.015267E-5,4.4171014E-5,3.424843E-4],"split_indices":[2,1,0,0,0,0,0],"split_type":[0,0,0,0,0,0,0],"sum_hessian":[7E0,5E0,2E0,1E0,4E0,1E0,1E0],"tree_param":{"num_deleted":"0","num_feature":"6","num_nodes":"7","size_leaf_vector":"1"}},{"base_weights":[-3.2915673E-4,-2.0250508E-3,2.8032362E-3,-3.9756298E-4,-3.7474434E-5,4.2696796E-5,3.3106803E-4],"categories":[],"categories_nodes":[],"categories_segments":[],"categories_sizes":[],"default_left":[0,0,0,0,0,0,0],"id":75,"left_children":[1,3,5,-1,-1,-1,-1],"loss_changes":[5.9163252E-5,1.955368E-5,1.9961844E-6,0E0,0E0,0E0,0E0],"parents":[2147483647,0,0,1,1,2,2],"right_children":[2,4,6,-1,-1,-1,-1],"split_conditions":[1.1436988E0,9.2596775E-1,1.1436988E0,-3.9756298E-4,-3.7474434E-5,4.2696796E-5,3.3106803E-4],"split_indices":[2,1,0,0,0,0,0],"split_type":[0,0,0,0,0,0,0],"sum_hessian":[7E0,5E0,2E0,1E0,4E0,1E0,1E0],"tree_param":{"num_deleted":"0","num_feature":"6","num_nodes":"7","size_leaf_vector":"1"}},{"base_weights":[-3.0986467E-4,-3.228128E-3,1.4462471E-3,-4.6106183E-5,-3.843109E-4,3.4107207E-4,-1.7324687E-4],"categories":[],"categories_nodes":[],"categories_segments":[],"categories_sizes":[],"default_left":[0,0,0,0,0,0,0],"id":76,"left_children":[1,3,5,-1,-1,-1,-1],"loss_changes":[5.5460514E-5,3.2629505E-6,5.5529454E-5,0E0,0E0,0E0,0E0],"parents":[2147483647,0,0,1,1,2,2],"right_children":[2,4,6,-1,-1,-1,-1],"split_conditions":[1.1236389E0,9.8708314E-1,1.1794219E0,-4.6106183E-5,-3.843109E-4,3.4107207E-4,-1.7324687E-4],"split_indices":[0,0,0,0,0,0,0],"split_type":[0,0,0,0,0,0,0],"sum_hessian":[7E0,2E0,5E0,1E0,1E0,3E0,2E0],"tree_param":{"num_deleted":"0","num_feature":"6","num_nodes":"7","size_leaf_vector":"1"}},{"base_weights":[-3.372232E-4,-3.1205118E-3,1.3495769E-3,-4.456838E-5,-3.7149986E-4,3.7833155E-4,-1.13724476E-4],"categories":[],"categories_nodes":[],"categories_segments":[],"categories_sizes":[],"default_left":[0,0,0,0,0,0,0],"id":77,"left_children":[1,3,5,-1,-1,-1,-1],"loss_changes":[5.0676404E-5,3.0491683E-6,5.0971026E-5,0E0,0E0,0E0,0E0],"parents":[2147483647,0,0,1,1,2,2],"right_children":[2,4,6,-1,-1,-1,-1],"split_conditions":[1.1236389E0,9.8708314E-1,1.1436988E0,-4.456838E-5,-3.7149986E-4,3.7833155E-4,-1.13724476E-4],"split_indices":[0,0,1,0,0,0,0],"split_type":[0,0,0,0,0,0,0],"sum_hessian":[7E0,2E0,5E0,1E0,1E0,2E0,3E0],"tree_param":{"num_deleted":"0","num_feature":"6","num_nodes":"7","size_leaf_vector":"1"}},{"base_weights":[-3.371636E-4,-1.8467052E-3,2.473116E-3,-3.59116E-4,-3.589094E-5,3.3696495E-5,2.9605228E-4],"categories":[],"categories_nodes":[],"categories_segments":[],"categories_sizes":[],"default_left":[0,0,0,0,0,0,0],"id":78,"left_children":[1,3,5,-1,-1,-1,-1],"loss_changes":[4.7314337E-5,1.5589945E-5,2.169516E-6,0E0,0E0,0E0,0E0],"parents":[2147483647,0,0,1,1,2,2],"right_children":[2,4,6,-1,-1,-1,-1],"split_conditions":[1.1436988E0,9.2596775E-1,1.1436988E0,-3.59116E-4,-3.589094E-5,3.3696495E-5,2.9605228E-4],"split_indices":[2,1,0,0,0,0,0],"split_type":[0,0,0,0,0,0,0],"sum_hessian":[7E0,5E0,2E0,1E0,4E0,1E0,1E0],"tree_param":{"num_deleted":"0","num_feature":"6","num_nodes":"7","size_leaf_vector":"1"}},{"base_weights":[-3.1795105E-4,-2.9177368E-3,1.258484E-3,-4.188617E-5,-3.471454E-4,3.5291017E-4,-1.0614038E-4],"categories":[],"categories_nodes":[],"categories_segments":[],"categories_sizes":[],"default_left":[0,0,0,0,0,0,0],"id":79,"left_children":[1,3,5,-1,-1,-1,-1],"loss_changes":[4.422939E-5,2.6265625E-6,4.436465E-5,0E0,0E0,0E0,0E0],"parents":[2147483647,0,0,1,1,2,2],"right_children":[2,4,6,-1,-1,-1,-1],"split_conditions":[1.1236389E0,9.8708314E-1,1.1436988E0,-4.188617E-5,-3.471454E-4,3.5291017E-4,-1.0614038E-4],"split_indices":[0,0,1,0,0,0,0],"split_type":[0,0,0,0,0,0,0],"sum_hessian":[7E0,2E0,5E0,1E0,1E0,2E0,3E0],"tree_param":{"num_deleted":"0","num_feature":"6","num_nodes":"7","size_leaf_vector":"1"}},{"base_weights":[-3.1777224E-4,-1.7394169E-3,2.328992E-3,-3.3557415E-4,-3.5144887E-5,3.6108493E-5,2.7442377E-4],"categories":[],"categories_nodes":[],"categories_segments":[],"categories_sizes":[],"default_left":[0,0,0,0,0,0,0],"id":80,"left_children":[1,3,5,-1,-1,-1,-1],"loss_changes":[4.1966996E-5,1.3345101E-5,1.2868531E-6,0E0,0E0,0E0,0E0],"parents":[2147483647,0,0,1,1,2,2],"right_children":[2,4,6,-1,-1,-1,-1],"split_conditions":[1.1436988E0,9.2596775E-1,1.1436988E0,-3.3557415E-4,-3.5144887E-5,3.6108493E-5,2.7442377E-4],"split_indices":[2,1,0,0,0,0,0],"split_type":[0,0,0,0,0,0,0],"sum_hessian":[7E0,5E0,2E0,1E0,4E0,1E0,1E0],"tree_param":{"num_deleted":"0","num_feature":"6","num_nodes":"7","size_leaf_vector":"1"}},{"base_weights":[-2.99361E-4,-1.6713823E-3,2.2513568E-3,-3.2438835E-4,-3.2800435E-5,3.4904482E-5,2.6527644E-4],"categories":[],"categories_nodes":[],"categories_segments":[],"categories_sizes":[],"default_left":[0,0,0,0,0,0,0],"id":81,"left_children":[1,3,5,-1,-1,-1,-1],"loss_changes":[3.902251E-5,1.2659226E-5,1.2025412E-6,0E0,0E0,0E0,0E0],"parents":[2147483647,0,0,1,1,2,2],"right_children":[2,4,6,-1,-1,-1,-1],"split_conditions":[1.1436988E0,9.2596775E-1,1.1436988E0,-3.2438835E-4,-3.2800435E-5,3.4904482E-5,2.6527644E-4],"split_indices":[2,1,0,0,0,0,0],"split_type":[0,0,0,0,0,0,0],"sum_hessian":[7E0,5E0,2E0,1E0,4E0,1E0,1E0],"tree_param":{"num_deleted":"0","num_feature":"6","num_nodes":"7","size_leaf_vector":"1"}},{"base_weights":[-2.8210215E-4,-2.6385188E-3,1.1450222E-3,-3.8226448E-5,-3.1357605E-4,2.7902363E-4,-1.4840066E-4],"categories":[],"categories_nodes":[],"categories_segments":[],"categories_sizes":[],"default_left":[0,0,0,0,0,0,0],"id":82,"left_children":[1,3,5,-1,-1,-1,-1],"loss_changes":[3.6308422E-5,2.090239E-6,3.8558668E-5,0E0,0E0,0E0,0E0],"parents":[2147483647,0,0,1,1,2,2],"right_children":[2,4,6,-1,-1,-1,-1],"split_conditions":[1.1236389E0,9.8708314E-1,1.1794219E0,-3.8226448E-5,-3.1357605E-4,2.7902363E-4,-1.4840066E-4],"split_indices":[0,0,0,0,0,0,0],"split_type":[0,0,0,0,0,0,0],"sum_hessian":[7E0,2E0,5E0,1E0,1E0,3E0,2E0],"tree_param":{"num_deleted":"0","num_feature":"6","num_nodes":"7","size_leaf_vector":"1"}},{"base_weights":[-3.030499E-4,-2.5505573E-3,1.0678257E-3,-3.6950907E-5,-3.031234E-4,3.0952095E-4,-9.812117E-5],"categories":[],"categories_nodes":[],"categories_segments":[],"categories_sizes":[],"default_left":[0,0,0,0,0,0,0],"id":83,"left_children":[1,3,5,-1,-1,-1,-1],"loss_changes":[3.317658E-5,1.95338E-6,3.515341E-5,0E0,0E0,0E0,0E0],"parents":[2147483647,0,0,1,1,2,2],"right_children":[2,4,6,-1,-1,-1,-1],"split_conditions":[1.1236389E0,9.8708314E-1,1.1436988E0,-3.6950907E-5,-3.031234E-4,3.0952095E-4,-9.812117E-5],"split_indices":[0,0,1,0,0,0,0],"split_type":[0,0,0,0,0,0,0],"sum_hessian":[7E0,2E0,5E0,1E0,1E0,2E0,3E0],"tree_param":{"num_deleted":"0","num_feature":"6","num_nodes":"7","size_leaf_vector":"1"}},{"base_weights":[-3.0132796E-4,-1.521102E-3,1.9839406E-3,-2.930184E-4,-3.095269E-5,2.7708213E-5,2.368172E-4],"categories":[],"categories_nodes":[],"categories_segments":[],"categories_sizes":[],"default_left":[0,0,0,0,0,0,0],"id":84,"left_children":[1,3,5,-1,-1,-1,-1],"loss_changes":[3.1123152E-5,1.01365185E-5,1.3109584E-6,0E0,0E0,0E0,0E0],"parents":[2147483647,0,0,1,1,2,2],"right_children":[2,4,6,-1,-1,-1,-1],"split_conditions":[1.1436988E0,9.2596775E-1,1.1436988E0,-2.930184E-4,-3.095269E-5,2.7708213E-5,2.368172E-4],"split_indices":[2,1,0,0,0,0,0],"split_type":[0,0,0,0,0,0,0],"sum_hessian":[7E0,5E0,2E0,1E0,4E0,1E0,1E0],"tree_param":{"num_deleted":"0","num_feature":"6","num_nodes":"7","size_leaf_vector":"1"}},{"base_weights":[-2.8439364E-4,-2.3845285E-3,9.969388E-4,-3.468593E-5,-2.8325123E-4,2.471924E-4,-1.345262E-4],"categories":[],"categories_nodes":[],"categories_segments":[],"categories_sizes":[],"default_left":[0,0,0,0,0,0,0],"id":85,"left_children":[1,3,5,-1,-1,-1,-1],"loss_changes":[2.8973196E-5,1.6864051E-6,3.0833748E-5,0E0,0E0,0E0,0E0],"parents":[2147483647,0,0,1,1,2,2],"right_children":[2,4,6,-1,-1,-1,-1],"split_conditions":[1.1236389E0,9.8708314E-1,1.1794219E0,-3.468593E-5,-2.8325123E-4,2.471924E-4,-1.345262E-4],"split_indices":[0,0,0,0,0,0,0],"split_type":[0,0,0,0,0,0,0],"sum_hessian":[7E0,2E0,5E0,1E0,1E0,3E0,2E0],"tree_param":{"num_deleted":"0","num_feature":"6","num_nodes":"7","size_leaf_vector":"1"}},{"base_weights":[-3.0159287E-4,-2.3050457E-3,9.294067E-4,-3.3529603E-5,-2.7380986E-4,2.7653875E-4,-9.1114045E-5],"categories":[],"categories_nodes":[],"categories_segments":[],"categories_sizes":[],"default_left":[0,0,0,0,0,0,0],"id":86,"left_children":[1,3,5,-1,-1,-1,-1],"loss_changes":[2.6480895E-5,1.5758742E-6,2.8693772E-5,0E0,0E0,0E0,0E0],"parents":[2147483647,0,0,1,1,2,2],"right_children":[2,4,6,-1,-1,-1,-1],"split_conditions":[1.1236389E0,9.8708314E-1,1.1436988E0,-3.3529603E-5,-2.7380986E-4,2.7653875E-4,-9.1114045E-5],"split_indices":[0,0,1,0,0,0,0],"split_type":[0,0,0,0,0,0,0],"sum_hessian":[7E0,2E0,5E0,1E0,1E0,2E0,3E0],"tree_param":{"num_deleted":"0","num_feature":"6","num_nodes":"7","size_leaf_vector":"1"}},{"base_weights":[-2.985398E-4,-1.3825893E-3,1.7478168E-3,-2.6468237E-4,-2.8960905E-5,2.1580856E-5,2.1146137E-4],"categories":[],"categories_nodes":[],"categories_segments":[],"categories_sizes":[],"default_left":[0,0,0,0,0,0,0],"id":87,"left_children":[1,3,5,-1,-1,-1,-1],"loss_changes":[2.4798192E-5,8.139395E-6,1.3350409E-6,0E0,0E0,0E0,0E0],"parents":[2147483647,0,0,1,1,2,2],"right_children":[2,4,6,-1,-1,-1,-1],"split_conditions":[1.1436988E0,9.2596775E-1,1.1436988E0,-2.6468237E-4,-2.8960905E-5,2.1580856E-5,2.1146137E-4],"split_indices":[2,1,0,0,0,0,0],"split_type":[0,0,0,0,0,0,0],"sum_hessian":[7E0,5E0,2E0,1E0,4E0,1E0,1E0],"tree_param":{"num_deleted":"0","num_feature":"6","num_nodes":"7","size_leaf_vector":"1"}},{"base_weights":[-2.821485E-4,-2.1547973E-3,8.685504E-4,-3.1447413E-5,-2.558589E-4,2.5814772E-4,-8.492113E-5],"categories":[],"categories_nodes":[],"categories_segments":[],"categories_sizes":[],"default_left":[0,0,0,0,0,0,0],"id":88,"left_children":[1,3,5,-1,-1,-1,-1],"loss_changes":[2.3136792E-5,1.3632089E-6,2.498124E-5,0E0,0E0,0E0,0E0],"parents":[2147483647,0,0,1,1,2,2],"right_children":[2,4,6,-1,-1,-1,-1],"split_conditions":[1.1236389E0,9.8708314E-1,1.1436988E0,-3.1447413E-5,-2.558589E-4,2.5814772E-4,-8.492113E-5],"split_indices":[0,0,1,0,0,0,0],"split_type":[0,0,0,0,0,0,0],"sum_hessian":[7E0,2E0,5E0,1E0,1E0,2E0,3E0],"tree_param":{"num_deleted":"0","num_feature":"6","num_nodes":"7","size_leaf_vector":"1"}},{"base_weights":[-2.7930073E-4,-1.2997985E-3,1.6462208E-4,-2.4732947E-4,-2.797842E-5],"categories":[],"categories_nodes":[],"categories_segments":[],"categories_sizes":[],"default_left":[0,0,0,0,0],"id":89,"left_children":[1,3,-1,-1,-1],"loss_changes":[2.1964423E-5,6.994903E-6,0E0,0E0,0E0],"parents":[2147483647,0,0,1,1],"right_children":[2,4,-1,-1,-1],"split_conditions":[1.1436988E0,9.2596775E-1,1.6462208E-4,-2.4732947E-4,-2.797842E-5],"split_indices":[2,1,0,0,0],"split_type":[0,0,0,0,0],"sum_hessian":[7E0,5E0,2E0,1E0,4E0],"tree_param":{"num_deleted":"0","num_feature":"6","num_nodes":"5","size_leaf_vector":"1"}},{"base_weights":[-2.7595626E-4,-1.2484619E-3,1.5639067E-3,-2.3908417E-4,-2.6111802E-5,1.8203258E-5,1.9031763E-4],"categories":[],"categories_nodes":[],"categories_segments":[],"categories_sizes":[],"default_left":[0,0,0,0,0,0,0],"id":90,"left_children":[1,3,5,-1,-1,-1,-1],"loss_changes":[2.0008449E-5,6.646869E-6,1.1824313E-6,0E0,0E0,0E0,0E0],"parents":[2147483647,0,0,1,1,2,2],"right_children":[2,4,6,-1,-1,-1,-1],"split_conditions":[1.1436988E0,9.2596775E-1,1.1436988E0,-2.3908417E-4,-2.6111802E-5,1.8203258E-5,1.9031763E-4],"split_indices":[2,1,0,0,0,0,0],"split_type":[0,0,0,0,0,0,0],"sum_hessian":[7E0,5E0,2E0,1E0,4E0,1E0,1E0],"tree_param":{"num_deleted":"0","num_feature":"6","num_nodes":"7","size_leaf_vector":"1"}},{"base_weights":[-2.60969E-4,-1.9478202E-3,7.7750854E-4,-2.8594337E-5,-2.3111503E-4,2.3771524E-4,-8.1321006E-5],"categories":[],"categories_nodes":[],"categories_segments":[],"categories_sizes":[],"default_left":[0,0,0,0,0,0,0],"id":91,"left_children":[1,3,5,-1,-1,-1,-1],"loss_changes":[1.8794708E-5,1.0935237E-6,2.1678332E-5,0E0,0E0,0E0,0E0],"parents":[2147483647,0,0,1,1,2,2],"right_children":[2,4,6,-1,-1,-1,-1],"split_conditions":[1.1236389E0,9.8708314E-1,1.1436988E0,-2.8594337E-5,-2.3111503E-4,2.3771524E-4,-8.1321006E-5],"split_indices":[0,0,1,0,0,0,0],"split_type":[0,0,0,0,0,0,0],"sum_hessian":[7E0,2E0,5E0,1E0,1E0,2E0,3E0],"tree_param":{"num_deleted":"0","num_feature":"6","num_nodes":"7","size_leaf_vector":"1"}},{"base_weights":[-2.5783645E-4,-1.1730194E-3,1.472652E-4,-2.234121E-4,-2.5146208E-5],"categories":[],"categories_nodes":[],"categories_segments":[],"categories_sizes":[],"default_left":[0,0,0,0,0],"id":92,"left_children":[1,3,-1,-1,-1],"loss_changes":[1.770832E-5,5.72147E-6,0E0,0E0,0E0],"parents":[2147483647,0,0,1,1],"right_children":[2,4,-1,-1,-1],"split_conditions":[1.1436988E0,9.2596775E-1,1.472652E-4,-2.234121E-4,-2.5146208E-5],"split_indices":[2,1,0,0,0],"split_type":[0,0,0,0,0],"sum_hessian":[7E0,5E0,2E0,1E0,4E0],"tree_param":{"num_deleted":"0","num_feature":"6","num_nodes":"5","size_leaf_vector":"1"}},{"base_weights":[-2.5455156E-4,-1.820758E-4,7.131525E-4,2.2277833E-4,-7.83813E-5],"categories":[],"categories_nodes":[],"categories_segments":[],"categories_sizes":[],"default_left":[0,0,0,0,0],"id":93,"left_children":[1,-1,3,-1,-1],"loss_changes":[1.6237576E-5,0E0,1.936378E-5,0E0,0E0],"parents":[2147483647,0,0,2,2],"right_children":[2,-1,4,-1,-1],"split_conditions":[1.1236389E0,-1.820758E-4,1.1436988E0,2.2277833E-4,-7.83813E-5],"split_indices":[0,0,1,0,0],"split_type":[0,0,0,0,0],"sum_hessian":[7E0,2E0,5E0,2E0,3E0],"tree_param":{"num_deleted":"0","num_feature":"6","num_nodes":"5","size_leaf_vector":"1"}},{"base_weights":[-2.374649E-4,-1.0841404E-3,1.3629497E-4,-2.0989578E-4,-2.153516E-5],"categories":[],"categories_nodes":[],"categories_segments":[],"categories_sizes":[],"default_left":[0,0,0,0,0],"id":94,"left_children":[1,3,-1,-1,-1],"loss_changes":[1.5150544E-5,5.267606E-6,0E0,0E0,0E0],"parents":[2147483647,0,0,1,1],"right_children":[2,4,-1,-1,-1],"split_conditions":[1.1436988E0,9.2596775E-1,1.3629497E-4,-2.0989578E-4,-2.153516E-5],"split_indices":[2,1,0,0,0],"split_type":[0,0,0,0,0],"sum_hessian":[7E0,5E0,2E0,1E0,4E0],"tree_param":{"num_deleted":"0","num_feature":"6","num_nodes":"5","size_leaf_vector":"1"}},{"base_weights":[-2.348423E-4,-2.0290018E-4,4.9667805E-4,-1.1587739E-4,1.4347534E-4],"categories":[],"categories_nodes":[],"categories_segments":[],"categories_sizes":[],"default_left":[0,0,0,0,0],"id":95,"left_children":[1,-1,3,-1,-1],"loss_changes":[1.3827698E-5,0E0,1.5748617E-5,0E0,0E0],"parents":[2147483647,0,0,2,2],"right_children":[2,-1,4,-1,-1],"split_conditions":[9.2596775E-1,-2.0290018E-4,9.8708314E-1,-1.1587739E-4,1.4347534E-4],"split_indices":[1,0,2,0,0],"split_type":[0,0,0,0,0],"sum_hessian":[7E0,1E0,6E0,2E0,4E0],"tree_param":{"num_deleted":"0","num_feature":"6","num_nodes":"5","size_leaf_vector":"1"}},{"base_weights":[-2.5033287E-4,-1.0207465E-3,1.2230575E-3,-1.9613703E-4,-2.1018584E-5,8.686384E-6,1.5438795E-4],"categories":[],"categories_nodes":[],"categories_segments":[],"categories_sizes":[],"default_left":[0,0,0,0,0,0,0],"id":96,"left_children":[1,3,5,-1,-1,-1,-1],"loss_changes":[1.2712945E-5,4.512524E-6,1.1898487E-6,0E0,0E0,0E0,0E0],"parents":[2147483647,0,0,1,1,2,2],"right_children":[2,4,6,-1,-1,-1,-1],"split_conditions":[1.1436988E0,9.2596775E-1,1.1436988E0,-1.9613703E-4,-2.1018584E-5,8.686384E-6,1.5438795E-4],"split_indices":[2,1,0,0,0,0,0],"split_type":[0,0,0,0,0,0,0],"sum_hessian":[7E0,5E0,2E0,1E0,4E0,1E0,1E0],"tree_param":{"num_deleted":"0","num_feature":"6","num_nodes":"7","size_leaf_vector":"1"}},{"base_weights":[-2.3732583E-4,-1.895984E-4,4.4400245E-4,-1.0903478E-4,1.3189018E-4],"categories":[],"categories_nodes":[],"categories_segments":[],"categories_sizes":[],"default_left":[0,0,0,0,0],"id":97,"left_children":[1,-1,3,-1,-1],"loss_changes":[1.185446E-5,0E0,1.3615339E-5,0E0,0E0],"parents":[2147483647,0,0,2,2],"right_children":[2,-1,4,-1,-1],"split_conditions":[9.2596775E-1,-1.895984E-4,9.8708314E-1,-1.0903478E-4,1.3189018E-4],"split_indices":[1,0,2,0,0],"split_type":[0,0,0,0,0],"sum_hessian":[7E0,1E0,6E0,2E0,4E0],"tree_param":{"num_deleted":"0","num_feature":"6","num_nodes":"5","size_leaf_vector":"1"}},{"base_weights":[-2.506243E-4,-8.2512945E-4,1.4484725E-4,-1.8327833E-4,-1.5752657E-5],"categories":[],"categories_nodes":[],"categories_segments":[],"categories_sizes":[],"default_left":[0,0,0,0,0],"id":98,"left_children":[1,3,-1,-1,-1],"loss_changes":[1.1175613E-5,4.804277E-6,0E0,0E0,0E0],"parents":[2147483647,0,0,1,1],"right_children":[2,4,-1,-1,-1],"split_conditions":[1.1794219E0,9.2596775E-1,1.4484725E-4,-1.8327833E-4,-1.5752657E-5],"split_indices":[2,1,0,0,0],"split_type":[0,0,0,0,0],"sum_hessian":[7E0,6E0,1E0,1E0,5E0],"tree_param":{"num_deleted":"0","num_feature":"6","num_nodes":"5","size_leaf_vector":"1"}},{"base_weights":[-2.376106E-4,-7.9238415E-4,1.4001927E-4,-1.7716885E-4,-1.4628683E-5],"categories":[],"categories_nodes":[],"categories_segments":[],"categories_sizes":[],"default_left":[0,0,0,0,0],"id":99,"left_children":[1,3,-1,-1,-1],"loss_changes":[1.039647E-5,4.543458E-6,0E0,0E0,0E0],"parents":[2147483647,0,0,1,1],"right_children":[2,4,-1,-1,-1],"split_conditions":[1.1794219E0,9.2596775E-1,1.4001927E-4,-1.7716885E-4,-1.4628683E-5],"split_indices":[2,1,0,0,0],"split_type":[0,0,0,0,0],"sum_hessian":[7E0,6E0,1E0,1E0,5E0],"tree_param":{"num_deleted":"0","num_feature":"6","num_nodes":"5","size_leaf_vector":"1"}},{"base_weights":[-2.2535192E-4,-7.6108426E-4,1.3535023E-4,-1.7126402E-4,-1.35821965E-5],"categories":[],"categories_nodes":[],"categories_segments":[],"categories_sizes":[],"default_left":[0,0,0,0,0],"id":100,"left_children":[1,3,-1,-1,-1],"loss_changes":[9.672848E-6,4.294547E-6,0E0,0E0,0E0],"parents":[2147483647,0,0,1,1],"right_children":[2,4,-1,-1,-1],"split_conditions":[1.1794219E0,9.2596775E-1,1.3535023E-4,-1.7126402E-4,-1.35821965E-5],"split_indices":[2,1,0,0,0],"split_type":[0,0,0,0,0],"sum_hessian":[7E0,6E0,1E0,1E0,5E0],"tree_param":{"num_deleted":"0","num_feature":"6","num_nodes":"5","size_leaf_vector":"1"}},{"base_weights":[-2.1380848E-4,-7.311851E-4,1.3084016E-4,-1.6555587E-4,-1.2611492E-5],"categories":[],"categories_nodes":[],"categories_segments":[],"categories_sizes":[],"default_left":[0,0,0,0,0],"id":101,"left_children":[1,3,-1,-1,-1],"loss_changes":[9.00137E-6,4.056906E-6,0E0,0E0,0E0],"parents":[2147483647,0,0,1,1],"right_children":[2,4,-1,-1,-1],"split_conditions":[1.1794219E0,9.2596775E-1,1.3084016E-4,-1.6555587E-4,-1.2611492E-5],"split_indices":[2,1,0,0,0],"split_type":[0,0,0,0,0],"sum_hessian":[7E0,6E0,1E0,1E0,5E0],"tree_param":{"num_deleted":"0","num_feature":"6","num_nodes":"5","size_leaf_vector":"1"}},{"base_weights":[-2.0293395E-4,-1.6003648E-4,3.7183613E-4,1.3748647E-4,-7.799268E-5],"categories":[],"categories_nodes":[],"categories_segments":[],"categories_sizes":[],"default_left":[0,0,0,0,0],"id":102,"left_children":[1,-1,3,-1,-1],"loss_changes":[8.41896E-6,0E0,1.1386595E-5,0E0,0E0],"parents":[2147483647,0,0,2,2],"right_children":[2,-1,4,-1,-1],"split_conditions":[9.2596775E-1,-1.6003648E-4,1.1436988E0,1.3748647E-4,-7.799268E-5],"split_indices":[1,0,1,0,0],"split_type":[0,0,0,0,0],"sum_hessian":[7E0,1E0,6E0,3E0,3E0],"tree_param":{"num_deleted":"0","num_feature":"6","num_nodes":"5","size_leaf_vector":"1"}},{"base_weights":[-2.0497375E-4,-8.2232273E-4,9.778738E-5,-1.5470186E-4,-1.8586716E-5],"categories":[],"categories_nodes":[],"categories_segments":[],"categories_sizes":[],"default_left":[0,0,0,0,0],"id":103,"left_children":[1,3,-1,-1,-1],"loss_changes":[8.180323E-6,2.6535777E-6,0E0,0E0,0E0],"parents":[2147483647,0,0,1,1],"right_children":[2,4,-1,-1,-1],"split_conditions":[1.1436988E0,9.2596775E-1,9.778738E-5,-1.5470186E-4,-1.8586716E-5],"split_indices":[2,1,0,0,0],"split_type":[0,0,0,0,0],"sum_hessian":[7E0,5E0,2E0,1E0,4E0],"tree_param":{"num_deleted":"0","num_feature":"6","num_nodes":"5","size_leaf_vector":"1"}},{"base_weights":[-2.0124514E-4,-6.7128986E-4,1.1863709E-4,-1.4954606E-4,-1.2627671E-5],"categories":[],"categories_nodes":[],"categories_segments":[],"categories_sizes":[],"default_left":[0,0,0,0,0],"id":104,"left_children":[1,3,-1,-1,-1],"loss_changes":[7.4629716E-6,3.2157877E-6,0E0,0E0,0E0],"parents":[2147483647,0,0,1,1],"right_children":[2,4,-1,-1,-1],"split_conditions":[1.1794219E0,9.2596775E-1,1.1863709E-4,-1.4954606E-4,-1.2627671E-5],"split_indices":[2,1,0,0,0],"split_type":[0,0,0,0,0],"sum_hessian":[7E0,6E0,1E0,1E0,5E0],"tree_param":{"num_deleted":"0","num_feature":"6","num_nodes":"5","size_leaf_vector":"1"}},{"base_weights":[-1.9078785E-4,-7.6101505E-4,9.0250374E-5,-1.4456114E-4,-1.6504526E-5],"categories":[],"categories_nodes":[],"categories_segments":[],"categories_sizes":[],"default_left":[0,0,0,0,0],"id":105,"left_children":[1,3,-1,-1,-1],"loss_changes":[6.9844596E-6,2.3788084E-6,0E0,0E0,0E0],"parents":[2147483647,0,0,1,1],"right_children":[2,4,-1,-1,-1],"split_conditions":[1.1436988E0,9.2596775E-1,9.0250374E-5,-1.4456114E-4,-1.6504526E-5],"split_indices":[2,1,0,0,0],"split_type":[0,0,0,0,0],"sum_hessian":[7E0,5E0,2E0,1E0,4E0],"tree_param":{"num_deleted":"0","num_feature":"6","num_nodes":"5","size_leaf_vector":"1"}},{"base_weights":[-1.8746323E-4,-6.2967837E-4,1.1167526E-4,-1.3974309E-4,-1.2073347E-5],"categories":[],"categories_nodes":[],"categories_segments":[],"categories_sizes":[],"default_left":[0,0,0,0,0],"id":106,"left_children":[1,3,-1,-1,-1],"loss_changes":[6.5970858E-6,2.7885167E-6,0E0,0E0,0E0],"parents":[2147483647,0,0,1,1],"right_children":[2,4,-1,-1,-1],"split_conditions":[1.1794219E0,9.2596775E-1,1.1167526E-4,-1.3974309E-4,-1.2073347E-5],"split_indices":[2,1,0,0,0],"split_type":[0,0,0,0,0],"sum_hessian":[7E0,6E0,1E0,1E0,5E0],"tree_param":{"num_deleted":"0","num_feature":"6","num_nodes":"5","size_leaf_vector":"1"}},{"base_weights":[-1.7765496E-4,-6.0468167E-4,1.07951964E-4,-1.3508598E-4,-1.1212485E-5],"categories":[],"categories_nodes":[],"categories_segments":[],"categories_sizes":[],"default_left":[0,0,0,0,0],"id":107,"left_children":[1,3,-1,-1,-1],"loss_changes":[6.1371557E-6,2.6373516E-6,0E0,0E0,0E0],"parents":[2147483647,0,0,1,1],"right_children":[2,4,-1,-1,-1],"split_conditions":[1.1794219E0,9.2596775E-1,1.07951964E-4,-1.3508598E-4,-1.1212485E-5],"split_indices":[2,1,0,0,0],"split_type":[0,0,0,0,0],"sum_hessian":[7E0,6E0,1E0,1E0,5E0],"tree_param":{"num_deleted":"0","num_feature":"6","num_nodes":"5","size_leaf_vector":"1"}},{"base_weights":[-1.6842286E-4,-5.807951E-4,1.0435184E-4,-1.3058385E-4,-1.041208E-5],"categories":[],"categories_nodes":[],"categories_segments":[],"categories_sizes":[],"default_left":[0,0,0,0,0],"id":108,"left_children":[1,3,-1,-1,-1],"loss_changes":[5.710079E-6,2.4929461E-6,0E0,0E0,0E0],"parents":[2147483647,0,0,1,1],"right_children":[2,4,-1,-1,-1],"split_conditions":[1.1794219E0,9.2596775E-1,1.0435184E-4,-1.3058385E-4,-1.041208E-5],"split_indices":[2,1,0,0,0],"split_type":[0,0,0,0,0],"sum_hessian":[7E0,6E0,1E0,1E0,5E0],"tree_param":{"num_deleted":"0","num_feature":"6","num_nodes":"5","size_leaf_vector":"1"}},{"base_weights":[-1.5973383E-4,-5.5798143E-4,1.008749E-4,-1.2623072E-4,-9.670428E-6],"categories":[],"categories_nodes":[],"categories_segments":[],"categories_sizes":[],"default_left":[0,0,0,0,0],"id":109,"left_children":[1,3,-1,-1,-1],"loss_changes":[5.313836E-6,2.3549742E-6,0E0,0E0,0E0],"parents":[2147483647,0,0,1,1],"right_children":[2,4,-1,-1,-1],"split_conditions":[1.1794219E0,9.2596775E-1,1.008749E-4,-1.2623072E-4,-9.670428E-6],"split_indices":[2,1,0,0,0],"split_type":[0,0,0,0,0],"sum_hessian":[7E0,6E0,1E0,1E0,5E0],"tree_param":{"num_deleted":"0","num_feature":"6","num_nodes":"5","size_leaf_vector":"1"}},{"base_weights":[-1.5154813E-4,-5.3616613E-4,9.75132E-5,-1.2202263E-4,-8.980717E-6],"categories":[],"categories_nodes":[],"categories_segments":[],"categories_sizes":[],"default_left":[0,0,0,0,0],"id":110,"left_children":[1,3,-1,-1,-1],"loss_changes":[4.945739E-6,2.2235208E-6,0E0,0E0,0E0],"parents":[2147483647,0,0,1,1],"right_children":[2,4,-1,-1,-1],"split_conditions":[1.1794219E0,9.2596775E-1,9.75132E-5,-1.2202263E-4,-8.980717E-6],"split_indices":[2,1,0,0,0],"split_type":[0,0,0,0,0],"sum_hessian":[7E0,6E0,1E0,1E0,5E0],"tree_param":{"num_deleted":"0","num_feature":"6","num_nodes":"5","size_leaf_vector":"1"}},{"base_weights":[-1.4385249E-4,-1.17955606E-4,2.8049946E-4,-9.7242E-5,1.02227925E-4],"categories":[],"categories_nodes":[],"categories_segments":[],"categories_sizes":[],"default_left":[0,0,0,0,0],"id":111,"left_children":[1,-1,3,-1,-1],"loss_changes":[4.617255E-6,0E0,9.423293E-6,0E0,0E0],"parents":[2147483647,0,0,2,2],"right_children":[2,-1,4,-1,-1],"split_conditions":[9.2596775E-1,-1.17955606E-4,9.8708314E-1,-9.7242E-5,1.02227925E-4],"split_indices":[1,0,2,0,0],"split_type":[0,0,0,0,0],"sum_hessian":[7E0,1E0,6E0,2E0,4E0],"tree_param":{"num_deleted":"0","num_feature":"6","num_nodes":"5","size_leaf_vector":"1"}},{"base_weights":[-1.5458133E-4,-5.1460415E-4,9.085338E-5,-1.14023685E-4,-9.94461E-6],"categories":[],"categories_nodes":[],"categories_segments":[],"categories_sizes":[],"default_left":[0,0,0,0,0],"id":112,"left_children":[1,3,-1,-1,-1],"loss_changes":[4.3797813E-6,1.8511075E-6,0E0,0E0,0E0],"parents":[2147483647,0,0,1,1],"right_children":[2,4,-1,-1,-1],"split_conditions":[1.1794219E0,9.2596775E-1,9.085338E-5,-1.14023685E-4,-9.94461E-6],"split_indices":[2,1,0,0,0],"split_type":[0,0,0,0,0],"sum_hessian":[7E0,6E0,1E0,1E0,5E0],"tree_param":{"num_deleted":"0","num_feature":"6","num_nodes":"5","size_leaf_vector":"1"}},{"base_weights":[-1.465016E-4,-4.9415976E-4,8.782546E-5,-1.102229E-4,-9.2370165E-6],"categories":[],"categories_nodes":[],"categories_segments":[],"categories_sizes":[],"default_left":[0,0,0,0,0],"id":113,"left_children":[1,3,-1,-1,-1],"loss_changes":[4.07438E-6,1.750901E-6,0E0,0E0,0E0],"parents":[2147483647,0,0,1,1],"right_children":[2,4,-1,-1,-1],"split_conditions":[1.1794219E0,9.2596775E-1,8.782546E-5,-1.102229E-4,-9.2370165E-6],"split_indices":[2,1,0,0,0],"split_type":[0,0,0,0,0],"sum_hessian":[7E0,6E0,1E0,1E0,5E0],"tree_param":{"num_deleted":"0","num_feature":"6","num_nodes":"5","size_leaf_vector":"1"}},{"base_weights":[-1.3891194E-4,3.4810815E-4,-9.2174116E-5,-6.7346096E-5,1.4510156E-4],"categories":[],"categories_nodes":[],"categories_segments":[],"categories_sizes":[],"default_left":[0,0,0,0,0],"id":114,"left_children":[1,3,-1,-1,-1],"loss_changes":[4.073013E-6,9.841277E-6,0E0,0E0,0E0],"parents":[2147483647,0,0,1,1],"right_children":[2,4,-1,-1,-1],"split_conditions":[1.1794219E0,1.1436988E0,-9.2174116E-5,-6.7346096E-5,1.4510156E-4],"split_indices":[0,0,0,0,0],"split_type":[0,0,0,0,0],"sum_hessian":[7E0,5E0,2E0,3E0,2E0],"tree_param":{"num_deleted":"0","num_feature":"6","num_nodes":"5","size_leaf_vector":"1"}},{"base_weights":[-1.2822283E-4,3.3552307E-4,-8.7566674E-5,-6.33049E-5,1.3784766E-4],"categories":[],"categories_nodes":[],"categories_segments":[],"categories_sizes":[],"default_left":[0,0,0,0,0],"id":115,"left_children":[1,3,-1,-1,-1],"loss_changes":[3.707229E-6,8.816517E-6,0E0,0E0,0E0],"parents":[2147483647,0,0,1,1],"right_children":[2,4,-1,-1,-1],"split_conditions":[1.1794219E0,1.1436988E0,-8.7566674E-5,-6.33049E-5,1.3784766E-4],"split_indices":[0,0,0,0,0],"split_type":[0,0,0,0,0],"sum_hessian":[7E0,5E0,2E0,3E0,2E0],"tree_param":{"num_deleted":"0","num_feature":"6","num_nodes":"5","size_leaf_vector":"1"}},{"base_weights":[-1.1828211E-4,-1.0219416E-4,2.501607E-4,-8.366406E-5,8.91308E-5],"categories":[],"categories_nodes":[],"categories_segments":[],"categories_sizes":[],"default_left":[0,0,0,0,0],"id":116,"left_children":[1,-1,3,-1,-1],"loss_changes":[3.5078206E-6,0E0,7.065806E-6,0E0,0E0],"parents":[2147483647,0,0,2,2],"right_children":[2,-1,4,-1,-1],"split_conditions":[9.2596775E-1,-1.0219416E-4,9.8708314E-1,-8.366406E-5,8.91308E-5],"split_indices":[1,0,2,0,0],"split_type":[0,0,0,0,0],"sum_hessian":[7E0,1E0,6E0,2E0,4E0],"tree_param":{"num_deleted":"0","num_feature":"6","num_nodes":"5","size_leaf_vector":"1"}},{"base_weights":[-1.2795131E-4,3.116216E-4,-8.3322826E-5,-5.7572128E-5,1.2649894E-4],"categories":[],"categories_nodes":[],"categories_segments":[],"categories_sizes":[],"default_left":[0,0,0,0,0],"id":117,"left_children":[1,3,-1,-1,-1],"loss_changes":[3.3094893E-6,7.3783112E-6,0E0,0E0,0E0],"parents":[2147483647,0,0,1,1],"right_children":[2,4,-1,-1,-1],"split_conditions":[1.1794219E0,1.1436988E0,-8.3322826E-5,-5.7572128E-5,1.2649894E-4],"split_indices":[0,0,0,0,0],"split_type":[0,0,0,0,0],"sum_hessian":[7E0,5E0,2E0,3E0,2E0],"tree_param":{"num_deleted":"0","num_feature":"6","num_nodes":"5","size_leaf_vector":"1"}},{"base_weights":[-1.1834833E-4,-9.686749E-5,2.3011118E-4,8.345246E-5,-7.915646E-5],"categories":[],"categories_nodes":[],"categories_segments":[],"categories_sizes":[],"default_left":[0,0,0,0,0],"id":118,"left_children":[1,-1,3,-1,-1],"loss_changes":[3.112545E-6,0E0,6.2612767E-6,0E0,0E0],"parents":[2147483647,0,0,2,2],"right_children":[2,-1,4,-1,-1],"split_conditions":[9.2596775E-1,-9.686749E-5,1.1794219E0,8.345246E-5,-7.915646E-5],"split_indices":[1,0,0,0,0],"split_type":[0,0,0,0,0],"sum_hessian":[7E0,1E0,6E0,4E0,2E0],"tree_param":{"num_deleted":"0","num_feature":"6","num_nodes":"5","size_leaf_vector":"1"}},{"base_weights":[-1.2708372E-4,-9.36389E-5,2.0817667E-4,-7.606447E-5,7.846654E-5],"categories":[],"categories_nodes":[],"categories_segments":[],"categories_sizes":[],"default_left":[0,0,0,0,0],"id":119,"left_children":[1,-1,3,-1,-1],"loss_changes":[2.831821E-6,0E0,5.661819E-6,0E0,0E0],"parents":[2147483647,0,0,2,2],"right_children":[2,-1,4,-1,-1],"split_conditions":[9.2596775E-1,-9.36389E-5,9.8708314E-1,-7.606447E-5,7.846654E-5],"split_indices":[1,0,2,0,0],"split_type":[0,0,0,0,0],"sum_hessian":[7E0,1E0,6E0,2E0,4E0],"tree_param":{"num_deleted":"0","num_feature":"6","num_nodes":"5","size_leaf_vector":"1"}},{"base_weights":[-1.3464027E-4,-9.05176E-5,1.879707E-4,9.057283E-5,-6.049752E-5],"categories":[],"categories_nodes":[],"categories_segments":[],"categories_sizes":[],"default_left":[0,0,0,0,0],"id":120,"left_children":[1,-1,3,-1,-1],"loss_changes":[2.5775428E-6,0E0,5.6490308E-6,0E0,0E0],"parents":[2147483647,0,0,2,2],"right_children":[2,-1,4,-1,-1],"split_conditions":[9.2596775E-1,-9.05176E-5,1.1436988E0,9.057283E-5,-6.049752E-5],"split_indices":[1,0,1,0,0],"split_type":[0,0,0,0,0],"sum_hessian":[7E0,1E0,6E0,3E0,3E0],"tree_param":{"num_deleted":"0","num_feature":"6","num_nodes":"5","size_leaf_vector":"1"}},{"base_weights":[-1.3462703E-4,-7.301569E-5,2.4414062E-4,-8.749962E-5,7.2232884E-5],"categories":[],"categories_nodes":[],"categories_segments":[],"categories_sizes":[],"default_left":[0,0,0,0,0],"id":121,"left_children":[1,-1,3,-1,-1],"loss_changes":[2.386629E-6,0E0,5.010176E-6,0E0,0E0],"parents":[2147483647,0,0,2,2],"right_children":[2,-1,4,-1,-1],"split_conditions":[9.8708314E-1,-7.301569E-5,1.1236389E0,-8.749962E-5,7.2232884E-5],"split_indices":[2,0,0,0,0],"split_type":[0,0,0,0,0],"sum_hessian":[7E0,2E0,5E0,1E0,4E0],"tree_param":{"num_deleted":"0","num_feature":"6","num_nodes":"5","size_leaf_vector":"1"}},{"base_weights":[-1.4078617E-4,2.3164068E-4,-7.221401E-5,-5.0721166E-5,1.0393858E-4],"categories":[],"categories_nodes":[],"categories_segments":[],"categories_sizes":[],"default_left":[0,0,0,0,0],"id":122,"left_children":[1,3,-1,-1,-1],"loss_changes":[2.2831603E-6,5.232008E-6,0E0,0E0,0E0],"parents":[2147483647,0,0,1,1],"right_children":[2,4,-1,-1,-1],"split_conditions":[1.1794219E0,1.1436988E0,-7.221401E-5,-5.0721166E-5,1.0393858E-4],"split_indices":[0,0,0,0,0],"split_type":[0,0,0,0,0],"sum_hessian":[7E0,5E0,2E0,3E0,2E0],"tree_param":{"num_deleted":"0","num_feature":"6","num_nodes":"5","size_leaf_vector":"1"}},{"base_weights":[-1.3093816E-4,-8.2892184E-5,1.6354024E-4,8.056164E-5,-5.43952E-5],"categories":[],"categories_nodes":[],"categories_segments":[],"categories_sizes":[],"default_left":[0,0,0,0,0],"id":123,"left_children":[1,-1,3,-1,-1],"loss_changes":[2.1209942E-6,0E0,4.5105444E-6,0E0,0E0],"parents":[2147483647,0,0,2,2],"right_children":[2,-1,4,-1,-1],"split_conditions":[9.2596775E-1,-8.2892184E-5,1.1436988E0,8.056164E-5,-5.43952E-5],"split_indices":[1,0,1,0,0],"split_type":[0,0,0,0,0],"sum_hessian":[7E0,1E0,6E0,3E0,3E0],"tree_param":{"num_deleted":"0","num_feature":"6","num_nodes":"5","size_leaf_vector":"1"}},{"base_weights":[-1.3046133E-4,-6.694794E-5,2.1482365E-4,-8.012851E-5,6.512702E-5],"categories":[],"categories_nodes":[],"categories_segments":[],"categories_sizes":[],"default_left":[0,0,0,0,0],"id":124,"left_children":[1,-1,3,-1,-1],"loss_changes":[1.9626734E-6,0E0,4.148046E-6,0E0,0E0],"parents":[2147483647,0,0,2,2],"right_children":[2,-1,4,-1,-1],"split_conditions":[9.8708314E-1,-6.694794E-5,1.1236389E0,-8.012851E-5,6.512702E-5],"split_indices":[2,0,0,0,0],"split_type":[0,0,0,0,0],"sum_hessian":[7E0,2E0,5E0,1E0,4E0],"tree_param":{"num_deleted":"0","num_feature":"6","num_nodes":"5","size_leaf_vector":"1"}},{"base_weights":[-1.3560719E-4,2.018554E-4,-6.583631E-5,-4.490614E-5,9.145737E-5],"categories":[],"categories_nodes":[],"categories_segments":[],"categories_sizes":[],"default_left":[0,0,0,0,0],"id":125,"left_children":[1,3,-1,-1,-1],"loss_changes":[1.8534832E-6,4.068841E-6,0E0,0E0,0E0],"parents":[2147483647,0,0,1,1],"right_children":[2,4,-1,-1,-1],"split_conditions":[1.1794219E0,1.1436988E0,-6.583631E-5,-4.490614E-5,9.145737E-5],"split_indices":[0,0,0,0,0],"split_type":[0,0,0,0,0],"sum_hessian":[7E0,5E0,2E0,3E0,2E0],"tree_param":{"num_deleted":"0","num_feature":"6","num_nodes":"5","size_leaf_vector":"1"}},{"base_weights":[-1.263221E-4,-7.596215E-5,1.4274567E-4,6.0729188E-5,-6.254465E-5],"categories":[],"categories_nodes":[],"categories_segments":[],"categories_sizes":[],"default_left":[0,0,0,0,0],"id":126,"left_children":[1,-1,3,-1,-1],"loss_changes":[1.7504696E-6,0E0,3.614543E-6,0E0,0E0],"parents":[2147483647,0,0,2,2],"right_children":[2,-1,4,-1,-1],"split_conditions":[9.2596775E-1,-7.596215E-5,1.1794219E0,6.0729188E-5,-6.254465E-5],"split_indices":[1,0,0,0,0],"split_type":[0,0,0,0,0],"sum_hessian":[7E0,1E0,6E0,4E0,2E0],"tree_param":{"num_deleted":"0","num_feature":"6","num_nodes":"5","size_leaf_vector":"1"}},{"base_weights":[-1.309514E-4,1.8628154E-4,-6.206334E-5,-7.3430936E-5,5.8448317E-5],"categories":[],"categories_nodes":[],"categories_segments":[],"categories_sizes":[],"default_left":[0,0,0,0,0],"id":127,"left_children":[1,3,-1,-1,-1],"loss_changes":[1.6293144E-6,3.4244483E-6,0E0,0E0,0E0],"parents":[2147483647,0,0,1,1],"right_children":[2,4,-1,-1,-1],"split_conditions":[1.1E1,9.2596775E-1,-6.206334E-5,-7.3430936E-5,5.8448317E-5],"split_indices":[4,1,0,0,0],"split_type":[0,0,0,0,0],"sum_hessian":[7E0,5E0,2E0,1E0,4E0],"tree_param":{"num_deleted":"0","num_feature":"6","num_nodes":"5","size_leaf_vector":"1"}},{"base_weights":[-1.3495816E-4,-6.068945E-5,1.7327922E-4,-7.098317E-5,5.5707496E-5],"categories":[],"categories_nodes":[],"categories_segments":[],"categories_sizes":[],"default_left":[0,0,0,0,0],"id":128,"left_children":[1,-1,3,-1,-1],"loss_changes":[1.5195401E-6,0E0,3.1633983E-6,0E0,0E0],"parents":[2147483647,0,0,2,2],"right_children":[2,-1,4,-1,-1],"split_conditions":[9.8708314E-1,-6.068945E-5,1.1236389E0,-7.098317E-5,5.5707496E-5],"split_indices":[2,0,0,0,0],"split_type":[0,0,0,0,0],"sum_hessian":[7E0,2E0,5E0,1E0,4E0],"tree_param":{"num_deleted":"0","num_feature":"6","num_nodes":"5","size_leaf_vector":"1"}},{"base_weights":[-1.3833576E-4,1.6043868E-4,-5.9202313E-5,-4.0056704E-5,7.814765E-5],"categories":[],"categories_nodes":[],"categories_segments":[],"categories_sizes":[],"default_left":[0,0,0,0,0],"id":129,"left_children":[1,3,-1,-1,-1],"loss_changes":[1.4099186E-6,3.064908E-6,0E0,0E0,0E0],"parents":[2147483647,0,0,1,1],"right_children":[2,4,-1,-1,-1],"split_conditions":[1.1794219E0,1.1436988E0,-5.9202313E-5,-4.0056704E-5,7.814765E-5],"split_indices":[0,0,0,0,0],"split_type":[0,0,0,0,0],"sum_hessian":[7E0,5E0,2E0,3E0,2E0],"tree_param":{"num_deleted":"0","num_feature":"6","num_nodes":"5","size_leaf_vector":"1"}},{"base_weights":[-1.29203E-4,-6.7281726E-5,1.06953084E-4,5.1827235E-5,-5.6350233E-5],"categories":[],"categories_nodes":[],"categories_segments":[],"categories_sizes":[],"default_left":[0,0,0,0,0],"id":130,"left_children":[1,-1,3,-1,-1],"loss_changes":[1.2993198E-6,0E0,2.790265E-6,0E0,0E0],"parents":[2147483647,0,0,2,2],"right_children":[2,-1,4,-1,-1],"split_conditions":[9.2596775E-1,-6.7281726E-5,1.1E1,5.1827235E-5,-5.6350233E-5],"split_indices":[1,0,4,0,0],"split_type":[0,0,0,0,0],"sum_hessian":[7E0,1E0,6E0,4E0,2E0],"tree_param":{"num_deleted":"0","num_feature":"6","num_nodes":"5","size_leaf_vector":"1"}},{"base_weights":[-1.3224284E-4,1.5070608E-4,-5.6128203E-5,-6.503861E-5,5.010168E-5],"categories":[],"categories_nodes":[],"categories_segments":[],"categories_sizes":[],"default_left":[0,0,0,0,0],"id":131,"left_children":[1,3,-1,-1,-1],"loss_changes":[1.2617429E-6,2.6161265E-6,0E0,0E0,0E0],"parents":[2147483647,0,0,1,1],"right_children":[2,4,-1,-1,-1],"split_conditions":[1.1794219E0,9.2596775E-1,-5.6128203E-5,-6.503861E-5,5.010168E-5],"split_indices":[0,1,0,0,0],"split_type":[0,0,0,0,0],"sum_hessian":[7E0,5E0,2E0,1E0,4E0],"tree_param":{"num_deleted":"0","num_feature":"6","num_nodes":"5","size_leaf_vector":"1"}},{"base_weights":[-1.3479259E-4,-5.49078E-5,1.4045408E-4,-6.287098E-5,4.78218E-5],"categories":[],"categories_nodes":[],"categories_segments":[],"categories_sizes":[],"default_left":[0,0,0,0,0],"id":132,"left_children":[1,-1,3,-1,-1],"loss_changes":[1.1805166E-6,0E0,2.419891E-6,0E0,0E0],"parents":[2147483647,0,0,2,2],"right_children":[2,-1,4,-1,-1],"split_conditions":[9.8708314E-1,-5.49078E-5,1.1236389E0,-6.287098E-5,4.78218E-5],"split_indices":[2,0,0,0,0],"split_type":[0,0,0,0,0],"sum_hessian":[7E0,2E0,5E0,1E0,4E0],"tree_param":{"num_deleted":"0","num_feature":"6","num_nodes":"5","size_leaf_vector":"1"}},{"base_weights":[-1.3683902E-4,1.2806484E-4,-5.3200125E-5,-6.077488E-5,4.532834E-5],"categories":[],"categories_nodes":[],"categories_segments":[],"categories_sizes":[],"default_left":[0,0,0,0,0],"id":133,"left_children":[1,3,-1,-1,-1],"loss_changes":[1.0783814E-6,2.2260667E-6,0E0,0E0,0E0],"parents":[2147483647,0,0,1,1],"right_children":[2,4,-1,-1,-1],"split_conditions":[1.1E1,9.2596775E-1,-5.3200125E-5,-6.077488E-5,4.532834E-5],"split_indices":[4,1,0,0,0],"split_type":[0,0,0,0,0],"sum_hessian":[7E0,5E0,2E0,1E0,4E0],"tree_param":{"num_deleted":"0","num_feature":"6","num_nodes":"5","size_leaf_vector":"1"}},{"base_weights":[-1.3840199E-4,1.2459925E-4,-5.2945317E-5,-3.414512E-5,6.448627E-5],"categories":[],"categories_nodes":[],"categories_segments":[],"categories_sizes":[],"default_left":[0,0,0,0,0],"id":134,"left_children":[1,3,-1,-1,-1],"loss_changes":[1.0575615E-6,2.137661E-6,0E0,0E0,0E0],"parents":[2147483647,0,0,1,1],"right_children":[2,4,-1,-1,-1],"split_conditions":[1.1794219E0,1.1436988E0,-5.2945317E-5,-3.414512E-5,6.448627E-5],"split_indices":[0,0,0,0,0],"split_type":[0,0,0,0,0],"sum_hessian":[7E0,5E0,2E0,3E0,2E0],"tree_param":{"num_deleted":"0","num_feature":"6","num_nodes":"5","size_leaf_vector":"1"}},{"base_weights":[-1.2960036E-4],"categories":[],"categories_nodes":[],"categories_segments":[],"categories_sizes":[],"default_left":[0],"id":135,"left_children":[-1],"loss_changes":[0E0],"parents":[2147483647],"right_children":[-1],"split_conditions":[-1.2960037E-5],"split_indices":[0],"split_type":[0],"sum_hessian":[7E0],"tree_param":{"num_deleted":"0","num_feature":"6","num_nodes":"1","size_leaf_vector":"1"}},{"base_weights":[-1.1950731E-4],"categories":[],"categories_nodes":[],"categories_segments":[],"categories_sizes":[],"default_left":[0],"id":136,"left_children":[-1],"loss_changes":[0E0],"parents":[2147483647],"right_children":[-1],"split_conditions":[-1.1950731E-5],"split_indices":[0],"split_type":[0],"sum_hessian":[7E0],"tree_param":{"num_deleted":"0","num_feature":"6","num_nodes":"1","size_leaf_vector":"1"}},{"base_weights":[-1.1023548E-4],"categories":[],"categories_nodes":[],"categories_segments":[],"categories_sizes":[],"default_left":[0],"id":137,"left_children":[-1],"loss_changes":[0E0],"parents":[2147483647],"right_children":[-1],"split_conditions":[-1.1023548E-5],"split_indices":[0],"split_type":[0],"sum_hessian":[7E0],"tree_param":{"num_deleted":"0","num_feature":"6","num_nodes":"1","size_leaf_vector":"1"}},{"base_weights":[-1.01692145E-4],"categories":[],"categories_nodes":[],"categories_segments":[],"categories_sizes":[],"default_left":[0],"id":138,"left_children":[-1],"loss_changes":[0E0],"parents":[2147483647],"right_children":[-1],"split_conditions":[-1.0169215E-5],"split_indices":[0],"split_type":[0],"sum_hessian":[7E0],"tree_param":{"num_deleted":"0","num_feature":"6","num_nodes":"1","size_leaf_vector":"1"}},{"base_weights":[-9.379784E-5,1.5366929E-4,-4.799664E-5,-5.6074066E-5,4.5965116E-5],"categories":[],"categories_nodes":[],"categories_segments":[],"categories_sizes":[],"default_left":[0,0,0,0,0],"id":139,"left_children":[1,3,-1,-1,-1],"loss_changes":[1.0075884E-6,2.0456655E-6,0E0,0E0,0E0],"parents":[2147483647,0,0,1,1],"right_children":[2,4,-1,-1,-1],"split_conditions":[1.1794219E0,9.2596775E-1,-4.799664E-5,-5.6074066E-5,4.5965116E-5],"split_indices":[0,1,0,0,0],"split_type":[0,0,0,0,0],"sum_hessian":[7E0,5E0,2E0,1E0,4E0],"tree_param":{"num_deleted":"0","num_feature":"6","num_nodes":"5","size_leaf_vector":"1"}},{"base_weights":[-9.734763E-5],"categories":[],"categories_nodes":[],"categories_segments":[],"categories_sizes":[],"default_left":[0],"id":140,"left_children":[-1],"loss_changes":[0E0],"parents":[2147483647],"right_children":[-1],"split_conditions":[-9.734763E-6],"split_indices":[0],"split_type":[0],"sum_hessian":[7E0],"tree_param":{"num_deleted":"0","num_feature":"6","num_nodes":"1","size_leaf_vector":"1"}},{"base_weights":[-8.9757974E-5],"categories":[],"categories_nodes":[],"categories_segments":[],"categories_sizes":[],"default_left":[0],"id":141,"left_children":[-1],"loss_changes":[0E0],"parents":[2147483647],"right_children":[-1],"split_conditions":[-8.975798E-6],"split_indices":[0],"split_type":[0],"sum_hessian":[7E0],"tree_param":{"num_deleted":"0","num_feature":"6","num_nodes":"1","size_leaf_vector":"1"}},{"base_weights":[-8.279085E-5],"categories":[],"categories_nodes":[],"categories_segments":[],"categories_sizes":[],"default_left":[0],"id":142,"left_children":[-1],"loss_changes":[0E0],"parents":[2147483647],"right_children":[-1],"split_conditions":[-8.279086E-6],"split_indices":[0],"split_type":[0],"sum_hessian":[7E0],"tree_param":{"num_deleted":"0","num_feature":"6","num_nodes":"1","size_leaf_vector":"1"}},{"base_weights":[-7.638004E-5],"categories":[],"categories_nodes":[],"categories_segments":[],"categories_sizes":[],"default_left":[0],"id":143,"left_children":[-1],"loss_changes":[0E0],"parents":[2147483647],"right_children":[-1],"split_conditions":[-7.638005E-6],"split_indices":[0],"split_type":[0],"sum_hessian":[7E0],"tree_param":{"num_deleted":"0","num_feature":"6","num_nodes":"1","size_leaf_vector":"1"}},{"base_weights":[-7.044607E-5],"categories":[],"categories_nodes":[],"categories_segments":[],"categories_sizes":[],"default_left":[0],"id":144,"left_children":[-1],"loss_changes":[0E0],"parents":[2147483647],"right_children":[-1],"split_conditions":[-7.044607E-6],"split_indices":[0],"split_type":[0],"sum_hessian":[7E0],"tree_param":{"num_deleted":"0","num_feature":"6","num_nodes":"1","size_leaf_vector":"1"}},{"base_weights":[-6.4975684E-5,-4.5356155E-5,1.7563786E-4,-5.2815678E-5,4.6898924E-5],"categories":[],"categories_nodes":[],"categories_segments":[],"categories_sizes":[],"default_left":[0,0,0,0,0],"id":145,"left_children":[1,-1,3,-1,-1],"loss_changes":[1.0008164E-6,0E0,1.9406134E-6,0E0,0E0],"parents":[2147483647,0,0,2,2],"right_children":[2,-1,4,-1,-1],"split_conditions":[9.8708314E-1,-4.5356155E-5,1.1236389E0,-5.2815678E-5,4.6898924E-5],"split_indices":[2,0,0,0,0],"split_type":[0,0,0,0,0],"sum_hessian":[7E0,2E0,5E0,1E0,4E0],"tree_param":{"num_deleted":"0","num_feature":"6","num_nodes":"5","size_leaf_vector":"1"}},{"base_weights":[-6.9869886E-5],"categories":[],"categories_nodes":[],"categories_segments":[],"categories_sizes":[],"default_left":[0],"id":146,"left_children":[-1],"loss_changes":[0E0],"parents":[2147483647],"right_children":[-1],"split_conditions":[-6.986989E-6],"split_indices":[0],"split_type":[0],"sum_hessian":[7E0],"tree_param":{"num_deleted":"0","num_feature":"6","num_nodes":"1","size_leaf_vector":"1"}},{"base_weights":[-6.441275E-5],"categories":[],"categories_nodes":[],"categories_segments":[],"categories_sizes":[],"default_left":[0],"id":147,"left_children":[-1],"loss_changes":[0E0],"parents":[2147483647],"right_children":[-1],"split_conditions":[-6.441275E-6],"split_indices":[0],"split_type":[0],"sum_hessian":[7E0],"tree_param":{"num_deleted":"0","num_feature":"6","num_nodes":"1","size_leaf_vector":"1"}},{"base_weights":[-5.9405964E-5],"categories":[],"categories_nodes":[],"categories_segments":[],"categories_sizes":[],"default_left":[0],"id":148,"left_children":[-1],"loss_changes":[0E0],"parents":[2147483647],"right_children":[-1],"split_conditions":[-5.9405966E-6],"split_indices":[0],"split_type":[0],"sum_hessian":[7E0],"tree_param":{"num_deleted":"0","num_feature":"6","num_nodes":"1","size_leaf_vector":"1"}},{"base_weights":[-5.4770047E-5],"categories":[],"categories_nodes":[],"categories_segments":[],"categories_sizes":[],"default_left":[0],"id":149,"left_children":[-1],"loss_changes":[0E0],"parents":[2147483647],"right_children":[-1],"split_conditions":[-5.477005E-6],"split_indices":[0],"split_type":[0],